{"learner":{"attributes":{"best_iteration":"499","best_ntree_limit":"500","scikit_learn":"{\"n_estimators\": 500, \"objective\": \"reg:squarederror\", \"max_depth\": 4, \"learning_rate\": 0.02, \"verbosity\": 1, \"booster\": null, \"tree_method\": \"hist\", \"gamma\": 0, \"min_child_weight\": null, \"max_delta_step\": null, \"subsample\": null, \"colsample_bytree\": 0.7, \"colsample_bylevel\": null, \"colsample_bynode\": null, \"reg_alpha\": null, \"reg_lambda\": 2, \"scale_pos_weight\": null, \"base_score\": null, \"missing\": NaN, \"num_parallel_tree\": null, \"random_state\": null, \"n_jobs\": null, \"monotone_constraints\": null, \"interaction_constraints\": null, \"importance_type\": null, \"gpu_id\": null, \"validate_parameters\": null, \"predictor\": null, \"enable_categorical\": false, \"kwargs\": {\"sampling_method\": \"uniform\"}, \"_estimator_type\": \"regressor\"}"},"feature_names":["TS_Housing_HDEN","TS_NLCD_11","TS_NLCD_21","TS_NLCD_24","TS_NLCD_31","TS_NLCD_42","TS_NLCD_43","TS_NLCD_52","TS_NLCD_71","TS_NLCD_81","TS_NLCD_82","TS_NLCD_90","TS_NLCD_95","TS_WaterUse_wu","TS_ag_irrig","DRAIN_SQKM_x","BAS_COMPACTNESS","PPTAVG_BASIN","T_MAXSTD_BASIN","T_MINSTD_BASIN","RH_BASIN","WDMAX_BASIN","WDMIN_BASIN","PRECIP_SEAS_IND","STREAMS_KM_SQ_KM","STRAHLER_MAX","TOPWET","PCT_NO_ORDER","NDAMS_2009","DDENS_2009","STOR_NID_2009","CANALS_PCT","MINING92_PCT","POWER_SUM_MW","HIRES_LENTIC_DENS","HGA","HGAD","HGC","HGD","HGBD","HGCD","HGBC","AWCAVE","PERMAVE","BDAVE","WTDEPAVE","ROCKDEPAVE","CLAYAVE","ELEV_MEAN_M_BASIN","RRMEDIAN","SLOPE_PCT","ASPECT_DEGREES","GEOL_REEDBUSH_DOM_granitic","GEOL_REEDBUSH_DOM_quarternary","GEOL_REEDBUSH_DOM_sedimentary","GEOL_REEDBUSH_DOM_ultramafic","GEOL_REEDBUSH_DOM_volcanic"],"feature_types":["float","float","float","float","float","float","float","float","float","float","float","float","float","float","float","float","float","float","float","float","float","float","float","float","float","float","float","float","float","float","float","float","float","float","float","float","float","float","float","float","float","float","float","float","float","float","float","float","float","float","float","float","float","float","float","float","float"],"gradient_booster":{"model":{"gbtree_model_param":{"num_trees":"500","size_leaf_vector":"0"},"tree_info":[0,0,0,0,0,0,0,0,0,0,0,0,0,0,0,0,0,0,0,0,0,0,0,0,0,0,0,0,0,0,0,0,0,0,0,0,0,0,0,0,0,0,0,0,0,0,0,0,0,0,0,0,0,0,0,0,0,0,0,0,0,0,0,0,0,0,0,0,0,0,0,0,0,0,0,0,0,0,0,0,0,0,0,0,0,0,0,0,0,0,0,0,0,0,0,0,0,0,0,0,0,0,0,0,0,0,0,0,0,0,0,0,0,0,0,0,0,0,0,0,0,0,0,0,0,0,0,0,0,0,0,0,0,0,0,0,0,0,0,0,0,0,0,0,0,0,0,0,0,0,0,0,0,0,0,0,0,0,0,0,0,0,0,0,0,0,0,0,0,0,0,0,0,0,0,0,0,0,0,0,0,0,0,0,0,0,0,0,0,0,0,0,0,0,0,0,0,0,0,0,0,0,0,0,0,0,0,0,0,0,0,0,0,0,0,0,0,0,0,0,0,0,0,0,0,0,0,0,0,0,0,0,0,0,0,0,0,0,0,0,0,0,0,0,0,0,0,0,0,0,0,0,0,0,0,0,0,0,0,0,0,0,0,0,0,0,0,0,0,0,0,0,0,0,0,0,0,0,0,0,0,0,0,0,0,0,0,0,0,0,0,0,0,0,0,0,0,0,0,0,0,0,0,0,0,0,0,0,0,0,0,0,0,0,0,0,0,0,0,0,0,0,0,0,0,0,0,0,0,0,0,0,0,0,0,0,0,0,0,0,0,0,0,0,0,0,0,0,0,0,0,0,0,0,0,0,0,0,0,0,0,0,0,0,0,0,0,0,0,0,0,0,0,0,0,0,0,0,0,0,0,0,0,0,0,0,0,0,0,0,0,0,0,0,0,0,0,0,0,0,0,0,0,0,0,0,0,0,0,0,0,0,0,0,0,0,0,0,0,0,0,0,0,0,0,0,0,0,0,0,0,0,0,0,0,0,0,0,0,0,0,0,0,0,0,0,0,0,0,0,0,0,0,0,0,0,0,0,0,0,0,0,0,0,0,0,0,0,0,0,0,0,0,0,0,0,0,0,0,0,0,0,0,0,0,0,0,0,0,0,0,0,0,0,0,0,0,0,0,0],"trees":[{"base_weights":[8.3282113E-1,4.3067953E-1,9.3177646E-1,3.3823045E-3,5.2646536E-1,8.336388E-1,1.2225062E0,8.972098E-2,-1.9251367E-3,4.1260397E-1,1.5043506E-2,7.174651E-1,2.2615232E-2,1.2348717E0,3.8633044E-3,2.2122487E-3,2.704659E-4,8.910914E-3,1.877797E-3,9.699426E-3,1.5827104E-2,1.4219363E-2,2.6229152E-2],"categories":[],"categories_nodes":[],"categories_segments":[],"categories_sizes":[],"default_left":[false,false,false,false,false,false,false,false,false,false,false,false,false,false,false,false,false,false,false,false,false,false,false],"id":0,"left_children":[1,3,5,7,9,11,13,15,-1,17,-1,19,-1,21,-1,-1,-1,-1,-1,-1,-1,-1,-1],"loss_changes":[1.0538712E1,2.45218E0,4.438385E0,1.2910777E-1,6.385813E-1,4.4525757E0,1.9754028E-1,9.743363E-3,0E0,3.0479813E-1,0E0,1.500061E0,0E0,2.2161865E-1,0E0,0E0,0E0,0E0,0E0,0E0,0E0,0E0,0E0],"parents":[2147483647,0,0,1,1,2,2,3,3,4,4,5,5,6,6,7,7,9,9,11,11,13,13],"right_children":[2,4,6,8,10,12,14,16,-1,18,-1,20,-1,22,-1,-1,-1,-1,-1,-1,-1,-1,-1],"split_conditions":[9.863233E0,4.49986E0,1.51888E1,8.9182E0,1.301078E2,1.433807E2,1.4442E0,6.703763E1,-1.9251367E-3,3.44758E1,1.5043506E-2,1.033467E1,2.2615232E-2,1.145797E2,3.8633044E-3,2.2122487E-3,2.704659E-4,8.910914E-3,1.877797E-3,9.699426E-3,1.5827104E-2,1.4219363E-2,2.6229152E-2],"split_indices":[21,22,2,7,17,17,1,20,0,5,0,21,0,17,0,0,0,0,0,0,0,0,0],"split_type":[0,0,0,0,0,0,0,0,0,0,0,0,0,0,0,0,0,0,0,0,0,0,0],"sum_hessian":[2.83E2,5.8E1,2.25E2,1.1E1,4.7E1,1.74E2,5.1E1,6E0,5E0,3.5E1,1.2E1,1.3E2,4.4E1,5E1,1E0,4E0,2E0,3.1E1,4E0,3.5E1,9.5E1,9E0,4.1E1],"tree_param":{"num_deleted":"0","num_feature":"57","num_nodes":"23","size_leaf_vector":"0"}},{"base_weights":[8.169987E-1,4.2294562E-1,9.139555E-1,3.400445E-3,5.169904E-1,8.1751305E-1,1.1997281E0,8.8547245E-2,-1.8976347E-3,4.049351E-1,1.4785618E-2,7.035026E-1,2.2182591E-2,1.21173E0,3.8375494E-3,2.1827524E-3,2.6776103E-4,3.2356335E-4,8.524506E-3,9.515923E-3,1.5517088E-2,1.39866825E-2,2.5728969E-2],"categories":[],"categories_nodes":[],"categories_segments":[],"categories_sizes":[],"default_left":[false,false,false,false,false,false,false,false,false,false,false,false,false,false,false,false,false,false,false,false,false,false,false],"id":1,"left_children":[1,3,5,7,9,11,13,15,-1,17,-1,19,-1,21,-1,-1,-1,-1,-1,-1,-1,-1,-1],"loss_changes":[1.0115646E1,2.3638468E0,4.2946777E0,1.2559241E-1,6.218109E-1,4.2909775E0,1.7608643E-1,9.458169E-3,0E0,2.9244804E-1,0E0,1.4364014E0,0E0,1.9152832E-1,0E0,0E0,0E0,0E0,0E0,0E0,0E0,0E0,0E0],"parents":[2147483647,0,0,1,1,2,2,3,3,4,4,5,5,6,6,7,7,9,9,11,11,13,13],"right_children":[2,4,6,8,10,12,14,16,-1,18,-1,20,-1,22,-1,-1,-1,-1,-1,-1,-1,-1,-1],"split_conditions":[9.863233E0,4.49986E0,1.51888E1,8.9182E0,1.301078E2,1.433807E2,1.4442E0,6.703763E1,-1.8976347E-3,3.5779E0,1.4785618E-2,1.033467E1,2.2182591E-2,1.145797E2,3.8375494E-3,2.1827524E-3,2.6776103E-4,3.2356335E-4,8.524506E-3,9.515923E-3,1.5517088E-2,1.39866825E-2,2.5728969E-2],"split_indices":[21,22,2,7,17,17,1,20,0,0,0,21,0,17,0,0,0,0,0,0,0,0,0],"split_type":[0,0,0,0,0,0,0,0,0,0,0,0,0,0,0,0,0,0,0,0,0,0,0],"sum_hessian":[2.83E2,5.8E1,2.25E2,1.1E1,4.7E1,1.74E2,5.1E1,6E0,5E0,3.5E1,1.2E1,1.3E2,4.4E1,5E1,1E0,4E0,2E0,2E0,3.3E1,3.5E1,9.5E1,9E0,4.1E1],"tree_param":{"num_deleted":"0","num_feature":"57","num_nodes":"23","size_leaf_vector":"0"}},{"base_weights":[8.0146545E-1,3.9840838E-1,8.922371E-1,3.454186E-2,4.9607465E-1,7.983655E-1,1.1773771E0,-4.4265836E-2,3.882041E-3,5.434197E-1,1.9119503E-1,6.851348E-1,2.179259E-2,1.189023E0,3.8119657E-3,-1.6452348E-3,1.2671571E-3,1.13649415E-2,1.089403E-3,8.170515E-4,4.4495566E-3,9.354724E-3,1.5213145E-2,1.375781E-2,2.5238326E-2],"categories":[],"categories_nodes":[],"categories_segments":[],"categories_sizes":[],"default_left":[false,false,false,false,false,false,false,false,false,false,false,false,false,false,false,false,false,false,false,false,false,false,false,false,false],"id":2,"left_children":[1,3,5,7,9,11,13,15,-1,17,19,21,-1,23,-1,-1,-1,-1,-1,-1,-1,-1,-1,-1,-1],"loss_changes":[9.71611E0,1.9558277E0,4.303131E0,1.9322817E-1,4.2732143E-1,4.4433136E0,1.5582275E-1,5.5405714E-2,0E0,3.8724995E-1,2.415061E-2,1.504921E0,0E0,1.6339111E-1,0E0,0E0,0E0,0E0,0E0,0E0,0E0,0E0,0E0,0E0,0E0],"parents":[2147483647,0,0,1,1,2,2,3,3,4,4,5,5,6,6,7,7,9,9,10,10,11,11,13,13],"right_children":[2,4,6,8,10,12,14,16,-1,18,20,22,-1,24,-1,-1,-1,-1,-1,-1,-1,-1,-1,-1,-1],"split_conditions":[9.795637E0,1.298454E-1,1.51888E1,1.088436E2,2.0134807E0,1.433807E2,1.4442E0,7.0912E0,3.882041E-3,5.7931036E-1,9.529E0,1.033467E1,2.179259E-2,1.145797E2,3.8119657E-3,-1.6452348E-3,1.2671571E-3,1.13649415E-2,1.089403E-3,8.170515E-4,4.4495566E-3,9.354724E-3,1.5213145E-2,1.375781E-2,2.5238326E-2],"split_indices":[21,42,2,17,34,17,1,6,0,49,11,21,0,17,0,0,0,0,0,0,0,0,0,0,0],"split_type":[0,0,0,0,0,0,0,0,0,0,0,0,0,0,0,0,0,0,0,0,0,0,0,0,0],"sum_hessian":[2.83E2,5.4E1,2.29E2,1.2E1,4.2E1,1.78E2,5.1E1,9E0,3E0,3.5E1,7E0,1.33E2,4.5E1,5E1,1E0,7E0,2E0,3.3E1,2E0,2E0,5E0,3.8E1,9.5E1,9E0,4.1E1],"tree_param":{"num_deleted":"0","num_feature":"57","num_nodes":"25","size_leaf_vector":"0"}},{"base_weights":[7.8621083E-1,3.9119825E-1,8.7516445E-1,3.5139094E-3,4.858094E-1,7.829133E-1,1.155445E0,8.6517334E-2,-1.8470223E-3,3.7206414E-1,1.3273825E-2,6.7179614E-1,2.1375284E-2,1.1667423E0,3.7865527E-3,2.129146E-3,2.6697412E-4,2.7172937E-4,7.901138E-3,9.176984E-3,1.4915156E-2,1.3532681E-2,2.4757037E-2],"categories":[],"categories_nodes":[],"categories_segments":[],"categories_sizes":[],"default_left":[false,false,false,false,false,false,false,false,false,false,false,false,false,false,false,false,false,false,false,false,false,false,false],"id":3,"left_children":[1,3,5,7,9,11,13,15,-1,17,-1,19,-1,21,-1,-1,-1,-1,-1,-1,-1,-1,-1],"loss_changes":[9.329544E0,2.050623E0,4.163559E0,1.1942258E-1,4.1662407E-1,4.281349E0,1.366806E-1,8.829709E-3,0E0,2.5302124E-1,0E0,1.4418564E0,0E0,1.3712311E-1,0E0,0E0,0E0,0E0,0E0,0E0,0E0,0E0,0E0],"parents":[2147483647,0,0,1,1,2,2,3,3,4,4,5,5,6,6,7,7,9,9,11,11,13,13],"right_children":[2,4,6,8,10,12,14,16,-1,18,-1,20,-1,22,-1,-1,-1,-1,-1,-1,-1,-1,-1],"split_conditions":[9.795637E0,4.49986E0,1.51888E1,8.9182E0,1.278283E2,1.433807E2,6.9188E0,6.703763E1,-1.8470223E-3,3.5779E0,1.3273825E-2,1.033467E1,2.1375284E-2,1.145797E2,3.7865527E-3,2.129146E-3,2.6697412E-4,2.7172937E-4,7.901138E-3,9.176984E-3,1.4915156E-2,1.3532681E-2,2.4757037E-2],"split_indices":[21,22,2,7,17,17,8,20,0,0,0,21,0,17,0,0,0,0,0,0,0,0,0],"split_type":[0,0,0,0,0,0,0,0,0,0,0,0,0,0,0,0,0,0,0,0,0,0,0],"sum_hessian":[2.83E2,5.4E1,2.29E2,1.1E1,4.3E1,1.78E2,5.1E1,6E0,5E0,3E1,1.3E1,1.33E2,4.5E1,5E1,1E0,4E0,2E0,2E0,2.8E1,3.8E1,9.5E1,9E0,4.1E1],"tree_param":{"num_deleted":"0","num_feature":"57","num_nodes":"23","size_leaf_vector":"0"}},{"base_weights":[7.712553E-1,3.8415986E-1,8.5841906E-1,3.648685E-2,4.8757324E-1,8.172006E-1,3.068413E-2,-1.8206362E-3,1.1845254E-1,5.0169724E-1,-7.042362E-4,7.2619754E-1,1.043999E0,5.3921976E-4,2.9992014E-3,7.9603E-3,1.3435106E-2,1.0550457E-2,1.6480602E-2,2.1045428E-2,3.761309E-3],"categories":[],"categories_nodes":[],"categories_segments":[],"categories_sizes":[],"default_left":[false,false,false,false,false,false,false,false,false,false,false,false,false,false,false,false,false,false,false,false,false],"id":4,"left_children":[1,3,5,7,9,11,-1,-1,13,15,-1,17,19,-1,-1,-1,-1,-1,-1,-1,-1],"loss_changes":[8.9565735E0,1.9778461E0,3.9269867E0,1.7834824E-1,3.528347E-1,3.0656433E0,0E0,0E0,2.0740569E-2,2.0580673E-1,0E0,2.3376923E0,2.1972656E-2,0E0,0E0,0E0,0E0,0E0,0E0,0E0,0E0],"parents":[2147483647,0,0,1,1,2,2,3,3,4,4,5,5,8,8,9,9,11,11,12,12],"right_children":[2,4,6,8,10,12,-1,-1,14,16,-1,18,20,-1,-1,-1,-1,-1,-1,-1,-1],"split_conditions":[9.795637E0,4.846848E0,1.638318E2,9.996464E1,6.57E-3,5.27349E1,3.068413E-2,-1.8206362E-3,4.6719E0,1.301078E2,-7.042362E-4,5.7260517E-2,1.7914E0,5.3921976E-4,2.9992014E-3,7.9603E-3,1.3435106E-2,1.0550457E-2,1.6480602E-2,2.1045428E-2,3.761309E-3],"split_indices":[21,22,17,17,14,0,0,0,0,17,0,23,1,0,0,0,0,0,0,0,0],"split_type":[0,0,0,0,0,0,0,0,0,0,0,0,0,0,0,0,0,0,0,0,0],"sum_hessian":[2.83E2,5.4E1,2.29E2,1.3E1,4.1E1,2.2E2,9E0,5E0,8E0,4E1,1E0,1.63E2,5.7E1,3E0,5E0,2.9E1,1.1E1,5.8E1,1.05E2,5.6E1,1E0],"tree_param":{"num_deleted":"0","num_feature":"57","num_nodes":"21","size_leaf_vector":"0"}},{"base_weights":[7.565665E-1,6.682869E-1,1.1094558E0,3.7379217E-1,7.572367E-1,1.1198148E0,3.7362336E-3,2.9608054E-2,4.1987205E-1,1.5696394E-1,7.875256E-1,2.3050454E-2,9.588565E-3,1.2031955E-3,-7.7322975E-4,9.092404E-3,3.1337468E-3,-1.8938943E-3,5.5001923E-3,1.7776752E-2,1.1809104E-2],"categories":[],"categories_nodes":[],"categories_segments":[],"categories_sizes":[],"default_left":[false,false,false,false,false,false,false,false,false,false,false,false,false,false,false,false,false,false,false,false,false],"id":5,"left_children":[1,3,5,7,9,11,-1,13,15,17,19,-1,-1,-1,-1,-1,-1,-1,-1,-1,-1],"loss_changes":[7.3957214E0,5.5373993E0,9.7724915E-2,8.9501476E-1,2.970909E0,5.0201416E-3,0E0,2.34235E-2,3.2393742E-1,3.7886333E-1,2.3045807E0,0E0,0E0,0E0,0E0,0E0,0E0,0E0,0E0,0E0,0E0],"parents":[2147483647,0,0,1,1,2,2,3,3,4,4,5,5,7,7,8,8,9,9,10,10],"right_children":[2,4,6,8,10,12,-1,14,16,18,20,-1,-1,-1,-1,-1,-1,-1,-1,-1,-1],"split_conditions":[1.51888E1,4.452077E-2,6.9188E0,4.442776E0,4.637276E0,3.933125E1,3.7362336E-3,4.2656E0,1.7744E2,4.9E-1,3.589465E-2,2.3050454E-2,9.588565E-3,1.2031955E-3,-7.7322975E-4,9.092404E-3,3.1337468E-3,-1.8938943E-3,5.5001923E-3,1.7776752E-2,1.1809104E-2],"split_indices":[2,23,8,22,22,47,0,2,51,6,40,0,0,0,0,0,0,0,0,0,0],"split_type":[0,0,0,0,0,0,0,0,0,0,0,0,0,0,0,0,0,0,0,0,0],"sum_hessian":[2.83E2,2.31E2,5.2E1,5.6E1,1.75E2,5.1E1,1E0,7E0,4.9E1,9E0,1.66E2,4.7E1,4E0,5E0,2E0,4.2E1,7E0,3E0,6E0,1.05E2,6.1E1],"tree_param":{"num_deleted":"0","num_feature":"57","num_nodes":"21","size_leaf_vector":"0"}},{"base_weights":[7.420122E-1,3.6788476E-1,8.262855E-1,3.4487966E-2,4.6707505E-1,7.8577644E-1,2.9871957E-2,1.1382109E-1,-1.7739753E-3,4.8076886E-1,-7.204332E-4,6.982056E-1,1.0040413E0,2.4688034E-4,2.7220869E-3,1.0011627E-2,8.451801E-4,1.011596E-2,1.5860943E-2,1.3771719E-2,2.1787856E-2],"categories":[],"categories_nodes":[],"categories_segments":[],"categories_sizes":[],"default_left":[false,false,false,false,false,false,false,false,false,false,false,false,false,false,false,false,false,false,false,false,false],"id":6,"left_children":[1,3,5,7,9,11,-1,13,-1,15,-1,17,19,-1,-1,-1,-1,-1,-1,-1,-1],"loss_changes":[8.377792E0,1.8196878E0,3.897171E0,1.6678342E-1,3.3087635E-1,2.8411713E0,0E0,1.9252256E-2,0E0,3.22587E-1,0E0,2.2087173E0,8.826828E-2,0E0,0E0,0E0,0E0,0E0,0E0,0E0,0E0],"parents":[2147483647,0,0,1,1,2,2,3,3,4,4,5,5,7,7,9,9,11,11,12,12],"right_children":[2,4,6,8,10,12,-1,14,-1,16,-1,18,20,-1,-1,-1,-1,-1,-1,-1,-1],"split_conditions":[9.795637E0,4.846848E0,1.638318E2,8.9182E0,6.57E-3,5.27349E1,2.9871957E-2,7.444332E0,-1.7739753E-3,5.7931036E-1,-7.204332E-4,5.7260517E-2,1.161862E2,2.4688034E-4,2.7220869E-3,1.0011627E-2,8.451801E-4,1.011596E-2,1.5860943E-2,1.3771719E-2,2.1787856E-2],"split_indices":[21,22,17,7,14,0,0,21,0,49,0,23,17,0,0,0,0,0,0,0,0],"split_type":[0,0,0,0,0,0,0,0,0,0,0,0,0,0,0,0,0,0,0,0,0],"sum_hessian":[2.83E2,5.4E1,2.29E2,1.3E1,4.1E1,2.2E2,9E0,8E0,5E0,4E1,1E0,1.63E2,5.7E1,2E0,6E0,3.8E1,2E0,5.8E1,1.05E2,1.6E1,4.1E1],"tree_param":{"num_deleted":"0","num_feature":"57","num_nodes":"21","size_leaf_vector":"0"}},{"base_weights":[7.27893E-1,3.6093175E-1,8.1055117E-1,2.6123868E-3,4.4840485E-1,7.706153E-1,2.9383143E-2,-1.7486328E-3,8.074781E-2,3.4044722E-1,1.2378542E-2,6.8455637E-1,9.851659E-1,2.4441152E-4,1.990334E-3,1.1156127E-4,7.2479993E-3,1.1819424E-2,1.763967E-2,1.9879518E-2,3.1612304E-3],"categories":[],"categories_nodes":[],"categories_segments":[],"categories_sizes":[],"default_left":[false,false,false,false,false,false,false,false,false,false,false,false,false,false,false,false,false,false,false,false,false],"id":7,"left_children":[1,3,5,7,9,11,-1,-1,13,15,-1,17,19,-1,-1,-1,-1,-1,-1,-1,-1],"loss_changes":[8.059601E0,1.752882E0,3.8114471E0,1.05583E-1,4.069891E-1,2.7502136E0,0E0,0E0,7.857136E-3,2.3119855E-1,0E0,2.0061264E0,1.1570358E-1,0E0,0E0,0E0,0E0,0E0,0E0,0E0,0E0],"parents":[2147483647,0,0,1,1,2,2,3,3,4,4,5,5,8,8,9,9,11,11,12,12],"right_children":[2,4,6,8,10,12,-1,-1,14,16,-1,18,20,-1,-1,-1,-1,-1,-1,-1,-1],"split_conditions":[9.795637E0,4.49986E0,1.638318E2,9.996464E1,1.278283E2,5.27349E1,2.9383143E-2,-1.7486328E-3,7.444332E0,3.5779E0,1.2378542E-2,1.368701E2,1E0,2.4441152E-4,1.990334E-3,1.1156127E-4,7.2479993E-3,1.1819424E-2,1.763967E-2,1.9879518E-2,3.1612304E-3],"split_indices":[21,22,17,17,17,0,0,0,21,0,0,17,52,0,0,0,0,0,0,0,0],"split_type":[0,0,0,0,0,0,0,0,0,0,0,0,0,0,0,0,0,0,0,0,0],"sum_hessian":[2.83E2,5.4E1,2.29E2,1.1E1,4.3E1,2.2E2,9E0,5E0,6E0,3E1,1.3E1,1.63E2,5.7E1,2E0,4E0,2E0,2.8E1,1.16E2,4.7E1,5.6E1,1E0],"tree_param":{"num_deleted":"0","num_feature":"57","num_nodes":"21","size_leaf_vector":"0"}},{"base_weights":[7.1405166E-1,3.6935195E-1,7.988705E-1,3.3010677E-2,4.6097782E-1,7.5893265E-1,2.890233E-2,1.0984385E-1,-1.7236525E-3,3.5589552E-1,1.3156593E-2,6.7353386E-1,9.662436E-1,4.955306E-4,2.7844452E-3,9.186248E-3,4.409178E-3,9.7534545E-3,1.5215397E-2,1.3192051E-2,2.0993268E-2],"categories":[],"categories_nodes":[],"categories_segments":[],"categories_sizes":[],"default_left":[false,false,false,false,false,false,false,false,false,false,false,false,false,false,false,false,false,false,false,false,false],"id":8,"left_children":[1,3,5,7,9,11,-1,13,-1,15,-1,17,19,-1,-1,-1,-1,-1,-1,-1,-1],"loss_changes":[7.7424316E0,1.8186197E0,3.6652985E0,1.5630326E-1,5.0398827E-1,2.5578995E0,0E0,1.8092543E-2,0E0,2.877059E-1,0E0,1.8684082E0,1.24492645E-1,0E0,0E0,0E0,0E0,0E0,0E0,0E0,0E0],"parents":[2147483647,0,0,1,1,2,2,3,3,4,4,5,5,7,7,9,9,11,11,12,12],"right_children":[2,4,6,8,10,12,-1,14,-1,16,-1,18,20,-1,-1,-1,-1,-1,-1,-1,-1],"split_conditions":[9.863233E0,4.846848E0,1.638318E2,8.9182E0,1.301078E2,5.27349E1,2.890233E-2,4.6719E0,-1.7236525E-3,6.803471E1,1.3156593E-2,5.696573E-2,1.161862E2,4.955306E-4,2.7844452E-3,9.186248E-3,4.409178E-3,9.7534545E-3,1.5215397E-2,1.3192051E-2,2.0993268E-2],"split_indices":[21,22,17,7,17,0,0,0,0,20,0,23,17,0,0,0,0,0,0,0,0],"split_type":[0,0,0,0,0,0,0,0,0,0,0,0,0,0,0,0,0,0,0,0,0],"sum_hessian":[2.83E2,5.8E1,2.25E2,1.3E1,4.5E1,2.16E2,9E0,8E0,5E0,3.3E1,1.2E1,1.59E2,5.7E1,3E0,5E0,1.6E1,1.7E1,5.5E1,1.04E2,1.6E1,4.1E1],"tree_param":{"num_deleted":"0","num_feature":"57","num_nodes":"21","size_leaf_vector":"0"}},{"base_weights":[7.005872E-1,3.629085E-1,7.8366894E-1,1.03247255E-1,4.692754E-1,6.99121E-1,1.0348594E0,1.7730701E-1,-1.6990289E-3,2.7320522E-1,5.579659E-1,4.9812216E-1,7.7992177E-1,1.0452598E0,3.2935871E-3,4.89584E-4,4.228682E-3,6.0923523E-3,3.7612108E-4,1.1674571E-2,-7.457688E-4,1.2401143E-2,7.0221606E-3,7.071544E-3,1.6316026E-2,2.156255E-2,8.677966E-3],"categories":[],"categories_nodes":[],"categories_segments":[],"categories_sizes":[],"default_left":[false,false,false,false,false,false,false,false,false,false,false,false,false,false,false,false,false,false,false,false,false,false,false,false,false,false,false],"id":9,"left_children":[1,3,5,7,9,11,13,15,-1,17,19,21,23,25,-1,-1,-1,-1,-1,-1,-1,-1,-1,-1,-1,-1,-1],"loss_changes":[7.4268494E0,1.5602579E0,3.3739624E0,3.0888397E-1,4.254837E-1,2.0814056E0,1.3539505E-1,6.788203E-2,0E0,1.24394655E-1,4.575882E-1,5.684519E-1,1.2893448E0,1.0929489E-1,0E0,0E0,0E0,0E0,0E0,0E0,0E0,0E0,0E0,0E0,0E0,0E0,0E0],"parents":[2147483647,0,0,1,1,2,2,3,3,4,4,5,5,6,6,7,7,9,9,10,10,11,11,12,12,13,13],"right_children":[2,4,6,8,10,12,14,16,-1,18,20,22,24,26,-1,-1,-1,-1,-1,-1,-1,-1,-1,-1,-1,-1,-1],"split_conditions":[9.863233E0,8.429185E0,1.51888E1,1.2538E1,2.409E0,5.5193316E-2,6.9188E0,4.6719E0,-1.6990289E-3,2.337E1,2.0224E1,3.071832E1,2.654673E0,3.933125E1,3.2935871E-3,4.89584E-4,4.228682E-3,6.0923523E-3,3.7612108E-4,1.1674571E-2,-7.457688E-4,1.2401143E-2,7.0221606E-3,7.071544E-3,1.6316026E-2,2.156255E-2,8.677966E-3],"split_indices":[21,21,2,7,7,23,8,0,0,5,9,47,45,47,0,0,0,0,0,0,0,0,0,0,0,0,0],"split_type":[0,0,0,0,0,0,0,0,0,0,0,0,0,0,0,0,0,0,0,0,0,0,0,0,0,0,0],"sum_hessian":[2.83E2,5.8E1,2.25E2,1.8E1,4E1,1.74E2,5.1E1,1.3E1,5E0,1.5E1,2.5E1,5.4E1,1.2E2,5E1,1E0,3E0,1E1,1.3E1,2E0,2.4E1,1E0,2.6E1,2.8E1,1.1E1,1.09E2,4.6E1,4E0],"tree_param":{"num_deleted":"0","num_feature":"57","num_nodes":"27","size_leaf_vector":"0"}},{"base_weights":[6.872545E-1,3.563309E-1,7.686682E-1,2.4615126E-2,4.382342E-1,7.2939837E-1,2.8143313E-2,1.4605708E-1,-7.530976E-2,3.489158E-1,1.3504592E-2,6.4699423E-1,9.295386E-1,1.7950972E-4,3.318244E-3,-1.7432113E-3,1.2997787E-4,7.374409E-3,1.335115E-3,1.1174353E-2,1.6630642E-2,1.2635054E-2,2.0219175E-2],"categories":[],"categories_nodes":[],"categories_segments":[],"categories_sizes":[],"default_left":[false,false,false,false,false,false,false,false,false,false,false,false,false,false,false,false,false,false,false,false,false,false,false],"id":10,"left_children":[1,3,5,7,9,11,-1,13,15,17,-1,19,21,-1,-1,-1,-1,-1,-1,-1,-1,-1,-1],"loss_changes":[7.1305847E0,1.6085434E0,3.6389465E0,1.9189009E-1,5.448704E-1,2.3925247E0,0E0,1.6074106E-2,9.858381E-3,1.687069E-1,0E0,1.6935654E0,1.5314865E-1,0E0,0E0,0E0,0E0,0E0,0E0,0E0,0E0,0E0,0E0],"parents":[2147483647,0,0,1,1,2,2,3,3,4,4,5,5,7,7,8,8,9,9,11,11,12,12],"right_children":[2,4,6,8,10,12,-1,14,16,18,-1,20,22,-1,-1,-1,-1,-1,-1,-1,-1,-1,-1],"split_conditions":[9.863233E0,1.298454E-1,1.638318E2,2.97E-3,1.357627E2,5.27349E1,2.8143313E-2,4.6719E0,7.126E-1,5.7931036E-1,1.3504592E-2,1.368701E2,1.161862E2,1.7950972E-4,3.318244E-3,-1.7432113E-3,1.2997787E-4,7.374409E-3,1.335115E-3,1.1174353E-2,1.6630642E-2,1.2635054E-2,2.0219175E-2],"split_indices":[21,42,17,14,17,0,0,0,4,49,0,17,17,0,0,0,0,0,0,0,0,0,0],"split_type":[0,0,0,0,0,0,0,0,0,0,0,0,0,0,0,0,0,0,0,0,0,0,0],"sum_hessian":[2.83E2,5.8E1,2.25E2,1.2E1,4.6E1,2.16E2,9E0,5E0,7E0,3.7E1,9E0,1.59E2,5.7E1,1E0,4E0,6E0,1E0,3.4E1,3E0,1.13E2,4.6E1,1.6E1,4.1E1],"tree_param":{"num_deleted":"0","num_feature":"57","num_nodes":"23","size_leaf_vector":"0"}},{"base_weights":[6.743017E-1,3.3569893E-1,7.505491E-1,2.9373659E-2,4.2694268E-1,7.123932E-1,2.7682789E-2,-1.6498542E-3,1.0180539E-1,3.228321E-1,1.1564762E-2,6.2198204E-1,8.8715565E-1,4.5297312E-4,2.5851731E-3,7.3751784E-3,2.0868734E-3,1.0570365E-2,1.6328158E-2,1.1675328E-2,1.999088E-2],"categories":[],"categories_nodes":[],"categories_segments":[],"categories_sizes":[],"default_left":[false,false,false,false,false,false,false,false,false,false,false,false,false,false,false,false,false,false,false,false,false],"id":11,"left_children":[1,3,5,7,9,11,-1,-1,13,15,-1,17,19,-1,-1,-1,-1,-1,-1,-1,-1],"loss_changes":[6.8540955E0,1.540133E0,3.6123505E0,1.3833652E-1,3.0396557E-1,2.4041214E0,0E0,0E0,1.587604E-2,2.2407913E-1,0E0,1.917305E0,1.2539177E0,0E0,0E0,0E0,0E0,0E0,0E0,0E0,0E0],"parents":[2147483647,0,0,1,1,2,2,3,3,4,4,5,5,8,8,9,9,11,11,12,12],"right_children":[2,4,6,8,10,12,-1,-1,14,16,-1,18,20,-1,-1,-1,-1,-1,-1,-1,-1],"split_conditions":[9.795637E0,4.846848E0,1.638318E2,9.996464E1,1.278283E2,9.3068E0,2.7682789E-2,-1.6498542E-3,7.497449E0,2.572185E1,1.1564762E-2,1.368701E2,1.161862E2,4.5297312E-4,2.5851731E-3,7.3751784E-3,2.0868734E-3,1.0570365E-2,1.6328158E-2,1.1675328E-2,1.999088E-2],"split_indices":[21,22,17,17,17,2,0,0,21,37,0,17,17,0,0,0,0,0,0,0,0],"split_type":[0,0,0,0,0,0,0,0,0,0,0,0,0,0,0,0,0,0,0,0,0],"sum_hessian":[2.83E2,5.4E1,2.29E2,1.3E1,4.1E1,2.2E2,9E0,5E0,8E0,2.8E1,1.3E1,1.51E2,6.9E1,3E0,5E0,2.2E1,6E0,1.07E2,4.4E1,2.2E1,4.7E1],"tree_param":{"num_deleted":"0","num_feature":"57","num_nodes":"21","size_leaf_vector":"0"}},{"base_weights":[6.615782E-1,3.297855E-1,7.3628485E-1,2.3380173E-2,4.1228783E-1,6.504247E-1,9.542418E-1,1.4129595E-1,-7.3527694E-2,4.5316097E-1,1.5263426E-1,4.3004268E-1,7.336953E-1,9.757027E-1,6.471969E-3,1.7529288E-4,3.2092591E-3,-1.7016573E-3,1.2609124E-4,3.2748962E-3,9.972257E-3,3.592415E-3,5.8181526E-4,1.0891795E-2,6.4882785E-3,6.5838834E-3,1.53569905E-2,1.7125998E-2,2.7551524E-2],"categories":[],"categories_nodes":[],"categories_segments":[],"categories_sizes":[],"default_left":[false,false,false,false,false,false,false,false,false,false,false,false,false,false,false,false,false,false,false,false,false,false,false,false,false,false,false,false,false],"id":12,"left_children":[1,3,5,7,9,11,13,15,17,19,21,23,25,27,-1,-1,-1,-1,-1,-1,-1,-1,-1,-1,-1,-1,-1,-1,-1],"loss_changes":[6.578697E0,1.3963542E0,3.0815659E0,1.8075587E-1,3.286295E-1,2.5253906E0,1.9411469E-1,1.4968798E-2,9.375099E-3,3.2342625E-1,1.955545E-2,2.7582645E-1,1.1799393E0,4.2388535E-1,0E0,0E0,0E0,0E0,0E0,0E0,0E0,0E0,0E0,0E0,0E0,0E0,0E0,0E0,0E0],"parents":[2147483647,0,0,1,1,2,2,3,3,4,4,5,5,6,6,7,7,8,8,9,9,10,10,11,11,12,12,13,13],"right_children":[2,4,6,8,10,12,14,16,18,20,22,24,26,28,-1,-1,-1,-1,-1,-1,-1,-1,-1,-1,-1,-1,-1,-1,-1],"split_conditions":[9.795637E0,1.298454E-1,5.27349E1,2.97E-3,2.0134807E0,5.5193316E-2,5.6778E0,4.6719E0,1.2284E0,1.735327E0,5.9264E0,3.071832E1,2.654673E0,1.100969E1,6.471969E-3,1.7529288E-4,3.2092591E-3,-1.7016573E-3,1.2609124E-4,3.2748962E-3,9.972257E-3,3.592415E-3,5.8181526E-4,1.0891795E-2,6.4882785E-3,6.5838834E-3,1.53569905E-2,1.7125998E-2,2.7551524E-2],"split_indices":[21,42,0,14,34,23,8,0,1,38,8,47,45,21,0,0,0,0,0,0,0,0,0,0,0,0,0,0,0],"split_type":[0,0,0,0,0,0,0,0,0,0,0,0,0,0,0,0,0,0,0,0,0,0,0,0,0,0,0,0,0],"sum_hessian":[2.83E2,5.4E1,2.29E2,1.2E1,4.2E1,1.7E2,5.9E1,5E0,7E0,3.5E1,7E0,5E1,1.2E2,5.6E1,3E0,1E0,4E0,6E0,1E0,6E0,2.9E1,5E0,2E0,2E1,3E1,1.1E1,1.09E2,4.8E1,8E0],"tree_param":{"num_deleted":"0","num_feature":"57","num_nodes":"29","size_leaf_vector":"0"}},{"base_weights":[6.4911646E-1,4.2693332E-1,7.592116E-1,3.190302E-1,1.5946649E-2,7.146257E-1,2.6934156E-2,8.78983E-2,3.9314425E-1,8.5397464E-1,5.847685E-1,-4.8774178E-4,4.092354E-3,8.730854E-3,4.3846117E-3,8.03296E-3,1.8551072E-2,9.521761E-3,1.4683438E-2],"categories":[],"categories_nodes":[],"categories_segments":[],"categories_sizes":[],"default_left":[false,false,false,false,false,false,false,false,false,false,false,false,false,false,false,false,false,false,false],"id":13,"left_children":[1,3,5,7,-1,9,-1,11,13,15,17,-1,-1,-1,-1,-1,-1,-1,-1],"loss_changes":[6.323204E0,3.4480095E0,2.9996948E0,1.3012962E0,0E0,2.2403336E0,0E0,2.983095E-1,2.614479E-1,1.984005E0,9.084244E-1,0E0,0E0,0E0,0E0,0E0,0E0,0E0,0E0],"parents":[2147483647,0,0,1,1,2,2,3,3,5,5,7,7,8,8,9,9,10,10],"right_children":[2,4,6,8,-1,10,-1,12,14,16,18,-1,-1,-1,-1,-1,-1,-1,-1],"split_conditions":[1.000125E1,1.357627E2,1.638318E2,8.853766E0,1.5946649E-2,2.97E0,2.6934156E-2,1.111792E2,8.0702E0,1.121931E2,1.368701E2,-4.8774178E-4,4.092354E-3,8.730854E-3,4.3846117E-3,8.03296E-3,1.8551072E-2,9.521761E-3,1.4683438E-2],"split_indices":[21,17,17,21,0,5,0,17,8,17,17,0,0,0,0,0,0,0,0],"split_type":[0,0,0,0,0,0,0,0,0,0,0,0,0,0,0,0,0,0,0],"sum_hessian":[2.83E2,9.7E1,1.86E2,7.8E1,1.9E1,1.77E2,9E0,2E1,5.8E1,8E1,9.7E1,1.1E1,9E0,4.4E1,1.4E1,1.3E1,6.7E1,6.1E1,3.6E1],"tree_param":{"num_deleted":"0","num_feature":"57","num_nodes":"19","size_leaf_vector":"0"}},{"base_weights":[6.3690877E-1,5.603848E-1,9.4350624E-1,3.067772E-1,6.3715583E-1,9.531094E-1,2.8969382E-3,3.6043912E-1,6.5572254E-2,1.04219966E-1,6.6446525E-1,1.9667516E-2,7.7646077E-3,7.3921774E-3,-4.0912986E-4,-5.469603E-4,2.6096886E-3,-1.7208346E-3,3.9415704E-3,5.3404104E-3,1.38870785E-2],"categories":[],"categories_nodes":[],"categories_segments":[],"categories_sizes":[],"default_left":[false,false,false,false,false,false,false,false,false,false,false,false,false,false,false,false,false,false,false,false,false],"id":14,"left_children":[1,3,5,7,9,11,-1,13,15,17,19,-1,-1,-1,-1,-1,-1,-1,-1,-1,-1],"loss_changes":[5.6292343E0,4.1455154E0,1.3805008E-1,7.034545E-1,2.437584E0,1.4258575E-1,0E0,1.792798E-1,8.554851E-2,2.2825569E-1,1.6248703E0,0E0,0E0,0E0,0E0,0E0,0E0,0E0,0E0,0E0,0E0],"parents":[2147483647,0,0,1,1,2,2,3,3,4,4,5,5,7,7,8,8,9,9,10,10],"right_children":[2,4,6,8,10,12,-1,14,16,18,20,-1,-1,-1,-1,-1,-1,-1,-1,-1,-1],"split_conditions":[1.51888E1,4.452077E-2,6.9188E0,2.759796E0,4.637276E0,3.933125E1,2.8969382E-3,4.7146E1,1.271736E1,1.51368E1,5E-2,1.9667516E-2,7.7646077E-3,7.3921774E-3,-4.0912986E-4,-5.469603E-4,2.6096886E-3,-1.7208346E-3,3.9415704E-3,5.3404104E-3,1.38870785E-2],"split_indices":[2,23,8,34,22,47,0,5,26,5,5,0,0,0,0,0,0,0,0,0,0],"split_type":[0,0,0,0,0,0,0,0,0,0,0,0,0,0,0,0,0,0,0,0,0],"sum_hessian":[2.83E2,2.31E2,5.2E1,5.6E1,1.75E2,5.1E1,1E0,4.5E1,1.1E1,9E0,1.66E2,4.7E1,4E0,4.4E1,1E0,5E0,6E0,3E0,6E0,1.3E1,1.53E2],"tree_param":{"num_deleted":"0","num_feature":"57","num_nodes":"21","size_leaf_vector":"0"}},{"base_weights":[6.2459743E-1,3.064898E-1,6.946264E-1,5.7005195E-4,3.8294384E-1,6.5793043E-1,2.6245153E-2,-1.5771321E-3,6.992587E-2,2.9192546E-1,1.1101521E-2,7.205026E-1,4.5957717E-1,2.3487805E-4,1.7081044E-3,6.4318213E-3,1.0246623E-3,9.70542E-3,1.6385755E-2,6.819313E-3,1.2311616E-2],"categories":[],"categories_nodes":[],"categories_segments":[],"categories_sizes":[],"default_left":[false,false,false,false,false,false,false,false,false,false,false,false,false,false,false,false,false,false,false,false,false],"id":15,"left_children":[1,3,5,7,9,11,-1,-1,13,15,-1,17,19,-1,-1,-1,-1,-1,-1,-1,-1],"loss_changes":[5.923088E0,1.2859473E0,3.5314255E0,8.264134E-2,3.6527538E-1,2.105484E0,0E0,0E0,5.198974E-3,2.0267725E-1,0E0,3.0622559E0,6.719427E-1,0E0,0E0,0E0,0E0,0E0,0E0,0E0,0E0],"parents":[2147483647,0,0,1,1,2,2,3,3,4,4,5,5,8,8,9,9,11,11,12,12],"right_children":[2,4,6,8,10,12,-1,-1,14,16,-1,18,20,-1,-1,-1,-1,-1,-1,-1,-1],"split_conditions":[9.748136E0,4.49986E0,1.638318E2,9.996464E1,1.301078E2,3.6714E0,2.6245153E-2,-1.5771321E-3,7.444332E0,3.44758E1,1.1101521E-2,1.165855E2,4.109414E0,2.3487805E-4,1.7081044E-3,6.4318213E-3,1.0246623E-3,9.70542E-3,1.6385755E-2,6.819313E-3,1.2311616E-2],"split_indices":[21,22,17,17,17,8,0,0,21,5,0,17,50,0,0,0,0,0,0,0,0],"split_type":[0,0,0,0,0,0,0,0,0,0,0,0,0,0,0,0,0,0,0,0,0],"sum_hessian":[2.83E2,5.3E1,2.3E2,1.1E1,4.2E1,2.21E2,9E0,5E0,6E0,3.1E1,1.1E1,1.64E2,5.7E1,2E0,4E0,2.7E1,4E0,5.2E1,1.12E2,3.6E1,2.1E1],"tree_param":{"num_deleted":"0","num_feature":"57","num_nodes":"21","size_leaf_vector":"0"}},{"base_weights":[6.127398E-1,5.3824234E-1,9.114886E-1,2.945574E-1,6.12012E-1,9.206709E-1,2.8321631E-3,3.4601808E-1,6.319075E-2,9.928506E-2,6.3829756E-1,1.9000826E-2,7.4784514E-3,7.464374E-3,2.4022046E-3,-5.344045E-4,2.5213032E-3,-1.6812589E-3,3.7811256E-3,1.4566142E-2,9.303216E-3],"categories":[],"categories_nodes":[],"categories_segments":[],"categories_sizes":[],"default_left":[false,false,false,false,false,false,false,false,false,false,false,false,false,false,false,false,false,false,false,false,false],"id":16,"left_children":[1,3,5,7,9,11,-1,13,15,17,19,-1,-1,-1,-1,-1,-1,-1,-1,-1,-1],"loss_changes":[5.3617706E0,3.828003E0,1.2099457E-1,6.468339E-1,2.258728E0,1.4060211E-1,0E0,1.9915295E-1,8.0227286E-2,2.1283841E-1,1.9405441E0,0E0,0E0,0E0,0E0,0E0,0E0,0E0,0E0,0E0,0E0],"parents":[2147483647,0,0,1,1,2,2,3,3,4,4,5,5,7,7,8,8,9,9,10,10],"right_children":[2,4,6,8,10,12,-1,14,16,18,20,-1,-1,-1,-1,-1,-1,-1,-1,-1,-1],"split_conditions":[1.51888E1,4.452077E-2,1.4442E0,2.759796E0,4.637276E0,3.933125E1,2.8321631E-3,1.486E0,1.271736E1,1.51368E1,3.589465E-2,1.9000826E-2,7.4784514E-3,7.464374E-3,2.4022046E-3,-5.344045E-4,2.5213032E-3,-1.6812589E-3,3.7811256E-3,1.4566142E-2,9.303216E-3],"split_indices":[2,23,1,34,22,47,0,1,26,5,40,0,0,0,0,0,0,0,0,0,0],"split_type":[0,0,0,0,0,0,0,0,0,0,0,0,0,0,0,0,0,0,0,0,0],"sum_hessian":[2.83E2,2.31E2,5.2E1,5.6E1,1.75E2,5.1E1,1E0,4.5E1,1.1E1,9E0,1.66E2,4.7E1,4E0,3.9E1,6E0,5E0,6E0,3E0,6E0,1.05E2,6.1E1],"tree_param":{"num_deleted":"0","num_feature":"57","num_nodes":"21","size_leaf_vector":"0"}},{"base_weights":[6.0095614E-1,3.929567E-1,7.040946E-1,2.908923E-1,1.488698E-2,6.6095597E-1,2.5561206E-2,7.845881E-2,3.5908818E-1,5.611908E-1,8.3554476E-1,-4.7719953E-4,3.7023153E-3,8.0054505E-3,3.9159427E-3,1.1521647E-2,1.7244677E-3,1.0355026E-2,1.8163493E-2],"categories":[],"categories_nodes":[],"categories_segments":[],"categories_sizes":[],"default_left":[false,false,false,false,false,false,false,false,false,false,false,false,false,false,false,false,false,false,false],"id":17,"left_children":[1,3,5,7,-1,9,-1,11,13,15,17,-1,-1,-1,-1,-1,-1,-1,-1],"loss_changes":[5.560669E0,3.117549E0,2.965416E0,1.1026201E0,0E0,2.1800003E0,0E0,2.4891992E-1,2.467575E-1,7.4941635E-1,4.6754074E-1,0E0,0E0,0E0,0E0,0E0,0E0,0E0,0E0],"parents":[2147483647,0,0,1,1,2,2,3,3,5,5,7,7,8,8,9,9,10,10],"right_children":[2,4,6,8,-1,10,-1,12,14,16,18,-1,-1,-1,-1,-1,-1,-1,-1],"split_conditions":[1.000125E1,1.357627E2,1.638318E2,8.853766E0,1.488698E-2,9.3068E0,2.5561206E-2,1.111792E2,8.0702E0,4.2375E-2,1.161862E2,-4.7719953E-4,3.7023153E-3,8.0054505E-3,3.9159427E-3,1.1521647E-2,1.7244677E-3,1.0355026E-2,1.8163493E-2],"split_indices":[21,17,17,21,0,2,0,17,8,14,17,0,0,0,0,0,0,0,0],"split_type":[0,0,0,0,0,0,0,0,0,0,0,0,0,0,0,0,0,0,0],"sum_hessian":[2.83E2,9.7E1,1.86E2,7.8E1,1.9E1,1.77E2,9E0,2E1,5.8E1,1.18E2,5.9E1,1.1E1,9E0,4.4E1,1.4E1,1.14E2,4E0,1.4E1,4.5E1],"tree_param":{"num_deleted":"0","num_feature":"57","num_nodes":"19","size_leaf_vector":"0"}},{"base_weights":[5.8962023E-1,5.1932245E-1,8.9924693E-1,4.0707165E-1,7.7549016E-1,1.5187188E-2,2.5142929E-2,1.9947492E-1,4.7475186E-1,5.146138E-1,8.812547E-1,1.0625663E-3,6.2460387E-3,5.269953E-3,1.0239674E-2,1.0724273E-2,-2.5221903E-5,1.8012498E-2,4.454231E-3],"categories":[],"categories_nodes":[],"categories_segments":[],"categories_sizes":[],"default_left":[false,false,false,false,false,false,false,false,false,false,false,false,false,false,false,false,false,false,false],"id":18,"left_children":[1,3,5,7,9,-1,-1,11,13,15,17,-1,-1,-1,-1,-1,-1,-1,-1],"loss_changes":[5.269333E0,6.183586E0,5.940323E-1,2.1850815E0,1.0243912E0,0E0,0E0,7.09849E-1,7.2122383E-1,2.7992344E-1,1.9837952E-1,0E0,0E0,0E0,0E0,0E0,0E0,0E0,0E0],"parents":[2147483647,0,0,1,1,2,2,3,3,4,4,7,7,8,8,9,9,10,10],"right_children":[2,4,6,8,10,-1,-1,12,14,16,18,-1,-1,-1,-1,-1,-1,-1,-1],"split_conditions":[1.443593E2,9.3068E0,1.638318E2,5.663577E0,1.161862E2,1.5187188E-2,2.5142929E-2,1.232354E2,1.135911E2,1.1508E0,1.35262E1,1.0625663E-3,6.2460387E-3,5.269953E-3,1.0239674E-2,1.0724273E-2,-2.5221903E-5,1.8012498E-2,4.454231E-3],"split_indices":[17,2,17,22,17,0,0,17,17,1,5,0,0,0,0,0,0,0,0],"split_type":[0,0,0,0,0,0,0,0,0,0,0,0,0,0,0,0,0,0,0],"sum_hessian":[2.83E2,2.35E2,4.8E1,1.67E2,6.8E1,3.9E1,9E0,4.3E1,1.24E2,2.3E1,4.5E1,2E1,2.3E1,2.1E1,1.03E2,2.2E1,1E0,4.3E1,2E0],"tree_param":{"num_deleted":"0","num_feature":"57","num_nodes":"19","size_leaf_vector":"0"}},{"base_weights":[5.785037E-1,3.7756625E-1,6.781622E-1,2.786301E-1,1.4370143E-2,6.3626915E-1,2.47315E-2,1.1323205E-1,3.6333552E-1,7.663808E-1,5.15646E-1,-1.0271781E-3,3.3558186E-3,7.624691E-3,8.518167E-4,6.9879615E-3,1.6696304E-2,8.277441E-3,1.3144743E-2],"categories":[],"categories_nodes":[],"categories_segments":[],"categories_sizes":[],"default_left":[false,false,false,false,false,false,false,false,false,false,false,false,false,false,false,false,false,false,false],"id":19,"left_children":[1,3,5,7,-1,9,-1,11,13,15,17,-1,-1,-1,-1,-1,-1,-1,-1],"loss_changes":[5.1950607E0,2.9390106E0,2.824417E0,1.0385265E0,0E0,2.0189438E0,0E0,2.8663212E-1,2.6605892E-1,1.7565842E0,8.8259697E-1,0E0,0E0,0E0,0E0,0E0,0E0,0E0,0E0],"parents":[2147483647,0,0,1,1,2,2,3,3,5,5,7,7,8,8,9,9,10,10],"right_children":[2,4,6,8,-1,10,-1,12,14,16,18,-1,-1,-1,-1,-1,-1,-1,-1],"split_conditions":[1.000125E1,1.357627E2,1.638318E2,5.849664E0,1.4370143E-2,2.97E0,2.47315E-2,1.019073E2,1.393E0,1.121931E2,1.368701E2,-1.0271781E-3,3.3558186E-3,7.624691E-3,8.518167E-4,6.9879615E-3,1.6696304E-2,8.277441E-3,1.3144743E-2],"split_indices":[21,17,17,22,0,5,0,17,1,17,17,0,0,0,0,0,0,0,0],"split_type":[0,0,0,0,0,0,0,0,0,0,0,0,0,0,0,0,0,0,0],"sum_hessian":[2.83E2,9.7E1,1.86E2,7.8E1,1.9E1,1.77E2,9E0,2.8E1,5E1,8E1,9.7E1,7E0,2.1E1,4.7E1,3E0,1.3E1,6.7E1,6.1E1,3.6E1],"tree_param":{"num_deleted":"0","num_feature":"57","num_nodes":"19","size_leaf_vector":"0"}},{"base_weights":[5.676004E-1,3.7052354E-1,6.65342E-1,4.9912852E-1,2.130837E-1,5.8159846E-1,8.7321013E-1,6.443371E-1,3.2345393E-1,4.801873E-2,3.0892143E-1,6.0423595E-1,2.0626144E-1,9.187458E-1,8.089228E-3,5.1394976E-3,1.37871755E-2,7.4343607E-3,1.4491294E-3,2.5199195E-3,-7.7378366E-4,6.6001653E-3,1.4296777E-3,4.2894157E-3,1.2455592E-2,5.1610386E-3,8.1784127E-4,1.5534942E-2,2.4923839E-2],"categories":[],"categories_nodes":[],"categories_segments":[],"categories_sizes":[],"default_left":[false,false,false,false,false,false,false,false,false,false,false,false,false,false,false,false,false,false,false,false,false,false,false,false,false,false,false,false,false],"id":20,"left_children":[1,3,5,7,9,11,13,15,17,19,21,23,25,27,-1,-1,-1,-1,-1,-1,-1,-1,-1,-1,-1,-1,-1,-1,-1],"loss_changes":[4.996788E0,1.7917948E0,2.2569199E0,9.3517494E-1,7.296655E-1,9.402771E-1,3.2404327E-1,1.16576195E-1,2.8532982E-1,1.4497423E-1,1.0302377E-1,6.796875E-1,7.31056E-2,1.0991287E-1,0E0,0E0,0E0,0E0,0E0,0E0,0E0,0E0,0E0,0E0,0E0,0E0,0E0,0E0,0E0],"parents":[2147483647,0,0,1,1,2,2,3,3,4,4,5,5,6,6,7,7,8,8,9,9,10,10,11,11,12,12,13,13],"right_children":[2,4,6,8,10,12,14,16,18,20,22,24,26,28,-1,-1,-1,-1,-1,-1,-1,-1,-1,-1,-1,-1,-1,-1,-1],"split_conditions":[1.000125E1,1.62152E1,6.45291E1,2.770263E1,6.636386E-1,1.7955E-2,8.162219E-1,4.0953964E-2,8.63E0,3.58E-3,2.4512E0,1.110391E0,4.6675E-2,1.100969E1,8.089228E-3,5.1394976E-3,1.37871755E-2,7.4343607E-3,1.4491294E-3,2.5199195E-3,-7.7378366E-4,6.6001653E-3,1.4296777E-3,4.2894157E-3,1.2455592E-2,5.1610386E-3,8.1784127E-4,1.5534942E-2,2.4923839E-2],"split_indices":[21,9,0,47,24,14,24,23,8,14,1,50,14,21,0,0,0,0,0,0,0,0,0,0,0,0,0,0,0],"split_type":[0,0,0,0,0,0,0,0,0,0,0,0,0,0,0,0,0,0,0,0,0,0,0,0,0,0,0,0,0],"sum_hessian":[2.83E2,9.7E1,1.86E2,5.1E1,4.6E1,1.38E2,4.8E1,2.5E1,2.6E1,1.8E1,2.8E1,1.29E2,9E0,4.2E1,6E0,4E0,2.1E1,2.1E1,5E0,9E0,9E0,2.5E1,3E0,7E0,1.22E2,6E0,3E0,3.4E1,8E0],"tree_param":{"num_deleted":"0","num_feature":"57","num_nodes":"29","size_leaf_vector":"0"}},{"base_weights":[5.570123E-1,4.8941836E-1,8.5512733E-1,3.8213086E-1,7.344576E-1,1.4396908E-2,2.4077645E-2,2.500327E-1,4.872558E-1,4.9273682E-1,8.391495E-1,-2.5268106E-5,5.814413E-3,1.0151573E-2,1.9091192E-3,1.0257893E-2,-7.473349E-5,1.7158877E-2,4.256731E-3],"categories":[],"categories_nodes":[],"categories_segments":[],"categories_sizes":[],"default_left":[false,false,false,false,false,false,false,false,false,false,false,false,false,false,false,false,false,false,false],"id":21,"left_children":[1,3,5,7,9,-1,-1,11,13,15,17,-1,-1,-1,-1,-1,-1,-1,-1],"loss_changes":[4.905945E0,5.669327E0,6.2579346E-1,2.1032124E0,9.444771E-1,0E0,0E0,8.0848885E-1,6.356468E-1,2.6403713E-1,1.7626953E-1,0E0,0E0,0E0,0E0,0E0,0E0,0E0,0E0],"parents":[2147483647,0,0,1,1,2,2,3,3,4,4,7,7,8,8,9,9,10,10],"right_children":[2,4,6,8,10,-1,-1,12,14,16,18,-1,-1,-1,-1,-1,-1,-1,-1],"split_conditions":[1.443593E2,9.3068E0,1.638318E2,1.023223E1,1.16901E2,1.4396908E-2,2.4077645E-2,4.49986E0,7.080858E1,1.1508E0,6.9188E0,-2.5268106E-5,5.814413E-3,1.0151573E-2,1.9091192E-3,1.0257893E-2,-7.473349E-5,1.7158877E-2,4.256731E-3],"split_indices":[17,2,17,21,17,0,0,22,20,1,8,0,0,0,0,0,0,0,0],"split_type":[0,0,0,0,0,0,0,0,0,0,0,0,0,0,0,0,0,0,0],"sum_hessian":[2.83E2,2.35E2,4.8E1,1.67E2,6.8E1,3.9E1,9E0,7.7E1,9E1,2.4E1,4.4E1,1.1E1,6.6E1,8.5E1,5E0,2.3E1,1E0,4.2E1,2E0],"tree_param":{"num_deleted":"0","num_feature":"57","num_nodes":"19","size_leaf_vector":"0"}},{"base_weights":[5.464891E-1,4.8004726E-1,8.395638E-1,3.7469947E-1,7.206713E-1,1.4448247E-2,2.548011E-2,1.2855637E-1,4.1765478E-1,4.836654E-1,8.232976E-1,4.2346246E-3,-3.526401E-4,1.2122814E-2,7.093213E-3,8.192352E-4,9.961932E-3,1.6831297E-2,4.2141634E-3],"categories":[],"categories_nodes":[],"categories_segments":[],"categories_sizes":[],"default_left":[false,false,false,false,false,false,false,false,false,false,false,false,false,false,false,false,false,false,false],"id":22,"left_children":[1,3,5,7,9,-1,-1,11,13,15,17,-1,-1,-1,-1,-1,-1,-1,-1],"loss_changes":[4.743576E0,5.4676933E0,7.040596E-1,1.6794777E0,9.0621185E-1,0E0,0E0,3.479241E-1,1.2679634E0,1.2530136E-1,1.6010666E-1,0E0,0E0,0E0,0E0,0E0,0E0,0E0,0E0],"parents":[2147483647,0,0,1,1,2,2,3,3,4,4,7,7,8,8,9,9,10,10],"right_children":[2,4,6,8,10,-1,-1,12,14,16,18,-1,-1,-1,-1,-1,-1,-1,-1],"split_conditions":[1.443593E2,9.3068E0,1.983378E1,1.114904E2,1.16901E2,1.4448247E-2,2.548011E-2,2.0114E0,3.5226E0,2.8E-3,1.35262E1,4.2346246E-3,-3.526401E-4,1.2122814E-2,7.093213E-3,8.192352E-4,9.961932E-3,1.6831297E-2,4.2141634E-3],"split_indices":[17,2,35,17,17,0,0,8,5,3,5,0,0,0,0,0,0,0,0],"split_type":[0,0,0,0,0,0,0,0,0,0,0,0,0,0,0,0,0,0,0],"sum_hessian":[2.83E2,2.35E2,4.8E1,1.67E2,6.8E1,4.2E1,6E0,2.6E1,1.41E2,2.4E1,4.4E1,1.6E1,1E1,3.1E1,1.1E2,1E0,2.3E1,4.2E1,2E0],"tree_param":{"num_deleted":"0","num_feature":"57","num_nodes":"19","size_leaf_vector":"0"}},{"base_weights":[5.3622496E-1,4.7090983E-1,8.2436967E-1,2.7460137E-1,5.731462E-1,1.4172416E-2,2.5097908E-2,2.0400839E-2,3.19932E-1,6.697388E-1,3.579169E-1,-1.5143726E-3,1.672086E-3,5.02147E-3,8.094342E-3,5.6773187E-3,1.4185501E-2,7.965301E-3,2.702328E-3],"categories":[],"categories_nodes":[],"categories_segments":[],"categories_sizes":[],"default_left":[false,false,false,false,false,false,false,false,false,false,false,false,false,false,false,false,false,false,false],"id":23,"left_children":[1,3,5,7,9,-1,-1,11,13,15,17,-1,-1,-1,-1,-1,-1,-1,-1],"loss_changes":[4.5873566E0,4.441784E0,7.1315E-1,9.664073E-1,2.7221718E0,0E0,0E0,1.0378705E-1,2.1712112E-1,1.1839409E0,3.5983467E-1,0E0,0E0,0E0,0E0,0E0,0E0,0E0,0E0],"parents":[2147483647,0,0,1,1,2,2,3,3,4,4,7,7,8,8,9,9,10,10],"right_children":[2,4,6,8,10,-1,-1,12,14,16,18,-1,-1,-1,-1,-1,-1,-1,-1],"split_conditions":[1.443593E2,1.000125E1,1.983378E1,4.846848E0,2.6946E0,1.4172416E-2,2.5097908E-2,9.996464E1,9.852585E-1,1.113394E2,9.80974E-1,-1.5143726E-3,1.672086E-3,5.02147E-3,8.094342E-3,5.6773187E-3,1.4185501E-2,7.965301E-3,2.702328E-3],"split_indices":[17,21,35,22,6,0,0,17,35,17,34,0,0,0,0,0,0,0,0],"split_type":[0,0,0,0,0,0,0,0,0,0,0,0,0,0,0,0,0,0,0],"sum_hessian":[2.83E2,2.35E2,4.8E1,8.3E1,1.52E2,4.2E1,6E0,1.3E1,7E1,1.02E2,5E1,5E0,8E0,4.3E1,2.7E1,1.1E1,9.1E1,4.1E1,9E0],"tree_param":{"num_deleted":"0","num_feature":"57","num_nodes":"19","size_leaf_vector":"0"}},{"base_weights":[5.260834E-1,2.5500593E-1,5.858123E-1,8.829145E-3,3.2329577E-1,5.1817334E-1,7.9469967E-1,1.08850665E-1,-7.0927404E-2,4.0270227E-1,2.017554E-1,4.748798E-1,1.6383959E-2,1.3606622E-2,1.1076832E0,2.4741904E-3,1.3131698E-4,-1.6459745E-3,1.3362129E-4,8.289368E-3,8.805434E-4,2.1034887E-3,6.143159E-3,1.2131904E-2,8.3196685E-3,7.1383165E-3,2.5999838E-2],"categories":[],"categories_nodes":[],"categories_segments":[],"categories_sizes":[],"default_left":[false,false,false,false,false,false,false,false,false,false,false,false,false,false,false,false,false,false,false,false,false,false,false,false,false,false,false],"id":24,"left_children":[1,3,5,7,9,11,13,15,17,19,21,23,-1,-1,25,-1,-1,-1,-1,-1,-1,-1,-1,-1,-1,-1,-1],"loss_changes":[4.3157043E0,9.189167E-1,2.4543228E0,1.271242E-1,2.5250244E-1,1.5808258E0,3.899765E-1,9.014331E-3,9.042285E-3,6.4789295E-2,1.4916712E-1,7.598152E-1,0E0,0E0,6.6019535E-1,0E0,0E0,0E0,0E0,0E0,0E0,0E0,0E0,0E0,0E0,0E0,0E0],"parents":[2147483647,0,0,1,1,2,2,3,3,4,4,5,5,6,6,7,7,8,8,9,9,10,10,11,11,14,14],"right_children":[2,4,6,8,10,12,14,16,18,20,22,24,-1,-1,26,-1,-1,-1,-1,-1,-1,-1,-1,-1,-1,-1,-1],"split_conditions":[9.748136E0,1.298454E-1,1.51888E1,2.97E-3,1.237974E2,1.39896E1,1.100969E1,2.5882E0,1.2284E0,3.1033435E0,8.820789E-1,5.24105E1,1.6383959E-2,1.3606622E-2,6.55E-4,2.4741904E-3,1.3131698E-4,-1.6459745E-3,1.3362129E-4,8.289368E-3,8.805434E-4,2.1034887E-3,6.143159E-3,1.2131904E-2,8.3196685E-3,7.1383165E-3,2.5999838E-2],"split_indices":[21,42,2,14,48,7,21,4,1,29,24,46,0,0,14,0,0,0,0,0,0,0,0,0,0,0,0],"split_type":[0,0,0,0,0,0,0,0,0,0,0,0,0,0,0,0,0,0,0,0,0,0,0,0,0,0,0],"sum_hessian":[2.83E2,5.3E1,2.3E2,1.2E1,4.1E1,1.79E2,5.1E1,5E0,7E0,2.2E1,1.9E1,1.61E2,1.8E1,4.2E1,9E0,4E0,1E0,6E0,1E0,2.1E1,1E0,1.2E1,7E0,4.4E1,1.17E2,3E0,6E0],"tree_param":{"num_deleted":"0","num_feature":"57","num_nodes":"27","size_leaf_vector":"0"}},{"base_weights":[5.162782E-1,4.4831282E-1,7.668215E-1,6.0950376E-2,4.7879988E-1,7.862172E-1,4.934796E-3,1.1944898E-1,-1.4692247E-3,4.3841246E-1,7.7255636E-1,6.900255E-1,1.1788372E0,3.5541195E-3,1.2120999E-3,1.19647635E-2,7.7066175E-3,1.5768861E-2,2.8203197E-3,1.6300981E-3,1.3986139E-2,2.5367435E-2,3.680632E-3],"categories":[],"categories_nodes":[],"categories_segments":[],"categories_sizes":[],"default_left":[false,false,false,false,false,false,false,false,false,false,false,false,false,false,false,false,false,false,false,false,false,false,false],"id":25,"left_children":[1,3,5,7,9,11,-1,13,-1,15,17,19,21,-1,-1,-1,-1,-1,-1,-1,-1,-1,-1],"loss_changes":[4.1655045E0,2.6460228E0,1.9708252E-1,1.6694468E-1,1.8377838E0,4.503212E-1,0E0,2.6453286E-2,0E0,1.1593666E0,8.395195E-3,1.6275787E-1,2.4571514E-1,0E0,0E0,0E0,0E0,0E0,0E0,0E0,0E0,0E0,0E0],"parents":[2147483647,0,0,1,1,2,2,3,3,4,4,5,5,7,7,9,9,10,10,11,11,12,12],"right_children":[2,4,6,8,10,12,-1,14,-1,16,18,20,22,-1,-1,-1,-1,-1,-1,-1,-1,-1,-1],"split_conditions":[6.80434E1,4.637276E0,5.6778E0,8.9182E0,1.39896E1,6.928892E1,4.934796E-3,1.3294216E0,-1.4692247E-3,5.24105E1,4.102E-1,5.864494E-2,6.782948E2,3.5541195E-3,1.2120999E-3,1.19647635E-2,7.7066175E-3,1.5768861E-2,2.8203197E-3,1.6300981E-3,1.3986139E-2,2.5367435E-2,3.680632E-3],"split_indices":[0,22,8,7,7,20,0,34,0,46,4,19,0,0,0,0,0,0,0,0,0,0,0],"split_type":[0,0,0,0,0,0,0,0,0,0,0,0,0,0,0,0,0,0,0,0,0,0,0],"sum_hessian":[2.83E2,2.27E2,5.6E1,1.7E1,2.1E2,5.3E1,3E0,1.2E1,5E0,1.89E2,2.1E1,4.7E1,6E0,4E0,8E0,4.2E1,1.47E2,2E1,1E0,1E0,4.6E1,5E0,1E0],"tree_param":{"num_deleted":"0","num_feature":"57","num_nodes":"23","size_leaf_vector":"0"}},{"base_weights":[5.065923E-1,7.1273255E-1,4.315389E-1,7.306286E-1,7.742202E-4,2.6875997E-1,4.929245E-1,8.044275E-1,4.619988E-1,4.528974E-1,1.9234627E-1,5.05427E-1,-1.5864066E-3,1.6429028E-2,3.7031795E-3,9.773888E-3,-3.0145247E-4,9.948262E-3,1.1902958E-3,2.0367065E-3,5.4874187E-3,1.052747E-2,2.1380356E-3],"categories":[],"categories_nodes":[],"categories_segments":[],"categories_sizes":[],"default_left":[false,false,false,false,false,false,false,false,false,false,false,false,false,false,false,false,false,false,false,false,false,false,false],"id":26,"left_children":[1,3,5,7,-1,9,11,13,15,17,19,21,-1,-1,-1,-1,-1,-1,-1,-1,-1,-1,-1],"loss_changes":[3.7942429E0,8.2398224E-1,1.8733902E0,6.6425323E-1,0E0,7.1222305E-1,1.17482E0,2.5454712E-1,2.694459E-1,2.3849225E-1,3.004769E-1,1.1396141E0,0E0,0E0,0E0,0E0,0E0,0E0,0E0,0E0,0E0,0E0,0E0],"parents":[2147483647,0,0,1,1,2,2,3,3,5,5,6,6,7,7,8,8,9,9,10,10,11,11],"right_children":[2,4,6,8,-1,10,12,14,16,18,20,22,-1,-1,-1,-1,-1,-1,-1,-1,-1,-1,-1],"split_conditions":[2.177881E1,4.5E1,4.798912E-2,5.050451E0,7.742202E-4,1.3902E0,2.13612E1,4.135275E1,3.546759E-1,2.16936E1,8.145321E-1,9.876552E0,-1.5864066E-3,1.6429028E-2,3.7031795E-3,9.773888E-3,-3.0145247E-4,9.948262E-3,1.1902958E-3,2.0367065E-3,5.4874187E-3,1.052747E-2,2.1380356E-3],"split_indices":[47,28,23,45,0,7,7,35,18,9,24,39,0,0,0,0,0,0,0,0,0,0,0],"split_type":[0,0,0,0,0,0,0,0,0,0,0,0,0,0,0,0,0,0,0,0,0,0,0],"sum_hessian":[2.83E2,7.1E1,2.12E2,6.9E1,2E0,6.1E1,1.51E2,5.1E1,1.8E1,1.5E1,4.6E1,1.48E2,3E0,4.9E1,2E0,1.7E1,1E0,1.3E1,2E0,2.4E1,2.2E1,1.4E2,8E0],"tree_param":{"num_deleted":"0","num_feature":"57","num_nodes":"23","size_leaf_vector":"0"}},{"base_weights":[4.9688235E-1,3.2131642E-1,5.840486E-1,4.384243E-1,1.7862165E-1,5.074304E-1,7.752178E-1,1.1478864E-2,2.7642933E-1,4.3430816E-2,2.7208433E-1,5.413653E-1,2.7620074E-1,8.1772727E-1,6.9522224E-3,6.4657796E-3,8.696408E-4,-8.4439915E-4,1.9681107E-3,1.06988E-3,5.8807125E-3,4.670364E-3,1.1242366E-2,6.5101967E-3,7.2413025E-4,1.3664907E-2,2.2766335E-2],"categories":[],"categories_nodes":[],"categories_segments":[],"categories_sizes":[],"default_left":[false,false,false,false,false,false,false,false,false,false,false,false,false,false,false,false,false,false,false,false,false,false,false,false,false,false,false],"id":27,"left_children":[1,3,5,7,9,11,13,-1,15,17,19,21,23,25,-1,-1,-1,-1,-1,-1,-1,-1,-1,-1,-1,-1,-1],"loss_changes":[3.9861526E0,1.4977331E0,1.9669113E0,8.4621906E-1,5.828606E-1,7.994957E-1,3.4036446E-1,0E0,2.7752876E-1,1.1189915E-1,1.0289526E-1,5.041237E-1,2.3677468E-1,3.414955E-1,0E0,0E0,0E0,0E0,0E0,0E0,0E0,0E0,0E0,0E0,0E0,0E0,0E0],"parents":[2147483647,0,0,1,1,2,2,3,3,4,4,5,5,6,6,8,8,9,9,10,10,11,11,12,12,13,13],"right_children":[2,4,6,8,10,12,14,-1,16,18,20,22,24,26,-1,-1,-1,-1,-1,-1,-1,-1,-1,-1,-1,-1,-1],"split_conditions":[1.000125E1,1.62152E1,6.45291E1,2.770263E1,7.035968E-1,1.27E2,8.162219E-1,1.1478864E-2,8.63E0,7.61469E0,8.374E-1,2.654673E0,1.538157E0,1.100969E1,6.9522224E-3,6.4657796E-3,8.696408E-4,-8.4439915E-4,1.9681107E-3,1.06988E-3,5.8807125E-3,4.670364E-3,1.1242366E-2,6.5101967E-3,7.2413025E-4,1.3664907E-2,2.2766335E-2],"split_indices":[21,9,0,47,24,28,24,0,8,21,11,45,44,21,0,0,0,0,0,0,0,0,0,0,0,0,0],"split_type":[0,0,0,0,0,0,0,0,0,0,0,0,0,0,0,0,0,0,0,0,0,0,0,0,0,0,0],"sum_hessian":[2.83E2,9.7E1,1.86E2,5.1E1,4.6E1,1.38E2,4.8E1,2.5E1,2.6E1,2E1,2.6E1,1.18E2,2E1,4.2E1,6E0,2.1E1,5E0,8E0,1.2E1,3E0,2.3E1,9E0,1.09E2,1.6E1,4E0,3.4E1,8E0],"tree_param":{"num_deleted":"0","num_feature":"57","num_nodes":"27","size_leaf_vector":"0"}},{"base_weights":[4.8760027E-1,4.249891E-1,7.3969656E-1,2.2283143E-1,4.864307E-1,6.1172616E-1,1.9343209E-2,2.6217172E-1,4.631937E-2,5.537672E-1,3.533658E-1,1.2375088E-2,2.25082E-3,5.405195E-3,-7.3252234E-4,1.8747825E-3,-8.0500124E-4,1.1927521E-2,3.8606375E-3,9.659519E-3,5.391059E-3],"categories":[],"categories_nodes":[],"categories_segments":[],"categories_sizes":[],"default_left":[false,false,false,false,false,false,false,false,false,false,false,false,false,false,false,false,false,false,false,false,false],"id":28,"left_children":[1,3,5,7,9,11,-1,13,15,17,19,-1,-1,-1,-1,-1,-1,-1,-1,-1,-1],"loss_changes":[3.8697205E0,2.677288E0,3.8859367E-1,3.7846684E-1,1.1945724E0,1.0662079E-3,0E0,1.333816E-1,6.091234E-2,1.5219994E0,4.4571877E-1,0E0,0E0,0E0,0E0,0E0,0E0,0E0,0E0,0E0,0E0],"parents":[2147483647,0,0,1,1,2,2,3,3,4,4,5,5,7,7,8,8,9,9,10,10],"right_children":[2,4,6,8,10,12,-1,14,16,18,20,-1,-1,-1,-1,-1,-1,-1,-1,-1,-1],"split_conditions":[1.51888E1,4.452077E-2,2.725E-3,2.759796E0,3.589465E-2,1.35262E1,1.9343209E-2,4.7146E1,3.8738E0,8.905E-3,5.295161E1,1.2375088E-2,2.25082E-3,5.405195E-3,-7.3252234E-4,1.8747825E-3,-8.0500124E-4,1.1927521E-2,3.8606375E-3,9.659519E-3,5.391059E-3],"split_indices":[2,23,14,34,40,5,0,5,2,14,46,0,0,0,0,0,0,0,0,0,0],"split_type":[0,0,0,0,0,0,0,0,0,0,0,0,0,0,0,0,0,0,0,0,0],"sum_hessian":[2.83E2,2.31E2,5.2E1,5.6E1,1.75E2,3.8E1,1.4E1,4.5E1,1.1E1,1.12E2,6.3E1,3.7E1,1E0,4.4E1,1E0,7E0,4E0,9.9E1,1.3E1,2.1E1,4.2E1],"tree_param":{"num_deleted":"0","num_feature":"57","num_nodes":"21","size_leaf_vector":"0"}},{"base_weights":[4.7834334E-1,4.1676483E-1,7.510917E-1,3.2172638E-1,6.343072E-1,1.2805831E-2,2.3454392E-2,2.0518886E-1,4.148026E-1,4.1618037E-1,7.3001766E-1,-9.2632865E-5,4.7853324E-3,9.998696E-3,5.890774E-3,8.7015135E-3,-3.7468193E-4,1.4921752E-2,3.7647884E-3],"categories":[],"categories_nodes":[],"categories_segments":[],"categories_sizes":[],"default_left":[false,false,false,false,false,false,false,false,false,false,false,false,false,false,false,false,false,false,false],"id":29,"left_children":[1,3,5,7,9,-1,-1,11,13,15,17,-1,-1,-1,-1,-1,-1,-1,-1],"loss_changes":[4.1606445E0,4.4917984E0,8.3405685E-1,1.6628952E0,8.5375404E-1,0E0,0E0,5.670836E-1,6.474266E-1,2.2996569E-1,1.19607925E-1,0E0,0E0,0E0,0E0,0E0,0E0,0E0,0E0],"parents":[2147483647,0,0,1,1,2,2,3,3,4,4,7,7,8,8,9,9,10,10],"right_children":[2,4,6,8,10,-1,-1,12,14,16,18,-1,-1,-1,-1,-1,-1,-1,-1],"split_conditions":[1.443593E2,9.3068E0,1.983378E1,1.023223E1,1.16901E2,1.2805831E-2,2.3454392E-2,4.49986E0,2.6946E0,1.1508E0,1.35262E1,-9.2632865E-5,4.7853324E-3,9.998696E-3,5.890774E-3,8.7015135E-3,-3.7468193E-4,1.4921752E-2,3.7647884E-3],"split_indices":[17,2,35,21,17,0,0,22,6,1,5,0,0,0,0,0,0,0,0],"split_type":[0,0,0,0,0,0,0,0,0,0,0,0,0,0,0,0,0,0,0],"sum_hessian":[2.83E2,2.35E2,4.8E1,1.67E2,6.8E1,4.2E1,6E0,7.7E1,9E1,2.4E1,4.4E1,1.1E1,6.6E1,4.9E1,4.1E1,2.3E1,1E0,4.2E1,2E0],"tree_param":{"num_deleted":"0","num_feature":"57","num_nodes":"19","size_leaf_vector":"0"}},{"base_weights":[4.693649E-1,4.067272E-1,7.282045E-1,3.1088352E-1,6.2239283E-1,1.2208809E-2,2.1337194E-2,1.9278274E-1,4.0398234E-1,4.084973E-1,7.162298E-1,-2.5352277E-4,4.4765323E-3,9.7355E-3,5.7784384E-3,8.541405E-3,-3.721841E-4,1.4636883E-2,3.7271404E-3],"categories":[],"categories_nodes":[],"categories_segments":[],"categories_sizes":[],"default_left":[false,false,false,false,false,false,false,false,false,false,false,false,false,false,false,false,false,false,false],"id":30,"left_children":[1,3,5,7,9,-1,-1,11,13,15,17,-1,-1,-1,-1,-1,-1,-1,-1],"loss_changes":[4.0283737E0,4.4498405E0,8.112068E-1,1.6694164E0,8.1983566E-1,0E0,0E0,4.9679947E-1,5.855999E-1,2.2214365E-1,1.078186E-1,0E0,0E0,0E0,0E0,0E0,0E0,0E0,0E0],"parents":[2147483647,0,0,1,1,2,2,3,3,4,4,7,7,8,8,9,9,10,10],"right_children":[2,4,6,8,10,-1,-1,12,14,16,18,-1,-1,-1,-1,-1,-1,-1,-1],"split_conditions":[1.433807E2,9.3068E0,1.638318E2,1.023223E1,1.16901E2,1.2208809E-2,2.1337194E-2,1.019073E2,2.6946E0,3.546759E-1,1.35262E1,-2.5352277E-4,4.4765323E-3,9.7355E-3,5.7784384E-3,8.541405E-3,-3.721841E-4,1.4636883E-2,3.7271404E-3],"split_indices":[17,2,17,21,17,0,0,17,6,18,5,0,0,0,0,0,0,0,0],"split_type":[0,0,0,0,0,0,0,0,0,0,0,0,0,0,0,0,0,0,0],"sum_hessian":[2.83E2,2.32E2,5.1E1,1.64E2,6.8E1,4.2E1,9E0,7.5E1,8.9E1,2.4E1,4.4E1,1E1,6.5E1,4.8E1,4.1E1,2.3E1,1E0,4.2E1,2E0],"tree_param":{"num_deleted":"0","num_feature":"57","num_nodes":"19","size_leaf_vector":"0"}},{"base_weights":[4.6053773E-1,4.009696E-1,7.0050615E-1,2.0912759E-1,4.5930237E-1,1.152777E-2,9.232369E-1,2.6461E-1,7.7250026E-2,5.330602E-2,4.8041758E-1,2.4906741E-2,1.216628E-2,6.237636E-3,6.495556E-4,-5.0745235E-4,2.1215454E-3,-1.6316785E-3,2.4857146E-3,1.1113508E-2,6.7469487E-3],"categories":[],"categories_nodes":[],"categories_segments":[],"categories_sizes":[],"default_left":[false,false,false,false,false,false,false,false,false,false,false,false,false,false,false,false,false,false,false,false,false],"id":31,"left_children":[1,3,5,7,9,-1,11,13,15,17,19,-1,-1,-1,-1,-1,-1,-1,-1,-1,-1],"loss_changes":[3.5121574E0,2.4153214E0,4.2853546E-1,3.83497E-1,1.4661484E0,0E0,1.07875824E-1,4.1867423E-1,6.4549476E-2,1.2559839E-1,1.4339714E0,0E0,0E0,0E0,0E0,0E0,0E0,0E0,0E0,0E0,0E0],"parents":[2147483647,0,0,1,1,2,2,3,3,4,4,6,6,7,7,8,8,9,9,10,10],"right_children":[2,4,6,8,10,-1,12,14,16,18,20,-1,-1,-1,-1,-1,-1,-1,-1,-1,-1],"split_conditions":[1.51888E1,4.452077E-2,2.725E-3,2.41586E1,4.637276E0,1.152777E-2,1.005873E-1,1.7744E2,2.55674E1,1.51368E1,3.589465E-2,2.4906741E-2,1.216628E-2,6.237636E-3,6.495556E-4,-5.0745235E-4,2.1215454E-3,-1.6316785E-3,2.4857146E-3,1.1113508E-2,6.7469487E-3],"split_indices":[2,23,14,9,22,0,18,51,47,5,40,0,0,0,0,0,0,0,0,0,0],"split_type":[0,0,0,0,0,0,0,0,0,0,0,0,0,0,0,0,0,0,0,0,0],"sum_hessian":[2.83E2,2.31E2,5.2E1,5.6E1,1.75E2,3.8E1,1.4E1,3.8E1,1.8E1,9E0,1.66E2,4E0,1E1,3.1E1,7E0,4E0,1.4E1,3E0,6E0,1.05E2,6.1E1],"tree_param":{"num_deleted":"0","num_feature":"57","num_nodes":"21","size_leaf_vector":"0"}},{"base_weights":[4.51859E-1,3.6950728E-1,6.220765E-1,6.735161E-2,4.0288812E-1,6.482197E-1,3.9998073E-2,-1.47565305E-2,1.6883269E-1,5.170613E-1,3.1082076E-1,5.858527E-1,2.2196703E-2,5.0016344E-2,-6.728848E-5,-1.7355592E-3,8.907873E-4,9.393613E-5,3.7205254E-3,5.0462186E-3,1.0901862E-2,6.808128E-3,2.1479588E-3,9.967205E-3,1.4769343E-2,1.1107612E-3,1.8619656E-4],"categories":[],"categories_nodes":[],"categories_segments":[],"categories_sizes":[],"default_left":[false,false,false,false,false,false,false,false,false,false,false,false,false,false,false,false,false,false,false,false,false,false,false,false,false,false,false],"id":32,"left_children":[1,3,5,7,9,11,13,15,17,19,21,23,-1,25,-1,-1,-1,-1,-1,-1,-1,-1,-1,-1,-1,-1,-1],"loss_changes":[3.535324E0,1.9327145E0,1.3177109E0,1.8829606E-1,1.5391293E0,1.1755028E0,2.9430557E-3,6.751813E-2,2.6473373E-2,2.8896332E-1,5.467777E-1,3.3216286E-1,0E0,8.974876E-5,0E0,0E0,0E0,0E0,0E0,0E0,0E0,0E0,0E0,0E0,0E0,0E0,0E0],"parents":[2147483647,0,0,1,1,2,2,3,3,4,4,5,5,6,6,7,7,8,8,9,9,10,10,11,11,13,13],"right_children":[2,4,6,8,10,12,14,16,18,20,22,24,-1,26,-1,-1,-1,-1,-1,-1,-1,-1,-1,-1,-1,-1,-1],"split_conditions":[1.099087E1,8.713432E0,7.309665E1,7.0912E0,2.718583E1,1.289206E1,1.39944E1,6.896E-1,1.1198E0,4.6231583E-2,8.2068E0,7.163061E0,2.2196703E-2,1.39477E1,-6.728848E-5,-1.7355592E-3,8.907873E-4,9.393613E-5,3.7205254E-3,5.0462186E-3,1.0901862E-2,6.808128E-3,2.1479588E-3,9.967205E-3,1.4769343E-2,1.1107612E-3,1.8619656E-4],"split_indices":[21,21,20,6,47,21,0,1,5,23,8,22,0,0,0,0,0,0,0,0,0,0,0,0,0,0,0],"split_type":[0,0,0,0,0,0,0,0,0,0,0,0,0,0,0,0,0,0,0,0,0,0,0,0,0,0,0],"sum_hessian":[2.83E2,1.95E2,8.8E1,2E1,1.75E2,8.4E1,4E0,1.2E1,8E0,7.4E1,1.01E2,7.8E1,6E0,3E0,1E0,5E0,7E0,1E0,7E0,9E0,6.5E1,8.7E1,1.4E1,5.5E1,2.3E1,2E0,1E0],"tree_param":{"num_deleted":"0","num_feature":"57","num_nodes":"27","size_leaf_vector":"0"}},{"base_weights":[4.4335544E-1,3.7894154E-1,6.7724794E-1,2.5771812E-1,5.2105314E-1,5.740979E-1,2.0459516E-2,9.109767E-2,3.2681227E-1,6.0765517E-1,2.909265E-1,2.4425578E-3,1.1756825E-2,-9.911888E-4,2.4787523E-3,-1.0224506E-3,6.6453773E-3,6.237479E-3,1.3467919E-2,7.3198383E-3,2.8425842E-3],"categories":[],"categories_nodes":[],"categories_segments":[],"categories_sizes":[],"default_left":[false,false,false,false,false,false,false,false,false,false,false,false,false,false,false,false,false,false,false,false,false],"id":33,"left_children":[1,3,5,7,9,11,-1,13,15,17,19,-1,-1,-1,-1,-1,-1,-1,-1,-1,-1],"loss_changes":[3.7805176E0,3.6592445E0,9.2947197E-1,1.402544E0,1.6991653E0,1.66996E-1,0E0,1.9705153E-1,2.1751118E-1,9.994488E-1,2.5338864E-1,0E0,0E0,0E0,0E0,0E0,0E0,0E0,0E0,0E0,0E0],"parents":[2147483647,0,0,1,1,2,2,3,3,4,4,5,5,7,7,8,8,9,9,10,10],"right_children":[2,4,6,8,10,12,-1,14,16,18,20,-1,-1,-1,-1,-1,-1,-1,-1,-1,-1],"split_conditions":[1.410877E2,6.998634E0,1.638318E2,5.663577E0,3.5226E0,4.7043E0,2.0459516E-2,1.019073E2,8.713432E0,1.145797E2,1.406637E-1,2.4425578E-3,1.1756825E-2,-9.911888E-4,2.4787523E-3,-1.0224506E-3,6.6453773E-3,6.237479E-3,1.3467919E-2,7.3198383E-3,2.8425842E-3],"split_indices":[17,22,17,22,5,22,0,17,21,17,42,0,0,0,0,0,0,0,0,0,0],"split_type":[0,0,0,0,0,0,0,0,0,0,0,0,0,0,0,0,0,0,0,0,0],"sum_hessian":[2.83E2,2.26E2,5.7E1,1.25E2,1.01E2,4.8E1,9E0,3.8E1,8.7E1,7.1E1,3E1,2E0,4.6E1,7E0,3.1E1,1E0,8.6E1,1.5E1,5.6E1,1.8E1,1.2E1],"tree_param":{"num_deleted":"0","num_feature":"57","num_nodes":"21","size_leaf_vector":"0"}},{"base_weights":[4.3499103E-1,3.7168708E-1,6.6487783E-1,2.526757E-1,5.1121205E-1,5.631839E-1,2.0124724E-2,8.935007E-2,3.2040238E-1,6.007487E-1,2.8487664E-1,2.4181323E-3,5.765743E-1,-1.7130526E-3,2.3848978E-3,-1.0156343E-3,6.5154904E-3,6.127405E-3,1.3349338E-2,3.4751382E-3,7.901055E-3,1.2197198E-2,5.936245E-3],"categories":[],"categories_nodes":[],"categories_segments":[],"categories_sizes":[],"default_left":[false,false,false,false,false,false,false,false,false,false,false,false,false,false,false,false,false,false,false,false,false,false,false],"id":34,"left_children":[1,3,5,7,9,11,-1,13,15,17,19,-1,21,-1,-1,-1,-1,-1,-1,-1,-1,-1,-1],"loss_changes":[3.6532822E0,3.5276108E0,9.147396E-1,1.3475561E0,1.7450504E0,1.5669155E-1,0E0,2.2969428E-1,2.1055698E-1,1.005125E0,2.667241E-1,0E0,8.495045E-2,0E0,0E0,0E0,0E0,0E0,0E0,0E0,0E0,0E0,0E0],"parents":[2147483647,0,0,1,1,2,2,3,3,4,4,5,5,7,7,8,8,9,9,10,10,12,12],"right_children":[2,4,6,8,10,12,-1,14,16,18,20,-1,22,-1,-1,-1,-1,-1,-1,-1,-1,-1,-1],"split_conditions":[1.410877E2,6.998634E0,1.638318E2,5.663577E0,1.994E0,4.7043E0,2.0124724E-2,3.1616E0,8.713432E0,1.145797E2,1.213671E2,2.4181323E-3,1.81844E1,-1.7130526E-3,2.3848978E-3,-1.0156343E-3,6.5154904E-3,6.127405E-3,1.3349338E-2,3.4751382E-3,7.901055E-3,1.2197198E-2,5.936245E-3],"split_indices":[17,22,17,22,6,22,0,11,21,17,17,0,6,0,0,0,0,0,0,0,0,0,0],"split_type":[0,0,0,0,0,0,0,0,0,0,0,0,0,0,0,0,0,0,0,0,0,0,0],"sum_hessian":[2.83E2,2.26E2,5.7E1,1.25E2,1.01E2,4.8E1,9E0,3.8E1,8.7E1,7E1,3.1E1,2E0,4.6E1,5E0,3.3E1,1E0,8.6E1,1.5E1,5.5E1,1.8E1,1.3E1,3.9E1,7E0],"tree_param":{"num_deleted":"0","num_feature":"57","num_nodes":"23","size_leaf_vector":"0"}},{"base_weights":[4.268365E-1,3.6457813E-1,6.529591E-1,2.7545425E-1,5.6617975E-1,5.5274224E-1,1.979541E-2,8.7596655E-2,3.3161065E-1,3.7028658E-1,6.5619934E-1,2.3939507E-3,5.657984E-1,2.2884926E-3,-1.4314173E-3,4.582988E-3,8.351264E-3,1.0530233E-4,7.6893247E-3,6.576028E-3,1.4007328E-2,1.1965154E-2,5.8439034E-3],"categories":[],"categories_nodes":[],"categories_segments":[],"categories_sizes":[],"default_left":[false,false,false,false,false,false,false,false,false,false,false,false,false,false,false,false,false,false,false,false,false,false,false],"id":35,"left_children":[1,3,5,7,9,11,-1,13,15,17,19,-1,21,-1,-1,-1,-1,-1,-1,-1,-1,-1,-1],"loss_changes":[3.5361328E0,3.7846794E0,8.973217E-1,1.6509075E0,7.131634E-1,1.4724445E-1,0E0,1.8718466E-1,9.006758E-1,1.3052416E-1,1.7568779E-1,0E0,7.66716E-2,0E0,0E0,0E0,0E0,0E0,0E0,0E0,0E0,0E0,0E0],"parents":[2147483647,0,0,1,1,2,2,3,3,4,4,5,5,7,7,8,8,9,9,10,10,12,12],"right_children":[2,4,6,8,10,12,-1,14,16,18,20,-1,22,-1,-1,-1,-1,-1,-1,-1,-1,-1,-1],"split_conditions":[1.410877E2,9.3068E0,1.638318E2,5.663577E0,1.16901E2,4.7043E0,1.979541E-2,1.4705E1,1.049835E1,2.8E-3,6.57389E0,2.3939507E-3,1.81844E1,2.2884926E-3,-1.4314173E-3,4.582988E-3,8.351264E-3,1.0530233E-4,7.6893247E-3,6.576028E-3,1.4007328E-2,1.1965154E-2,5.8439034E-3],"split_indices":[17,2,17,22,17,22,0,7,21,3,22,0,6,0,0,0,0,0,0,0,0,0,0],"split_type":[0,0,0,0,0,0,0,0,0,0,0,0,0,0,0,0,0,0,0,0,0,0,0],"sum_hessian":[2.83E2,2.26E2,5.7E1,1.6E2,6.6E1,4.8E1,9E0,3.8E1,1.22E2,2.4E1,4.2E1,2E0,4.6E1,3.3E1,5E0,5.9E1,6.3E1,1E0,2.3E1,7E0,3.5E1,3.9E1,7E0],"tree_param":{"num_deleted":"0","num_feature":"57","num_nodes":"23","size_leaf_vector":"0"}},{"base_weights":[4.1887638E-1,3.5265028E-1,6.2383133E-1,2.7803347E-1,5.772718E-1,5.359894E-1,1.9471485E-2,7.480519E-2,3.1562188E-1,6.3833797E-1,3.7285668E-1,5.517335E-1,4.7577113E-2,3.0130597E-3,-3.2146313E-4,9.715373E-3,4.7386643E-3,1.2939344E-2,2.127033E-3,7.7261208E-3,1.0511096E-3,1.1554378E-2,5.7529984E-3,1.1314491E-3,1.3727386E-4],"categories":[],"categories_nodes":[],"categories_segments":[],"categories_sizes":[],"default_left":[false,false,false,false,false,false,false,false,false,false,false,false,false,false,false,false,false,false,false,false,false,false,false,false,false],"id":36,"left_children":[1,3,5,7,9,11,-1,13,15,17,19,21,23,-1,-1,-1,-1,-1,-1,-1,-1,-1,-1,-1,-1],"loss_changes":[3.428421E0,3.3663158E0,1.0147305E0,1.2437754E0,1.8557358E-1,3.9349747E-1,0E0,2.047377E-1,1.6709957E0,3.683281E-2,3.2628536E-2,5.1927567E-2,6.8833306E-4,0E0,0E0,0E0,0E0,0E0,0E0,0E0,0E0,0E0,0E0,0E0,0E0],"parents":[2147483647,0,0,1,1,2,2,3,3,4,4,5,5,7,7,8,8,9,9,10,10,11,11,12,12],"right_children":[2,4,6,8,10,12,-1,14,16,18,20,22,24,-1,-1,-1,-1,-1,-1,-1,-1,-1,-1,-1,-1],"split_conditions":[1.371652E2,6.80434E1,1.638318E2,1.114904E2,1.217E0,1.3516E0,1.9471485E-2,2.8468E0,3.5226E0,1.0722E0,1.5824932E0,1.81844E1,1.22233E1,3.0130597E-3,-3.2146313E-4,9.715373E-3,4.7386643E-3,1.2939344E-2,2.127033E-3,7.7261208E-3,1.0511096E-3,1.1554378E-2,5.7529984E-3,1.1314491E-3,1.3727386E-4],"split_indices":[17,0,17,17,5,12,0,7,5,8,34,6,0,0,0,0,0,0,0,0,0,0,0,0,0],"split_type":[0,0,0,0,0,0,0,0,0,0,0,0,0,0,0,0,0,0,0,0,0,0,0,0,0],"sum_hessian":[2.83E2,2.18E2,6.5E1,1.67E2,5.1E1,5.6E1,9E0,2.7E1,1.4E2,3.6E1,1.5E1,5.4E1,2E0,1.4E1,1.3E1,4.1E1,9.9E1,3.5E1,1E0,1.4E1,1E0,4.7E1,7E0,1E0,1E0],"tree_param":{"num_deleted":"0","num_feature":"57","num_nodes":"25","size_leaf_vector":"0"}},{"base_weights":[4.1105348E-1,3.5337332E-1,6.246164E-1,3.951515E-1,2.2809501E-1,5.436276E-1,9.447488E-1,3.561227E-1,1.2725901E-2,3.5391653E-1,1.2394984E-1,5.501212E-1,1.4596636E-3,2.2241818E-2,3.590514E-3,3.546825E-3,7.7472273E-3,7.7384007E-3,-5.862713E-4,9.564029E-5,4.285779E-3,3.0406208E-3,1.1207473E-2],"categories":[],"categories_nodes":[],"categories_segments":[],"categories_sizes":[],"default_left":[false,false,false,false,false,false,false,false,false,false,false,false,false,false,false,false,false,false,false,false,false,false,false],"id":37,"left_children":[1,3,5,7,9,11,13,15,-1,17,19,21,-1,-1,-1,-1,-1,-1,-1,-1,-1,-1,-1],"loss_changes":[3.0692825E0,1.0182991E0,4.765892E-1,1.137352E0,7.246938E-1,7.556534E-2,7.5318813E-1,7.003441E-1,0E0,3.6417818E-1,3.9627457E-1,3.368187E-2,0E0,0E0,0E0,0E0,0E0,0E0,0E0,0E0,0E0,0E0,0E0],"parents":[2147483647,0,0,1,1,2,2,3,3,4,4,5,5,6,6,7,7,9,9,10,10,11,11],"right_children":[2,4,6,8,10,12,14,16,-1,18,20,22,-1,-1,-1,-1,-1,-1,-1,-1,-1,-1,-1],"split_conditions":[6.80434E1,2.146E-1,6.928892E1,1.39896E1,7.1429485E-1,1E0,6.95E-1,1.44486E0,1.2725901E-2,2.2891762E0,8.145321E-1,5.864494E-2,1.4596636E-3,2.2241818E-2,3.590514E-3,3.546825E-3,7.7472273E-3,7.7384007E-3,-5.862713E-4,9.564029E-5,4.285779E-3,3.0406208E-3,1.1207473E-2],"split_indices":[0,4,20,7,34,52,1,50,0,16,24,19,0,0,0,0,0,0,0,0,0,0,0],"split_type":[0,0,0,0,0,0,0,0,0,0,0,0,0,0,0,0,0,0,0,0,0,0,0],"sum_hessian":[2.83E2,2.27E2,5.6E1,1.67E2,6E1,4.9E1,7E0,1.48E2,1.9E1,2.5E1,3.5E1,4.8E1,1E0,5E0,2E0,2.4E1,1.24E2,2.3E1,2E0,1.6E1,1.9E1,2E0,4.6E1],"tree_param":{"num_deleted":"0","num_feature":"57","num_nodes":"23","size_leaf_vector":"0"}},{"base_weights":[4.0337342E-1,3.4661636E-1,6.1355644E-1,1.725808E-1,3.9834642E-1,5.333711E-1,9.315943E-1,2.354003E-1,6.197885E-2,4.3766722E-2,4.1704333E-1,5.396887E-1,1.4499326E-3,3.5546087E-3,2.1924078E-2,5.44203E-3,2.1704486E-4,-1.0140002E-3,1.9782372E-3,2.1654181E-3,-1.5389335E-3,6.461629E-3,1.0064402E-2,3.0102145E-3,1.0992664E-2],"categories":[],"categories_nodes":[],"categories_segments":[],"categories_sizes":[],"default_left":[false,false,false,false,false,false,false,false,false,false,false,false,false,false,false,false,false,false,false,false,false,false,false,false,false],"id":38,"left_children":[1,3,5,7,9,11,13,15,17,19,21,23,-1,-1,-1,-1,-1,-1,-1,-1,-1,-1,-1,-1,-1],"loss_changes":[2.974533E0,1.9241638E0,4.8534393E-1,3.5990596E-1,1.123663E0,7.024193E-2,7.271805E-1,2.8253567E-1,1.05745785E-1,1.023139E-1,1.0189953E0,2.8058052E-2,0E0,0E0,0E0,0E0,0E0,0E0,0E0,0E0,0E0,0E0,0E0,0E0,0E0],"parents":[2147483647,0,0,1,1,2,2,3,3,4,4,5,5,6,6,7,7,8,8,9,9,10,10,11,11],"right_children":[2,4,6,8,10,12,14,16,18,20,22,24,-1,-1,-1,-1,-1,-1,-1,-1,-1,-1,-1,-1,-1],"split_conditions":[6.80434E1,4.452077E-2,6.928892E1,2.26248E1,4.637276E0,1E0,9.392E-1,1.7744E2,2.564355E1,5.3162E0,2.3978E0,5.864494E-2,1.4499326E-3,3.5546087E-3,2.1924078E-2,5.44203E-3,2.1704486E-4,-1.0140002E-3,1.9782372E-3,2.1654181E-3,-1.5389335E-3,6.461629E-3,1.0064402E-2,3.0102145E-3,1.0992664E-2],"split_indices":[0,23,20,9,22,52,9,51,47,7,7,19,0,0,0,0,0,0,0,0,0,0,0,0,0],"split_type":[0,0,0,0,0,0,0,0,0,0,0,0,0,0,0,0,0,0,0,0,0,0,0,0,0],"sum_hessian":[2.83E2,2.27E2,5.6E1,5.4E1,1.73E2,4.9E1,7E0,3.3E1,2.1E1,9E0,1.64E2,4.8E1,1E0,2E0,5E0,2.8E1,5E0,5E0,1.6E1,6E0,3E0,8.3E1,8.1E1,2E0,4.6E1],"tree_param":{"num_deleted":"0","num_feature":"57","num_nodes":"25","size_leaf_vector":"0"}},{"base_weights":[3.9576003E-1,3.4212095E-1,6.34179E-1,2.6069823E-1,5.2892375E-1,5.3340364E-1,2.0597972E-2,6.908672E-2,2.9457045E-1,3.3886486E-1,6.1335164E-1,5.6305075E-1,5.1845764E-3,2.764928E-3,-3.964487E-4,9.074858E-3,4.8482246E-3,-1.20011955E-5,7.0498292E-3,1.2538413E-2,3.148341E-3,1.7599589E-3,1.1422668E-2],"categories":[],"categories_nodes":[],"categories_segments":[],"categories_sizes":[],"default_left":[false,false,false,false,false,false,false,false,false,false,false,false,false,false,false,false,false,false,false,false,false,false,false],"id":39,"left_children":[1,3,5,7,9,11,-1,13,15,17,19,21,-1,-1,-1,-1,-1,-1,-1,-1,-1,-1,-1],"loss_changes":[3.2108154E0,3.328989E0,8.9523697E-1,1.056159E0,7.0755196E-1,6.573582E-2,0E0,1.7765076E-1,9.6724606E-1,1.2069273E-1,8.7207794E-2,4.539013E-2,0E0,0E0,0E0,0E0,0E0,0E0,0E0,0E0,0E0,0E0,0E0],"parents":[2147483647,0,0,1,1,2,2,3,3,4,4,5,5,7,7,8,8,9,9,10,10,11,11],"right_children":[2,4,6,8,10,12,-1,14,16,18,20,22,-1,-1,-1,-1,-1,-1,-1,-1,-1,-1,-1],"split_conditions":[1.443593E2,9.3068E0,1.983378E1,1.114904E2,1.16901E2,1.81844E1,2.0597972E-2,2.8468E0,3.5226E0,1E-2,1.3129489E1,1.1E-1,5.1845764E-3,2.764928E-3,-3.964487E-4,9.074858E-3,4.8482246E-3,-1.20011955E-5,7.0498292E-3,1.2538413E-2,3.148341E-3,1.7599589E-3,1.1422668E-2],"split_indices":[17,2,35,17,17,6,0,7,5,5,29,8,0,0,0,0,0,0,0,0,0,0,0],"split_type":[0,0,0,0,0,0,0,0,0,0,0,0,0,0,0,0,0,0,0,0,0,0,0],"sum_hessian":[2.83E2,2.35E2,4.8E1,1.67E2,6.8E1,4.2E1,6E0,2.6E1,1.41E2,2.4E1,4.4E1,3.6E1,6E0,1.4E1,1.2E1,3.1E1,1.1E2,1E0,2.3E1,4.2E1,2E0,1E0,3.5E1],"tree_param":{"num_deleted":"0","num_feature":"57","num_nodes":"23","size_leaf_vector":"0"}},{"base_weights":[3.8839206E-1,3.2535407E-1,5.8378875E-1,2.3928522E-1,5.147565E-1,4.9974987E-1,1.8415187E-2,6.565176E-2,2.907096E-1,3.3262894E-1,6.0093796E-1,8.6133145E-2,5.191787E-1,-1.7433263E-3,1.8817764E-3,4.0014684E-3,7.406569E-3,6.9960346E-3,-6.4460834E-4,5.1634335E-3,1.28513295E-2,2.0866063E-3,8.8963105E-5,1.8194127E-3,1.0474783E-2],"categories":[],"categories_nodes":[],"categories_segments":[],"categories_sizes":[],"default_left":[false,false,false,false,false,false,false,false,false,false,false,false,false,false,false,false,false,false,false,false,false,false,false,false,false],"id":40,"left_children":[1,3,5,7,9,11,-1,13,15,17,19,21,23,-1,-1,-1,-1,-1,-1,-1,-1,-1,-1,-1,-1],"loss_changes":[3.1305885E0,3.3400154E0,9.770489E-1,1.3458223E0,6.5185547E-1,3.7665558E-1,0E0,1.8153924E-1,7.1055984E-1,1.8545556E-1,2.8177547E-1,6.5040253E-3,1.2116432E-2,0E0,0E0,0E0,0E0,0E0,0E0,0E0,0E0,0E0,0E0,0E0,0E0],"parents":[2147483647,0,0,1,1,2,2,3,3,4,4,5,5,7,7,8,8,9,9,10,10,11,11,12,12],"right_children":[2,4,6,8,10,12,-1,14,16,18,20,22,24,-1,-1,-1,-1,-1,-1,-1,-1,-1,-1,-1,-1],"split_conditions":[1.371652E2,9.3068E0,1.638318E2,5.663577E0,1.16901E2,4.7043E0,1.8415187E-2,3.1616E0,1.049835E1,1.1508E0,6.57389E0,1.22233E1,2.99142E1,-1.7433263E-3,1.8817764E-3,4.0014684E-3,7.406569E-3,6.9960346E-3,-6.4460834E-4,5.1634335E-3,1.28513295E-2,2.0866063E-3,8.8963105E-5,1.8194127E-3,1.0474783E-2],"split_indices":[17,2,17,22,17,22,0,11,21,1,22,0,15,0,0,0,0,0,0,0,0,0,0,0,0],"split_type":[0,0,0,0,0,0,0,0,0,0,0,0,0,0,0,0,0,0,0,0,0,0,0,0,0],"sum_hessian":[2.83E2,2.18E2,6.5E1,1.53E2,6.5E1,5.6E1,9E0,3.6E1,1.17E2,2.4E1,4.1E1,3E0,5.3E1,5E0,3.1E1,5.8E1,5.9E1,2.3E1,1E0,6E0,3.5E1,2E0,1E0,1E0,5.2E1],"tree_param":{"num_deleted":"0","num_feature":"57","num_nodes":"25","size_leaf_vector":"0"}},{"base_weights":[3.81107E-1,3.1917346E-1,5.730946E-1,2.0360403E-1,4.4887918E-1,4.9025384E-1,1.8113848E-2,6.434601E-2,2.6175398E-1,5.3128314E-1,2.4438103E-1,8.52807E-2,5.092422E-1,-1.7184217E-3,1.8464217E-3,9.161051E-4,5.4281256E-3,5.258477E-3,1.1875498E-2,2.8171034E-3,6.9966274E-3,8.8369845E-5,2.0657403E-3,1.0701291E-2,5.1671504E-3],"categories":[],"categories_nodes":[],"categories_segments":[],"categories_sizes":[],"default_left":[false,false,false,false,false,false,false,false,false,false,false,false,false,false,false,false,false,false,false,false,false,false,false,false,false],"id":41,"left_children":[1,3,5,7,9,11,-1,13,15,17,19,21,23,-1,-1,-1,-1,-1,-1,-1,-1,-1,-1,-1,-1],"loss_changes":[3.022953E0,3.115017E0,9.5799065E-1,9.3805647E-1,1.459177E0,3.5914898E-1,0E0,1.7560658E-1,1.5022564E-1,8.784542E-1,2.6170444E-1,6.367404E-3,7.983875E-2,0E0,0E0,0E0,0E0,0E0,0E0,0E0,0E0,0E0,0E0,0E0,0E0],"parents":[2147483647,0,0,1,1,2,2,3,3,4,4,5,5,7,7,8,8,9,9,10,10,11,11,12,12],"right_children":[2,4,6,8,10,12,-1,14,16,18,20,22,24,-1,-1,-1,-1,-1,-1,-1,-1,-1,-1,-1,-1],"split_conditions":[1.371652E2,6.998634E0,1.638318E2,5.663577E0,1.994E0,4.7043E0,1.8113848E-2,3.1616E0,1.022402E2,1.145797E2,1.213671E2,2.56244E1,1.81844E1,-1.7184217E-3,1.8464217E-3,9.161051E-4,5.4281256E-3,5.258477E-3,1.1875498E-2,2.8171034E-3,6.9966274E-3,8.8369845E-5,2.0657403E-3,1.0701291E-2,5.1671504E-3],"split_indices":[17,22,17,22,6,22,0,11,17,17,17,5,6,0,0,0,0,0,0,0,0,0,0,0,0],"split_type":[0,0,0,0,0,0,0,0,0,0,0,0,0,0,0,0,0,0,0,0,0,0,0,0,0],"sum_hessian":[2.83E2,2.18E2,6.5E1,1.18E2,1E2,5.6E1,9E0,3.6E1,8.2E1,6.9E1,3.1E1,3E0,5.3E1,5E0,3.1E1,4E0,7.8E1,1.5E1,5.4E1,1.8E1,1.3E1,1E0,2E0,4.6E1,7E0],"tree_param":{"num_deleted":"0","num_feature":"57","num_nodes":"25","size_leaf_vector":"0"}},{"base_weights":[3.7397298E-1,3.2518047E-1,6.1334354E-1,2.630184E-1,5.2114385E-1,5.1445585E-1,2.0346036E-2,1.6498712E-1,3.4682423E-1,3.5219684E-1,5.767261E-1,1.6070516E-3,5.2129084E-1,7.702901E-4,4.145068E-3,9.299628E-3,5.530218E-3,7.2896103E-3,8.739364E-4,1.1832502E-2,3.0109426E-3,2.8720861E-3,1.0672218E-2],"categories":[],"categories_nodes":[],"categories_segments":[],"categories_sizes":[],"default_left":[false,false,false,false,false,false,false,false,false,false,false,false,false,false,false,false,false,false,false,false,false,false,false],"id":42,"left_children":[1,3,5,7,9,11,-1,13,15,17,19,-1,21,-1,-1,-1,-1,-1,-1,-1,-1,-1,-1],"loss_changes":[2.9297562E0,2.6615982E0,7.908249E-1,1.4218731E0,1.1962223E-1,3.787613E-2,0E0,4.6513295E-1,5.653496E-1,4.0147543E-2,6.950188E-2,0E0,3.2868385E-2,0E0,0E0,0E0,0E0,0E0,0E0,0E0,0E0,0E0,0E0],"parents":[2147483647,0,0,1,1,2,2,3,3,4,4,5,5,7,7,8,8,9,9,10,10,12,12],"right_children":[2,4,6,8,10,12,-1,14,16,18,20,-1,22,-1,-1,-1,-1,-1,-1,-1,-1,-1,-1],"split_conditions":[1.461159E2,6.80434E1,3.6162E0,1.033467E1,1.16901E2,5.263717E0,2.0346036E-2,1.125873E2,5.24105E1,3.9009E1,1.3129489E1,1.6070516E-3,4.857584E0,7.702901E-4,4.145068E-3,9.299628E-3,5.530218E-3,7.2896103E-3,8.739364E-4,1.1832502E-2,3.0109426E-3,2.8720861E-3,1.0672218E-2],"split_indices":[17,0,43,21,17,37,0,17,46,47,29,0,22,0,0,0,0,0,0,0,0,0,0],"split_type":[0,0,0,0,0,0,0,0,0,0,0,0,0,0,0,0,0,0,0,0,0,0,0],"sum_hessian":[2.83E2,2.39E2,4.4E1,1.85E2,5.4E1,3.9E1,5E0,8.8E1,9.7E1,1.7E1,3.7E1,1E0,3.8E1,2.3E1,6.5E1,3.2E1,6.5E1,1.6E1,1E0,3.5E1,2E0,2E0,3.6E1],"tree_param":{"num_deleted":"0","num_feature":"57","num_nodes":"23","size_leaf_vector":"0"}},{"base_weights":[3.6704263E-1,2.9620835E-1,5.139345E-1,4.5363717E-2,3.240398E-1,5.432935E-1,7.7181675E-2,1.2001067E-1,-5.1103357E-2,4.1269433E-1,2.311862E-1,4.8700085E-1,1.9126464E-2,2.5783984E-3,-5.429256E-3,1.9681454E-4,2.765047E-3,-1.6428328E-3,3.7998485E-4,3.8781394E-3,8.976916E-3,3.8728076E-3,7.911992E-3,8.129932E-3,1.2503002E-2,9.442866E-5,-3.0688007E-4],"categories":[],"categories_nodes":[],"categories_segments":[],"categories_sizes":[],"default_left":[false,false,false,false,false,false,false,false,false,false,false,false,false,false,false,false,false,false,false,false,false,false,false,false,false,false,false],"id":43,"left_children":[1,3,5,7,9,11,13,15,17,19,21,23,-1,-1,25,-1,-1,-1,-1,-1,-1,-1,-1,-1,-1,-1,-1],"loss_changes":[2.6609573E0,1.3459301E0,1.0701714E0,1.706873E-1,1.2662258E0,1.0215855E0,3.559305E-2,2.3404896E-2,2.7055765E-2,5.21966E-1,4.0853834E-1,3.592415E-1,0E0,0E0,6.48099E-4,0E0,0E0,0E0,0E0,0E0,0E0,0E0,0E0,0E0,0E0,0E0,0E0],"parents":[2147483647,0,0,1,1,2,2,3,3,4,4,5,5,6,6,7,7,8,8,9,9,10,10,11,11,14,14],"right_children":[2,4,6,8,10,12,14,16,18,20,22,24,-1,-1,26,-1,-1,-1,-1,-1,-1,-1,-1,-1,-1,-1,-1],"split_conditions":[1.099087E1,8.713432E0,1.4605E-2,3.58E-3,3.589465E-2,1.289206E1,1.22233E1,1.178758E2,1.2284E0,4.6231583E-2,8.59503E1,7.163061E0,1.9126464E-2,2.5783984E-3,1.39944E1,1.9681454E-4,2.765047E-3,-1.6428328E-3,3.7998485E-4,3.8781394E-3,8.976916E-3,3.8728076E-3,7.911992E-3,8.129932E-3,1.2503002E-2,9.442866E-5,-3.0688007E-4],"split_indices":[21,21,14,14,40,21,0,51,1,23,0,22,0,0,0,0,0,0,0,0,0,0,0,0,0,0,0],"split_type":[0,0,0,0,0,0,0,0,0,0,0,0,0,0,0,0,0,0,0,0,0,0,0,0,0,0,0],"sum_hessian":[2.83E2,1.95E2,8.8E1,2E1,1.75E2,8.2E1,6E0,1.1E1,9E0,8.6E1,8.9E1,7.6E1,6E0,3E0,3E0,2E0,9E0,6E0,3E0,1.4E1,7.2E1,7.6E1,1.3E1,5.3E1,2.3E1,2E0,1E0],"tree_param":{"num_deleted":"0","num_feature":"57","num_nodes":"27","size_leaf_vector":"0"}},{"base_weights":[3.6018223E-1,3.0084628E-1,5.442649E-1,2.1970798E-1,4.7957382E-1,4.6465045E-1,1.7301861E-2,5.6940287E-2,2.6799166E-1,3.083609E-1,5.607921E-1,7.948966E-2,4.8276868E-1,-1.7467937E-3,1.681884E-3,3.6761113E-3,6.8402207E-3,6.501505E-3,-7.299864E-4,4.779638E-3,1.2001192E-2,1.9495293E-3,5.0282873E-5,1.0159608E-2,4.820486E-3],"categories":[],"categories_nodes":[],"categories_segments":[],"categories_sizes":[],"default_left":[false,false,false,false,false,false,false,false,false,false,false,false,false,false,false,false,false,false,false,false,false,false,false,false,false],"id":44,"left_children":[1,3,5,7,9,11,-1,13,15,17,19,21,23,-1,-1,-1,-1,-1,-1,-1,-1,-1,-1,-1,-1],"loss_changes":[2.7854958E0,2.9796295E0,9.074211E-1,1.1876292E0,5.85824E-1,3.2799911E-1,0E0,1.6356465E-1,6.1580944E-1,1.735971E-1,2.5657082E-1,6.432578E-3,9.034252E-2,0E0,0E0,0E0,0E0,0E0,0E0,0E0,0E0,0E0,0E0,0E0,0E0],"parents":[2147483647,0,0,1,1,2,2,3,3,4,4,5,5,7,7,8,8,9,9,10,10,11,11,12,12],"right_children":[2,4,6,8,10,12,-1,14,16,18,20,22,24,-1,-1,-1,-1,-1,-1,-1,-1,-1,-1,-1,-1],"split_conditions":[1.371652E2,9.3068E0,1.638318E2,5.663577E0,1.16901E2,4.7043E0,1.7301861E-2,3.1616E0,1.049835E1,1.1508E0,6.57389E0,1.22233E1,1.81844E1,-1.7467937E-3,1.681884E-3,3.6761113E-3,6.8402207E-3,6.501505E-3,-7.299864E-4,4.779638E-3,1.2001192E-2,1.9495293E-3,5.0282873E-5,1.0159608E-2,4.820486E-3],"split_indices":[17,2,17,22,17,22,0,11,21,1,22,0,6,0,0,0,0,0,0,0,0,0,0,0,0],"split_type":[0,0,0,0,0,0,0,0,0,0,0,0,0,0,0,0,0,0,0,0,0,0,0,0,0],"sum_hessian":[2.83E2,2.18E2,6.5E1,1.53E2,6.5E1,5.6E1,9E0,3.6E1,1.17E2,2.4E1,4.1E1,3E0,5.3E1,5E0,3.1E1,5.8E1,5.9E1,2.3E1,1E0,6E0,3.5E1,2E0,1E0,4.6E1,7E0],"tree_param":{"num_deleted":"0","num_feature":"57","num_nodes":"25","size_leaf_vector":"0"}},{"base_weights":[3.5345075E-1,3.018704E-1,5.449162E-1,1.4672199E-1,3.4806797E-1,4.678012E-1,8.608087E-1,2.0508076E-1,4.5156747E-2,3.8085112E-1,1.8971132E-1,4.735792E-1,1.1926802E-3,2.3441698E-2,6.289512E-3,4.804446E-3,-8.240563E-5,-1.1287325E-3,1.5929572E-3,3.00684E-3,8.317754E-3,2.6963025E-4,5.0415103E-3,9.569778E-3,1.5533511E-3],"categories":[],"categories_nodes":[],"categories_segments":[],"categories_sizes":[],"default_left":[false,false,false,false,false,false,false,false,false,false,false,false,false,false,false,false,false,false,false,false,false,false,false,false,false],"id":45,"left_children":[1,3,5,7,9,11,13,15,17,19,21,23,-1,-1,-1,-1,-1,-1,-1,-1,-1,-1,-1,-1,-1],"loss_changes":[2.48563E0,1.5392132E0,6.075077E-1,3.134029E-1,7.6399803E-1,6.379509E-2,7.9336023E-1,2.5928712E-1,8.9583695E-2,1.0298519E0,3.668779E-1,2.2865295E-2,0E0,0E0,0E0,0E0,0E0,0E0,0E0,0E0,0E0,0E0,0E0,0E0,0E0],"parents":[2147483647,0,0,1,1,2,2,3,3,4,4,5,5,6,6,7,7,8,8,9,9,10,10,11,11],"right_children":[2,4,6,8,10,12,14,16,18,20,22,24,-1,-1,-1,-1,-1,-1,-1,-1,-1,-1,-1,-1,-1],"split_conditions":[6.80434E1,4.452077E-2,6.928892E1,2.26248E1,5.622582E0,1E0,2.7506154E0,1.7744E2,2.564355E1,1.273683E0,4.845301E0,3.497E0,1.1926802E-3,2.3441698E-2,6.289512E-3,4.804446E-3,-8.240563E-5,-1.1287325E-3,1.5929572E-3,3.00684E-3,8.317754E-3,2.6963025E-4,5.0415103E-3,9.569778E-3,1.5533511E-3],"split_indices":[0,23,20,9,45,52,29,51,47,50,50,6,0,0,0,0,0,0,0,0,0,0,0,0,0],"split_type":[0,0,0,0,0,0,0,0,0,0,0,0,0,0,0,0,0,0,0,0,0,0,0,0,0],"sum_hessian":[2.83E2,2.27E2,5.6E1,5.4E1,1.73E2,4.9E1,7E0,3.3E1,2.1E1,1.41E2,3.2E1,4.8E1,1E0,3E0,4E0,2.8E1,5E0,5E0,1.6E1,2E1,1.21E2,9E0,2.3E1,4.7E1,1E0],"tree_param":{"num_deleted":"0","num_feature":"57","num_nodes":"25","size_leaf_vector":"0"}},{"base_weights":[3.4682995E-1,3.0054125E-1,5.7426304E-1,2.420412E-1,4.8515597E-1,4.7901708E-1,1.9361144E-2,1.5048896E-1,3.203808E-1,3.254717E-1,5.3807104E-1,3.2040174E-3,4.9575514E-1,6.2247214E-4,3.810721E-3,1.6856156E-3,6.842358E-3,7.08222E-4,6.753032E-3,1.1043396E-2,2.7724402E-3,2.6450383E-3,1.0172049E-2],"categories":[],"categories_nodes":[],"categories_segments":[],"categories_sizes":[],"default_left":[false,false,false,false,false,false,false,false,false,false,false,false,false,false,false,false,false,false,false,false,false,false,false],"id":46,"left_children":[1,3,5,7,9,11,-1,13,15,17,19,-1,21,-1,-1,-1,-1,-1,-1,-1,-1,-1,-1],"loss_changes":[2.6551857E0,2.367937E0,7.97904E-1,1.2447681E0,1.2292957E-1,5.995083E-2,0E0,4.183607E-1,4.504118E-1,4.3211937E-2,6.655216E-2,0E0,4.2934418E-2,0E0,0E0,0E0,0E0,0E0,0E0,0E0,0E0,0E0,0E0],"parents":[2147483647,0,0,1,1,2,2,3,3,4,4,5,5,7,7,8,8,9,9,10,10,12,12],"right_children":[2,4,6,8,10,12,-1,14,16,18,20,-1,22,-1,-1,-1,-1,-1,-1,-1,-1,-1,-1],"split_conditions":[1.461159E2,6.80434E1,3.6162E0,1.033467E1,1.16901E2,1.31E-1,1.9361144E-2,1.125873E2,5.011125E0,1.56E-2,1.3129489E1,3.2040174E-3,4.857584E0,6.2247214E-4,3.810721E-3,1.6856156E-3,6.842358E-3,7.08222E-4,6.753032E-3,1.1043396E-2,2.7724402E-3,2.6450383E-3,1.0172049E-2],"split_indices":[17,0,43,21,17,13,0,17,22,10,29,0,22,0,0,0,0,0,0,0,0,0,0],"split_type":[0,0,0,0,0,0,0,0,0,0,0,0,0,0,0,0,0,0,0,0,0,0,0],"sum_hessian":[2.83E2,2.39E2,4.4E1,1.85E2,5.4E1,3.9E1,5E0,8.8E1,9.7E1,1.7E1,3.7E1,3E0,3.6E1,2.3E1,6.5E1,9E0,8.8E1,1E0,1.6E1,3.5E1,2E0,2E0,3.4E1],"tree_param":{"num_deleted":"0","num_feature":"57","num_nodes":"23","size_leaf_vector":"0"}},{"base_weights":[3.4038192E-1,2.8339997E-1,5.173262E-1,1.7797348E-1,4.0187427E-1,4.4699934E-1,8.712105E-1,5.027178E-2,2.3150583E-1,4.7872344E-1,2.1217611E-1,7.250588E-2,4.6416548E-1,3.0105028E-3,1.8473297E-2,-1.7596172E-3,1.5310264E-3,4.903143E-3,8.105783E-4,4.6135983E-3,1.0738501E-2,2.3366767E-3,6.22018E-3,1.8252033E-3,-1.6741753E-5,9.769424E-3,4.5197154E-3],"categories":[],"categories_nodes":[],"categories_segments":[],"categories_sizes":[],"default_left":[false,false,false,false,false,false,false,false,false,false,false,false,false,false,false,false,false,false,false,false,false,false,false,false,false,false,false],"id":47,"left_children":[1,3,5,7,9,11,13,15,17,19,21,23,25,-1,-1,-1,-1,-1,-1,-1,-1,-1,-1,-1,-1,-1,-1],"loss_changes":[2.58033E0,2.604828E0,8.88607E-1,7.9706407E-1,1.283823E0,3.184061E-1,6.2158585E-2,1.5153232E-1,1.9912338E-1,7.772789E-1,2.382847E-1,7.030258E-3,1.09205246E-1,0E0,0E0,0E0,0E0,0E0,0E0,0E0,0E0,0E0,0E0,0E0,0E0,0E0,0E0],"parents":[2147483647,0,0,1,1,2,2,3,3,4,4,5,5,6,6,7,7,8,8,9,9,10,10,11,11,12,12],"right_children":[2,4,6,8,10,12,14,16,18,20,22,24,26,-1,-1,-1,-1,-1,-1,-1,-1,-1,-1,-1,-1,-1,-1],"split_conditions":[1.371652E2,6.998634E0,1.983378E1,5.663577E0,1.994E0,4.7043E0,2.8E-3,3.1616E0,1.486E0,1.145797E2,1.213671E2,1.195E0,1.81844E1,3.0105028E-3,1.8473297E-2,-1.7596172E-3,1.5310264E-3,4.903143E-3,8.105783E-4,4.6135983E-3,1.0738501E-2,2.3366767E-3,6.22018E-3,1.8252033E-3,-1.6741753E-5,9.769424E-3,4.5197154E-3],"split_indices":[17,22,35,22,6,22,3,11,1,17,17,1,6,0,0,0,0,0,0,0,0,0,0,0,0,0,0],"split_type":[0,0,0,0,0,0,0,0,0,0,0,0,0,0,0,0,0,0,0,0,0,0,0,0,0,0,0],"sum_hessian":[2.83E2,2.18E2,6.5E1,1.18E2,1E2,5.8E1,7E0,3.6E1,8.2E1,6.9E1,3.1E1,3E0,5.5E1,1E0,6E0,5E0,3.1E1,7.6E1,6E0,1.5E1,5.4E1,1.8E1,1.3E1,2E0,1E0,4.8E1,7E0],"tree_param":{"num_deleted":"0","num_feature":"57","num_nodes":"27","size_leaf_vector":"0"}},{"base_weights":[3.3404428E-1,2.891565E-1,5.5469364E-1,2.521542E-1,1.1514811E-2,4.5593572E-1,1.81962E-2,2.1090972E-1,4.139628E-1,2.3236263E-3,4.6770272E-1,1.0723523E-3,4.7949655E-3,2.2744823E-3,8.465771E-3,1.4619557E-3,9.488329E-3],"categories":[],"categories_nodes":[],"categories_segments":[],"categories_sizes":[],"default_left":[false,false,false,false,false,false,false,false,false,false,false,false,false,false,false,false,false],"id":48,"left_children":[1,3,5,7,-1,9,-1,11,13,-1,15,-1,-1,-1,-1,-1,-1],"loss_changes":[2.5019855E0,2.2652779E0,7.836151E-1,1.2735777E0,0E0,5.1239014E-2,0E0,7.771764E-1,2.1321297E-2,0E0,3.1315804E-2,0E0,0E0,0E0,0E0,0E0,0E0],"parents":[2147483647,0,0,1,1,2,2,3,3,5,5,7,7,8,8,10,10],"right_children":[2,4,6,8,-1,10,-1,12,14,-1,16,-1,-1,-1,-1,-1,-1],"split_conditions":[1.461159E2,7.196855E0,1.983378E1,8.59503E1,1.1514811E-2,1.082E-1,1.81962E-2,1.114904E2,5.864494E-2,2.3236263E-3,3E0,1.0723523E-3,4.7949655E-3,2.2744823E-3,8.465771E-3,1.4619557E-3,9.488329E-3],"split_indices":[17,22,35,0,0,13,0,17,19,0,25,0,0,0,0,0,0],"split_type":[0,0,0,0,0,0,0,0,0,0,0,0,0,0,0,0,0],"sum_hessian":[2.83E2,2.39E2,4.4E1,2.15E2,2.4E1,3.8E1,6E0,1.75E2,4E1,2E0,3.6E1,2.8E1,1.47E2,2E0,3.8E1,1E0,3.5E1],"tree_param":{"num_deleted":"0","num_feature":"57","num_nodes":"17","size_leaf_vector":"0"}},{"base_weights":[3.277816E-1,2.7245802E-1,4.9965665E-1,1.9721256E-1,4.3840018E-1,4.3106538E-1,8.458969E-1,1.12771854E-1,2.6963487E-1,2.7372277E-1,5.120396E-1,4.4393486E-1,2.8925374E-2,2.958466E-3,1.7923256E-2,-6.1000016E-4,2.7150428E-3,7.837057E-3,4.1109943E-3,5.8001042E-3,-7.8036985E-4,1.0511251E-2,2.280574E-3,2.4441718E-3,9.02121E-3,8.199397E-4,-4.8596463E-5],"categories":[],"categories_nodes":[],"categories_segments":[],"categories_sizes":[],"default_left":[false,false,false,false,false,false,false,false,false,false,false,false,false,false,false,false,false,false,false,false,false,false,false,false,false,false,false],"id":49,"left_children":[1,3,5,7,9,11,13,15,17,19,21,23,25,-1,-1,-1,-1,-1,-1,-1,-1,-1,-1,-1,-1,-1,-1],"loss_changes":[2.4377193E0,2.574089E0,8.619137E-1,8.8707066E-1,5.321789E-1,2.8483772E-1,5.0631523E-2,2.5521296E-1,4.8116302E-1,1.4993584E-1,1.1696243E-1,2.271843E-2,1.7132619E-3,0E0,0E0,0E0,0E0,0E0,0E0,0E0,0E0,0E0,0E0,0E0,0E0,0E0,0E0],"parents":[2147483647,0,0,1,1,2,2,3,3,4,4,5,5,6,6,7,7,8,8,9,9,10,10,11,11,12,12],"right_children":[2,4,6,8,10,12,14,16,18,20,22,24,26,-1,-1,-1,-1,-1,-1,-1,-1,-1,-1,-1,-1,-1,-1],"split_conditions":[1.371652E2,9.3068E0,1.983378E1,1.023223E1,1.161862E2,1.3516E0,2.8E-3,1.019073E2,5.24105E1,1.1508E0,5.985278E1,1.1E-1,1.195E0,2.958466E-3,1.7923256E-2,-6.1000016E-4,2.7150428E-3,7.837057E-3,4.1109943E-3,5.8001042E-3,-7.8036985E-4,1.0511251E-2,2.280574E-3,2.4441718E-3,9.02121E-3,8.199397E-4,-4.8596463E-5],"split_indices":[17,2,35,21,17,12,3,17,46,1,46,8,1,0,0,0,0,0,0,0,0,0,0,0,0,0,0],"split_type":[0,0,0,0,0,0,0,0,0,0,0,0,0,0,0,0,0,0,0,0,0,0,0,0,0,0,0],"sum_hessian":[2.83E2,2.18E2,6.5E1,1.53E2,6.5E1,5.8E1,7E0,7.3E1,8E1,2.3E1,4.2E1,5.6E1,2E0,1E0,6E0,1E1,6.3E1,2.4E1,5.6E1,2.2E1,1E0,4E1,2E0,2E0,5.4E1,1E0,1E0],"tree_param":{"num_deleted":"0","num_feature":"57","num_nodes":"27","size_leaf_vector":"0"}},{"base_weights":[3.21682E-1,2.5748676E-1,4.550497E-1,3.3431586E-2,2.82426E-1,4.8172686E-1,6.1177097E-2,1.0266364E-1,-5.4466587E-2,2.1386921E-1,3.620567E-1,4.2964393E-1,1.7382076E-2,2.2594032E-3,-1.5086805E-2,2.5875764E-3,1.6335654E-4,-1.6543898E-3,2.50494E-4,3.3837198E-3,7.51367E-3,3.2120054E-3,8.085086E-3,7.075668E-3,1.1243312E-2,-6.448835E-5,-4.1690902E-4],"categories":[],"categories_nodes":[],"categories_segments":[],"categories_sizes":[],"default_left":[false,false,false,false,false,false,false,false,false,false,false,false,false,false,false,false,false,false,false,false,false,false,false,false,false,false,false],"id":50,"left_children":[1,3,5,7,9,11,13,15,17,19,21,23,-1,-1,25,-1,-1,-1,-1,-1,-1,-1,-1,-1,-1,-1,-1],"loss_changes":[2.2057076E0,1.0819044E0,8.867264E-1,1.4506163E-1,8.114176E-1,9.4795036E-1,3.500825E-2,3.0704647E-2,2.289176E-2,5.959172E-1,5.417309E-1,3.8637733E-1,0E0,0E0,2.0712765E-4,0E0,0E0,0E0,0E0,0E0,0E0,0E0,0E0,0E0,0E0,0E0,0E0],"parents":[2147483647,0,0,1,1,2,2,3,3,4,4,5,5,6,6,7,7,8,8,9,9,10,10,11,11,14,14],"right_children":[2,4,6,8,10,12,14,16,18,20,22,24,-1,-1,26,-1,-1,-1,-1,-1,-1,-1,-1,-1,-1,-1,-1],"split_conditions":[1.099087E1,8.713432E0,1.4605E-2,3.58E-3,1.420932E0,1.289206E1,1.22233E1,2.742976E0,5.377483E1,1.51888E1,2.976368E0,7.163061E0,1.7382076E-2,2.2594032E-3,1.39944E1,2.5875764E-3,1.6335654E-4,-1.6543898E-3,2.50494E-4,3.3837198E-3,7.51367E-3,3.2120054E-3,8.085086E-3,7.075668E-3,1.1243312E-2,-6.448835E-5,-4.1690902E-4],"split_indices":[21,21,14,14,44,21,0,29,38,2,45,22,0,0,0,0,0,0,0,0,0,0,0,0,0,0,0],"split_type":[0,0,0,0,0,0,0,0,0,0,0,0,0,0,0,0,0,0,0,0,0,0,0,0,0,0,0],"sum_hessian":[2.83E2,1.95E2,8.8E1,2E1,1.75E2,8.2E1,6E0,1.1E1,9E0,9.8E1,7.7E1,7.6E1,6E0,3E0,3E0,8E0,3E0,6E0,3E0,8E1,1.8E1,1.5E1,6.2E1,5.3E1,2.3E1,2E0,1E0],"tree_param":{"num_deleted":"0","num_feature":"57","num_nodes":"27","size_leaf_vector":"0"}},{"base_weights":[3.1567657E-1,2.619494E-1,4.8267096E-1,1.6257635E-1,3.7372258E-1,4.1564086E-1,8.2227814E-1,4.0914085E-2,2.1374317E-1,4.466168E-1,1.942398E-1,6.4150885E-2,4.318894E-1,2.8848425E-3,1.7419443E-2,1.7029739E-3,-4.7492306E-4,-1.2046057E-3,4.3699075E-3,4.256343E-3,1.0032821E-2,2.0638101E-3,5.794804E-3,1.639654E-3,-4.784266E-5,9.10845E-3,4.1034906E-3],"categories":[],"categories_nodes":[],"categories_segments":[],"categories_sizes":[],"default_left":[false,false,false,false,false,false,false,false,false,false,false,false,false,false,false,false,false,false,false,false,false,false,false,false,false,false,false],"id":51,"left_children":[1,3,5,7,9,11,13,15,17,19,21,23,25,-1,-1,-1,-1,-1,-1,-1,-1,-1,-1,-1,-1,-1,-1],"loss_changes":[2.3041897E0,2.3220768E0,8.416376E-1,7.295184E-1,1.1609907E0,2.8726006E-1,4.5885086E-2,1.1273228E-1,1.356864E-1,6.998749E-1,2.2714615E-1,6.3251425E-3,1.1722946E-1,0E0,0E0,0E0,0E0,0E0,0E0,0E0,0E0,0E0,0E0,0E0,0E0,0E0,0E0],"parents":[2147483647,0,0,1,1,2,2,3,3,4,4,5,5,6,6,7,7,8,8,9,9,10,10,11,11,12,12],"right_children":[2,4,6,8,10,12,14,16,18,20,22,24,26,-1,-1,-1,-1,-1,-1,-1,-1,-1,-1,-1,-1,-1,-1],"split_conditions":[1.371652E2,6.998634E0,1.983378E1,5.663577E0,1.994E0,4.7043E0,2.0917E0,3.58E-3,8.713432E0,1.145797E2,1.213671E2,1.22233E1,1.81844E1,2.8848425E-3,1.7419443E-2,1.7029739E-3,-4.7492306E-4,-1.2046057E-3,4.3699075E-3,4.256343E-3,1.0032821E-2,2.0638101E-3,5.794804E-3,1.639654E-3,-4.784266E-5,9.10845E-3,4.1034906E-3],"split_indices":[17,22,35,22,6,22,0,14,21,17,17,0,6,0,0,0,0,0,0,0,0,0,0,0,0,0,0],"split_type":[0,0,0,0,0,0,0,0,0,0,0,0,0,0,0,0,0,0,0,0,0,0,0,0,0,0,0],"sum_hessian":[2.83E2,2.18E2,6.5E1,1.18E2,1E2,5.8E1,7E0,3.6E1,8.2E1,6.9E1,3.1E1,3E0,5.5E1,1E0,6E0,2.1E1,1.5E1,1E0,8.1E1,1.5E1,5.4E1,1.8E1,1.3E1,2E0,1E0,4.8E1,7E0],"tree_param":{"num_deleted":"0","num_feature":"57","num_nodes":"27","size_leaf_vector":"0"}},{"base_weights":[3.0979568E-1,2.8928918E-1,1.5359911E-2,2.402508E-1,4.19074E-1,1.849466E-1,3.9585942E-1,2.584696E-1,4.8261324E-1,2.0953133E-3,5.0754384E-3,8.189418E-3,5.557173E-4,5.4881405E-3,-8.268583E-4,9.972805E-3,2.7782777E-3],"categories":[],"categories_nodes":[],"categories_segments":[],"categories_sizes":[],"default_left":[false,false,false,false,false,false,false,false,false,false,false,false,false,false,false,false,false],"id":52,"left_children":[1,3,-1,5,7,9,11,13,15,-1,-1,-1,-1,-1,-1,-1,-1],"loss_changes":[2.2335339E0,1.5552197E0,0E0,1.6177654E0,4.9545956E-1,8.021908E-1,2.3776627E-1,1.4214563E-1,1.3688755E-1,0E0,0E0,0E0,0E0,0E0,0E0,0E0,0E0],"parents":[2147483647,0,0,1,1,3,3,4,4,5,5,6,6,7,7,8,8],"right_children":[2,4,-1,6,8,10,12,14,16,-1,-1,-1,-1,-1,-1,-1,-1],"split_conditions":[1.638318E2,9.3068E0,1.5359911E-2,1.371652E2,1.161862E2,1.023223E1,1.3516E0,1.1508E0,1.35262E1,2.0953133E-3,5.0754384E-3,8.189418E-3,5.557173E-4,5.4881405E-3,-8.268583E-4,9.972805E-3,2.7782777E-3],"split_indices":[17,2,0,17,17,21,12,1,5,0,0,0,0,0,0,0,0],"split_type":[0,0,0,0,0,0,0,0,0,0,0,0,0,0,0,0,0],"sum_hessian":[2.83E2,2.74E2,9E0,2.03E2,7.1E1,1.53E2,5E1,2.3E1,4.8E1,7.3E1,8E1,4.8E1,2E0,2.2E1,1E0,4.5E1,3E0],"tree_param":{"num_deleted":"0","num_feature":"57","num_nodes":"17","size_leaf_vector":"0"}},{"base_weights":[3.0394143E-1,2.837449E-1,7.5542843E-1,1.23126246E-1,3.1819037E-1,4.564312E-3,1.6437445E-2,1.8028226E-1,-1.5757577E-2,4.5265335E-1,2.440271E-1,4.9688364E-3,1.4173219E-3,-8.9199905E-4,2.0056025E-3,9.22001E-3,1.354618E-3,3.323218E-3,7.526035E-3],"categories":[],"categories_nodes":[],"categories_segments":[],"categories_sizes":[],"default_left":[false,false,false,false,false,false,false,false,false,false,false,false,false,false,false,false,false,false,false],"id":53,"left_children":[1,3,5,7,9,-1,-1,11,13,15,17,-1,-1,-1,-1,-1,-1,-1,-1],"loss_changes":[2.170065E0,1.4486408E0,1.0202408E-2,4.1845995E-1,2.0328007E0,0E0,0E0,2.4072492E-1,6.584063E-2,1.8816662E-1,1.4199057E0,0E0,0E0,0E0,0E0,0E0,0E0,0E0,0E0],"parents":[2147483647,0,0,1,1,2,2,3,3,4,4,7,7,8,8,9,9,10,10],"right_children":[2,4,6,8,10,-1,-1,12,14,16,18,-1,-1,-1,-1,-1,-1,-1,-1],"split_conditions":[1.638318E2,1.143265E2,1.2514485E0,3.2588E0,4.6758E0,4.564312E-3,1.6437445E-2,2.742204E1,5E-1,4.2782426E0,1.371652E2,4.9688364E-3,1.4173219E-3,-8.9199905E-4,2.0056025E-3,9.22001E-3,1.354618E-3,3.323218E-3,7.526035E-3],"split_indices":[17,17,16,7,5,0,0,47,49,34,17,0,0,0,0,0,0,0,0],"split_type":[0,0,0,0,0,0,0,0,0,0,0,0,0,0,0,0,0,0,0],"sum_hessian":[2.83E2,2.74E2,9E0,5E1,2.24E2,2E0,7E0,3.5E1,1.5E1,7.6E1,1.48E2,2E1,1.5E1,1.3E1,2E0,7.4E1,2E0,9.6E1,5.2E1],"tree_param":{"num_deleted":"0","num_feature":"57","num_nodes":"19","size_leaf_vector":"0"}},{"base_weights":[2.9821295E-1,2.5428867E-1,4.7669315E-1,1.7795488E-2,2.727368E-1,4.117257E-1,1.7183818E-2,5.806392E-2,-1.356516E-3,1.8913879E-1,3.377009E-1,4.3550667E-1,1.7799881E-1,1.9991254E-3,4.2631445E-4,5.2465783E-3,2.1383858E-3,2.4190086E-3,7.5809085E-3,8.931773E-3,2.0278536E-3,4.91722E-4,3.8578063E-3],"categories":[],"categories_nodes":[],"categories_segments":[],"categories_sizes":[],"default_left":[false,false,false,false,false,false,false,false,false,false,false,false,false,false,false,false,false,false,false,false,false,false,false],"id":54,"left_children":[1,3,5,7,9,11,-1,13,-1,15,17,19,21,-1,-1,-1,-1,-1,-1,-1,-1,-1,-1],"loss_changes":[1.9918537E0,1.0068378E0,6.3439274E-1,7.338533E-2,1.0453243E0,1.22873306E-1,0E0,1.7291274E-2,0E0,5.396521E-1,9.7472095E-1,7.235432E-2,8.791536E-3,0E0,0E0,0E0,0E0,0E0,0E0,0E0,0E0,0E0,0E0],"parents":[2147483647,0,0,1,1,2,2,3,3,4,4,5,5,7,7,9,9,10,10,11,11,12,12],"right_children":[2,4,6,8,10,12,-1,14,-1,16,18,20,22,-1,-1,-1,-1,-1,-1,-1,-1,-1,-1],"split_conditions":[1.51888E1,4.637276E0,2.826E-1,8.9182E0,1.3036E0,3.95358E1,1.7183818E-2,1.3294216E0,-1.356516E-3,3.274207E1,1.400651E0,5.985278E1,2.064696E2,1.9991254E-3,4.2631445E-4,5.2465783E-3,2.1383858E-3,2.4190086E-3,7.5809085E-3,8.931773E-3,2.0278536E-3,4.91722E-4,3.8578063E-3],"split_indices":[2,22,12,7,10,2,0,34,0,47,50,46,0,0,0,0,0,0,0,0,0,0,0],"split_type":[0,0,0,0,0,0,0,0,0,0,0,0,0,0,0,0,0,0,0,0,0,0,0],"sum_hessian":[2.83E2,2.31E2,5.2E1,1.7E1,2.14E2,4.8E1,4E0,1.2E1,5E0,9.7E1,1.17E2,4.2E1,6E0,4E0,8E0,4.9E1,4.8E1,2E1,9.7E1,4E1,2E0,1E0,5E0],"tree_param":{"num_deleted":"0","num_feature":"57","num_nodes":"23","size_leaf_vector":"0"}},{"base_weights":[2.9260623E-1,2.7278993E-1,7.366143E-1,2.2613679E-1,3.9632845E-1,4.4428604E-3,1.6031522E-2,1.7329039E-1,3.7496215E-1,2.4547331E-1,4.6019736E-1,1.9376212E-3,4.779007E-3,7.7621904E-3,4.6277285E-4,5.171057E-3,-5.434318E-4,9.779728E-3,4.471644E-3],"categories":[],"categories_nodes":[],"categories_segments":[],"categories_sizes":[],"default_left":[false,false,false,false,false,false,false,false,false,false,false,false,false,false,false,false,false,false,false],"id":55,"left_children":[1,3,5,7,9,-1,-1,11,13,15,17,-1,-1,-1,-1,-1,-1,-1,-1],"loss_changes":[2.1057186E0,1.4114666E0,1.1502266E-2,1.4823465E0,4.774189E-1,0E0,0E0,7.313409E-1,2.2256851E-1,1.0676837E-1,1.1512756E-1,0E0,0E0,0E0,0E0,0E0,0E0,0E0,0E0],"parents":[2147483647,0,0,1,1,2,2,3,3,4,4,7,7,8,8,9,9,10,10],"right_children":[2,4,6,8,10,-1,-1,12,14,16,18,-1,-1,-1,-1,-1,-1,-1,-1],"split_conditions":[1.638318E2,9.3068E0,1.258451E1,1.371652E2,1.16901E2,4.4428604E-3,1.6031522E-2,1.023223E1,1.3516E0,3.768E0,1.4666675E0,1.9376212E-3,4.779007E-3,7.7621904E-3,4.6277285E-4,5.171057E-3,-5.434318E-4,9.779728E-3,4.471644E-3],"split_indices":[17,2,21,17,17,0,0,21,12,7,44,0,0,0,0,0,0,0,0],"split_type":[0,0,0,0,0,0,0,0,0,0,0,0,0,0,0,0,0,0,0],"sum_hessian":[2.83E2,2.74E2,9E0,2.03E2,7.1E1,2E0,7E0,1.53E2,5E1,2.4E1,4.7E1,7.3E1,8E1,4.8E1,2E0,2.3E1,1E0,4E1,7E0],"tree_param":{"num_deleted":"0","num_feature":"57","num_nodes":"19","size_leaf_vector":"0"}},{"base_weights":[2.8713512E-1,2.4453442E-1,4.6031466E-1,1.1463485E-1,2.8433728E-1,3.692762E-1,7.4905115E-1,2.0759243E-1,6.5965004E-2,1.6708283E-2,2.9847565E-1,3.8565534E-1,1.3426009E-1,4.7219372E-3,9.747117E-1,3.2421754E-4,4.829002E-3,2.0522543E-3,3.4447253E-4,-1.444684E-3,1.3624053E-3,7.063115E-3,3.9226157E-3,7.829809E-3,1.0149988E-3,2.94986E-3,4.5397002E-4,3.3990731E-3,2.1043736E-2],"categories":[],"categories_nodes":[],"categories_segments":[],"categories_sizes":[],"default_left":[false,false,false,false,false,false,false,false,false,false,false,false,false,false,false,false,false,false,false,false,false,false,false,false,false,false,false,false,false],"id":56,"left_children":[1,3,5,7,9,11,13,15,17,19,21,23,25,-1,27,-1,-1,-1,-1,-1,-1,-1,-1,-1,-1,-1,-1,-1,-1],"loss_changes":[1.8774834E0,1.1395073E0,8.662367E-1,2.3501772E-1,6.5976524E-1,6.9664955E-2,8.1303596E-1,1.1528677E-1,6.9701925E-2,6.0141023E-2,8.016367E-1,4.0386677E-2,2.1619722E-3,0E0,7.8794956E-2,0E0,0E0,0E0,0E0,0E0,0E0,0E0,0E0,0E0,0E0,0E0,0E0,0E0,0E0],"parents":[2147483647,0,0,1,1,2,2,3,3,4,4,5,5,6,6,7,7,8,8,9,9,10,10,11,11,12,12,14,14],"right_children":[2,4,6,8,10,12,14,16,18,20,22,24,26,-1,28,-1,-1,-1,-1,-1,-1,-1,-1,-1,-1,-1,-1,-1,-1],"split_conditions":[1.51888E1,4.452077E-2,1.100969E1,1.3965E0,4.637276E0,3.920687E1,6.85E-4,1.35401E0,2.26248E1,4.9E-1,3.589465E-2,3.497E0,1.51E-1,4.7219372E-3,2.7E-2,3.2421754E-4,4.829002E-3,2.0522543E-3,3.4447253E-4,-1.444684E-3,1.3624053E-3,7.063115E-3,3.9226157E-3,7.829809E-3,1.0149988E-3,2.94986E-3,4.5397002E-4,3.3990731E-3,2.1043736E-2],"split_indices":[2,23,21,44,22,47,14,44,9,6,40,6,4,0,7,0,0,0,0,0,0,0,0,0,0,0,0,0,0],"split_type":[0,0,0,0,0,0,0,0,0,0,0,0,0,0,0,0,0,0,0,0,0,0,0,0,0,0,0,0,0],"sum_hessian":[2.83E2,2.31E2,5.2E1,5.6E1,1.75E2,4.3E1,9E0,1.7E1,3.9E1,9E0,1.66E2,3.9E1,4E0,4E0,5E0,3E0,1.4E1,2.1E1,1.8E1,3E0,6E0,1.05E2,6.1E1,3.8E1,1E0,3E0,1E0,1E0,4E0],"tree_param":{"num_deleted":"0","num_feature":"57","num_nodes":"29","size_leaf_vector":"0"}},{"base_weights":[2.8181255E-1,2.624147E-1,7.172838E-1,2.321704E-1,4.785167E-1,4.3278006E-3,1.5610137E-2,1.9257247E-1,3.5964292E-1,3.0344734E-3,5.018592E-1,5.607788E-4,4.6036453E-3,2.3160987E-3,7.685425E-3,1.7824165E-3,1.0204681E-2],"categories":[],"categories_nodes":[],"categories_segments":[],"categories_sizes":[],"default_left":[false,false,false,false,false,false,false,false,false,false,false,false,false,false,false,false,false],"id":57,"left_children":[1,3,5,7,9,-1,-1,11,13,-1,15,-1,-1,-1,-1,-1,-1],"loss_changes":[2.031002E0,1.5817013E0,1.0560989E-2,1.1032057E0,9.1813564E-2,0E0,0E0,1.1752024E0,2.4729776E-1,0E0,9.297371E-3,0E0,0E0,0E0,0E0,0E0,0E0],"parents":[2147483647,0,0,1,1,2,2,3,3,4,4,7,7,8,8,10,10],"right_children":[2,4,6,8,10,-1,-1,12,14,-1,16,-1,-1,-1,-1,-1,-1],"split_conditions":[1.638318E2,7.164636E0,1.258451E1,1.371652E2,1.081215E1,4.3278006E-3,1.5610137E-2,5.663577E0,4.986139E0,3.0344734E-3,3.34E0,5.607788E-4,4.6036453E-3,2.3160987E-3,7.685425E-3,1.7824165E-3,1.0204681E-2],"split_indices":[17,22,21,17,21,0,0,22,22,0,2,0,0,0,0,0,0],"split_type":[0,0,0,0,0,0,0,0,0,0,0,0,0,0,0,0,0],"sum_hessian":[2.83E2,2.74E2,9E0,2.44E2,3E1,2E0,7E0,1.9E2,5.4E1,3E0,2.7E1,3.6E1,1.54E2,6E0,4.8E1,1E0,2.6E1],"tree_param":{"num_deleted":"0","num_feature":"57","num_nodes":"17","size_leaf_vector":"0"}},{"base_weights":[2.7652806E-1,2.3470274E-1,4.4675484E-1,1.4122866E-1,2.884684E-1,3.5727802E-1,7.3156834E-1,1.1438044E-1,7.089234E-3,1.9203767E-2,3.0379963E-1,3.852907E-1,1.8217543E-1,4.5789266E-3,9.5336765E-1,3.2025517E-3,1.1145918E-3,-1.4340772E-3,1.5730199E-3,7.2480896E-3,3.984282E-3,7.825002E-3,1.1383486E-3,3.9082584E-3,4.2025285E-4,2.0591054E-2,3.308382E-3],"categories":[],"categories_nodes":[],"categories_segments":[],"categories_sizes":[],"default_left":[false,false,false,false,false,false,false,false,false,false,false,false,false,false,false,false,false,false,false,false,false,false,false,false,false,false,false],"id":58,"left_children":[1,3,5,7,9,11,13,15,-1,17,19,21,23,-1,25,-1,-1,-1,-1,-1,-1,-1,-1,-1,-1,-1,-1],"loss_changes":[1.8194332E0,1.0895071E0,8.5340023E-1,4.2843175E-1,5.910435E-1,8.0348015E-2,7.8975296E-1,2.0216727E-1,0E0,6.532122E-2,7.014408E-1,2.7867794E-2,1.3121635E-2,0E0,7.9594135E-2,0E0,0E0,0E0,0E0,0E0,0E0,0E0,0E0,0E0,0E0,0E0,0E0],"parents":[2147483647,0,0,1,1,2,2,3,3,4,4,5,5,6,6,7,7,9,9,10,10,11,11,12,12,14,14],"right_children":[2,4,6,8,10,12,14,16,-1,18,20,22,24,-1,26,-1,-1,-1,-1,-1,-1,-1,-1,-1,-1,-1,-1],"split_conditions":[1.51888E1,5.517163E-2,1.100969E1,7.133747E0,4.637276E0,2.00214E2,6.85E-4,5.764E-1,7.089234E-3,1.51368E1,3.589465E-2,1.521297E0,1.34E-1,4.5789266E-3,2.82816E1,3.2025517E-3,1.1145918E-3,-1.4340772E-3,1.5730199E-3,7.2480896E-3,3.984282E-3,7.825002E-3,1.1383486E-3,3.9082584E-3,4.2025285E-4,2.0591054E-2,3.308382E-3],"split_indices":[2,23,21,22,22,51,14,1,0,5,40,41,4,0,9,0,0,0,0,0,0,0,0,0,0,0,0],"split_type":[0,0,0,0,0,0,0,0,0,0,0,0,0,0,0,0,0,0,0,0,0,0,0,0,0,0,0],"sum_hessian":[2.83E2,2.31E2,5.2E1,8.7E1,1.44E2,4.3E1,9E0,8E1,7E0,8E0,1.36E2,3.5E1,8E0,4E0,5E0,4.3E1,3.7E1,3E0,5E0,8.4E1,5.2E1,3.4E1,1E0,7E0,1E0,4E0,1E0],"tree_param":{"num_deleted":"0","num_feature":"57","num_nodes":"27","size_leaf_vector":"0"}},{"base_weights":[2.7145046E-1,2.2843336E-1,4.3193355E-1,1.3559742E-1,2.8034386E-1,1.713186E-2,3.8617453E-1,