{"learner":{"attributes":{"best_iteration":"999","best_ntree_limit":"1000","scikit_learn":"{\"n_estimators\": 1000, \"objective\": \"reg:squarederror\", \"max_depth\": 4, \"learning_rate\": 0.1, \"verbosity\": 1, \"booster\": null, \"tree_method\": \"hist\", \"gamma\": 0, \"min_child_weight\": null, \"max_delta_step\": null, \"subsample\": null, \"colsample_bytree\": 1, \"colsample_bylevel\": null, \"colsample_bynode\": null, \"reg_alpha\": null, \"reg_lambda\": 1, \"scale_pos_weight\": null, \"base_score\": null, \"missing\": NaN, \"num_parallel_tree\": null, \"random_state\": null, \"n_jobs\": null, \"monotone_constraints\": null, \"interaction_constraints\": null, \"importance_type\": null, \"gpu_id\": null, \"validate_parameters\": null, \"predictor\": null, \"enable_categorical\": false, \"kwargs\": {\"sampling_method\": \"uniform\"}, \"_estimator_type\": \"regressor\"}"},"feature_names":["TS_Housing_HDEN","TS_NLCD_11","TS_NLCD_12","TS_NLCD_21","TS_NLCD_22","TS_NLCD_23","TS_NLCD_24","TS_NLCD_31","TS_NLCD_41","TS_NLCD_42","TS_NLCD_43","TS_NLCD_52","TS_NLCD_71","TS_NLCD_81","TS_NLCD_82","TS_NLCD_90","TS_NLCD_95","TS_NLCD_AG_SUM","TS_NLCD_DEV_SUM","TS_NLCD_imperv","TS_Population_PDEN","TS_WaterUse_wu","TS_ag_hcrop","TS_ag_irrig","DRAIN_SQKM","BAS_COMPACTNESS","PPTAVG_BASIN","T_AVG_BASIN","T_MAX_BASIN","T_MAXSTD_BASIN","T_MIN_BASIN","T_MINSTD_BASIN","RH_BASIN","FST32F_BASIN","LST32F_BASIN","WD_BASIN","WDMAX_BASIN","WDMIN_BASIN","PET","SNOW_PCT_PRECIP","PRECIP_SEAS_IND","STREAMS_KM_SQ_KM","STRAHLER_MAX","TOPWET","PCT_NO_ORDER","NDAMS_2009","DDENS_2009","STOR_NID_2009","CANALS_PCT","MINING92_PCT","POWER_SUM_MW","FRAGUN_BASIN","HIRES_LENTIC_DENS","HGA","HGB","HGAD","HGC","HGD","HGAC","HGBD","HGCD","HGBC","HGVAR","AWCAVE","PERMAVE","BDAVE","WTDEPAVE","ROCKDEPAVE","CLAYAVE","SILTAVE","SANDAVE","ELEV_MEAN_M_BASIN","RRMEDIAN","SLOPE_PCT","ASPECT_DEGREES","GEOL_REEDBUSH_DOM_gneiss","GEOL_REEDBUSH_DOM_granitic","GEOL_REEDBUSH_DOM_quarternary","GEOL_REEDBUSH_DOM_sedimentary","GEOL_REEDBUSH_DOM_ultramafic","GEOL_REEDBUSH_DOM_volcanic"],"feature_types":["float","float","float","float","float","float","float","float","float","float","float","float","float","float","float","float","float","float","float","float","float","float","float","float","float","float","float","float","float","float","float","float","float","float","float","float","float","float","float","float","float","float","float","float","float","float","float","float","float","float","float","float","float","float","float","float","float","float","float","float","float","float","float","float","float","float","float","float","float","float","float","float","float","float","float","float","float","float","float","float","float"],"gradient_booster":{"model":{"gbtree_model_param":{"num_trees":"1000","size_leaf_vector":"0"},"tree_info":[0,0,0,0,0,0,0,0,0,0,0,0,0,0,0,0,0,0,0,0,0,0,0,0,0,0,0,0,0,0,0,0,0,0,0,0,0,0,0,0,0,0,0,0,0,0,0,0,0,0,0,0,0,0,0,0,0,0,0,0,0,0,0,0,0,0,0,0,0,0,0,0,0,0,0,0,0,0,0,0,0,0,0,0,0,0,0,0,0,0,0,0,0,0,0,0,0,0,0,0,0,0,0,0,0,0,0,0,0,0,0,0,0,0,0,0,0,0,0,0,0,0,0,0,0,0,0,0,0,0,0,0,0,0,0,0,0,0,0,0,0,0,0,0,0,0,0,0,0,0,0,0,0,0,0,0,0,0,0,0,0,0,0,0,0,0,0,0,0,0,0,0,0,0,0,0,0,0,0,0,0,0,0,0,0,0,0,0,0,0,0,0,0,0,0,0,0,0,0,0,0,0,0,0,0,0,0,0,0,0,0,0,0,0,0,0,0,0,0,0,0,0,0,0,0,0,0,0,0,0,0,0,0,0,0,0,0,0,0,0,0,0,0,0,0,0,0,0,0,0,0,0,0,0,0,0,0,0,0,0,0,0,0,0,0,0,0,0,0,0,0,0,0,0,0,0,0,0,0,0,0,0,0,0,0,0,0,0,0,0,0,0,0,0,0,0,0,0,0,0,0,0,0,0,0,0,0,0,0,0,0,0,0,0,0,0,0,0,0,0,0,0,0,0,0,0,0,0,0,0,0,0,0,0,0,0,0,0,0,0,0,0,0,0,0,0,0,0,0,0,0,0,0,0,0,0,0,0,0,0,0,0,0,0,0,0,0,0,0,0,0,0,0,0,0,0,0,0,0,0,0,0,0,0,0,0,0,0,0,0,0,0,0,0,0,0,0,0,0,0,0,0,0,0,0,0,0,0,0,0,0,0,0,0,0,0,0,0,0,0,0,0,0,0,0,0,0,0,0,0,0,0,0,0,0,0,0,0,0,0,0,0,0,0,0,0,0,0,0,0,0,0,0,0,0,0,0,0,0,0,0,0,0,0,0,0,0,0,0,0,0,0,0,0,0,0,0,0,0,0,0,0,0,0,0,0,0,0,0,0,0,0,0,0,0,0,0,0,0,0,0,0,0,0,0,0,0,0,0,0,0,0,0,0,0,0,0,0,0,0,0,0,0,0,0,0,0,0,0,0,0,0,0,0,0,0,0,0,0,0,0,0,0,0,0,0,0,0,0,0,0,0,0,0,0,0,0,0,0,0,0,0,0,0,0,0,0,0,0,0,0,0,0,0,0,0,0,0,0,0,0,0,0,0,0,0,0,0,0,0,0,0,0,0,0,0,0,0,0,0,0,0,0,0,0,0,0,0,0,0,0,0,0,0,0,0,0,0,0,0,0,0,0,0,0,0,0,0,0,0,0,0,0,0,0,0,0,0,0,0,0,0,0,0,0,0,0,0,0,0,0,0,0,0,0,0,0,0,0,0,0,0,0,0,0,0,0,0,0,0,0,0,0,0,0,0,0,0,0,0,0,0,0,0,0,0,0,0,0,0,0,0,0,0,0,0,0,0,0,0,0,0,0,0,0,0,0,0,0,0,0,0,0,0,0,0,0,0,0,0,0,0,0,0,0,0,0,0,0,0,0,0,0,0,0,0,0,0,0,0,0,0,0,0,0,0,0,0,0,0,0,0,0,0,0,0,0,0,0,0,0,0,0,0,0,0,0,0,0,0,0,0,0,0,0,0,0,0,0,0,0,0,0,0,0,0,0,0,0,0,0,0,0,0,0,0,0,0,0,0,0,0,0,0,0,0,0,0,0,0,0,0,0,0,0,0,0,0,0,0,0,0,0,0,0,0,0,0,0,0,0,0,0,0,0,0,0,0,0,0,0,0,0,0,0,0,0,0,0,0,0,0,0,0,0,0,0,0,0,0,0,0,0,0,0,0,0,0,0,0,0,0,0,0,0,0,0,0,0,0,0,0,0,0,0,0,0,0,0,0,0,0,0,0,0,0,0,0,0,0,0,0,0,0,0,0,0,0,0,0,0,0,0,0,0,0,0,0,0,0,0,0,0,0,0,0,0,0,0,0,0,0,0,0,0,0,0,0,0,0,0,0,0,0,0,0,0,0,0,0,0,0,0,0,0,0,0,0,0,0,0,0,0,0,0,0,0,0,0,0,0,0,0,0,0,0,0,0,0,0,0,0,0,0,0,0,0,0,0,0,0,0,0,0,0,0,0,0,0,0],"trees":[{"base_weights":[7.806325E-1,6.0492283E-1,5.969806E0,-5.5132665E-2,1.1482482E0,4.049713E0,6.972617E0,-2.8836635E-1,2.5707513E-1,1.6229448E0,8.358081E-1,4.2615156E0,1.1465901E-1,7.446101E-1,4.8075572E-1,-3.693746E-2,-1.2252239E-2,-2.4334523E-3,4.0622994E-2,1.4222857E-1,2.5629243E-1,7.442023E-2,1.2875013E-1,4.433777E-1,1.6926013E-1],"categories":[],"categories_nodes":[],"categories_segments":[],"categories_sizes":[],"default_left":[false,false,false,false,false,false,false,false,false,false,false,false,false,false,false,false,false,false,false,false,false,false,false,false,false],"id":0,"left_children":[1,3,5,7,9,11,13,15,17,19,21,23,-1,-1,-1,-1,-1,-1,-1,-1,-1,-1,-1,-1,-1],"loss_changes":[1.7534044E3,6.6889874E2,9.306885E1,6.1459175E1,1.503689E2,9.871094E0,5.2072754E0,6.443718E0,1.5162355E1,7.274414E1,2.4654663E1,2.2309265E0,0E0,0E0,0E0,0E0,0E0,0E0,0E0,0E0,0E0,0E0,0E0,0E0,0E0],"parents":[2147483647,0,0,1,1,2,2,3,3,4,4,5,5,6,6,7,7,8,8,9,9,10,10,11,11],"right_children":[2,4,6,8,10,12,14,16,18,20,22,24,-1,-1,-1,-1,-1,-1,-1,-1,-1,-1,-1,-1,-1],"split_conditions":[2.004377E2,9.462505E1,2.416325E2,7.059458E1,6.563318E2,8.49118E1,5.076E-1,8.03236E1,1.470985E1,1.393227E2,1.364427E2,7E0,1.1465901E-1,7.446101E-1,4.8075572E-1,-3.693746E-2,-1.2252239E-2,-2.4334523E-3,4.0622994E-2,1.4222857E-1,2.5629243E-1,7.442023E-2,1.2875013E-1,4.433777E-1,1.6926013E-1],"split_indices":[26,26,26,26,38,9,21,35,39,26,26,45,0,0,0,0,0,0,0,0,0,0,0,0,0],"split_type":[0,0,0,0,0,0,0,0,0,0,0,0,0,0,0,0,0,0,0,0,0,0,0,0,0],"sum_hessian":[1.926E3,1.864E3,6.2E1,8.42E2,1.022E3,2.3E1,3.9E1,4.82E2,3.6E2,4.04E2,6.18E2,2.1E1,2E0,3E1,9E0,3.23E2,1.59E2,1.25E2,2.35E2,3.35E2,6.9E1,5.16E2,1.02E2,1.9E1,2E0],"tree_param":{"num_deleted":"0","num_feature":"81","num_nodes":"25","size_leaf_vector":"0"}},{"base_weights":[7.0388913E-1,5.356523E-1,5.15932E0,-4.9632445E-2,1.02075E0,3.513316E0,6.3059897E0,-2.3286021E-1,2.8107288E-1,1.438172E0,7.473622E-1,4.7735977E-1,3.8215485E-1,6.5394826E0,3.3636427E-1,2.0428866E-3,-2.9946974E-2,2.2744972E-3,4.1534074E-2,1.0054294E-1,1.7790812E-1,9.884529E-2,6.001404E-2,5.7419945E-2,9.342042E-3,6.796378E-1,3.5874596E-1],"categories":[],"categories_nodes":[],"categories_segments":[],"categories_sizes":[],"default_left":[false,false,false,false,false,false,false,false,false,false,false,false,false,false,false,false,false,false,false,false,false,false,false,false,false,false,false],"id":1,"left_children":[1,3,5,7,9,11,13,15,17,19,21,23,-1,25,-1,-1,-1,-1,-1,-1,-1,-1,-1,-1,-1,-1,-1],"loss_changes":[1.4416531E3,5.275747E2,1.099646E2,5.1146526E1,1.1486902E2,2.7184937E1,5.484253E0,9.167322E0,1.0430777E1,5.736914E1,2.1270966E1,9.5080316E-2,0E0,2.9191895E0,0E0,0E0,0E0,0E0,0E0,0E0,0E0,0E0,0E0,0E0,0E0,0E0,0E0],"parents":[2147483647,0,0,1,1,2,2,3,3,4,4,5,5,6,6,7,7,8,8,9,9,10,10,11,11,13,13],"right_children":[2,4,6,8,10,12,14,16,18,20,22,24,-1,26,-1,-1,-1,-1,-1,-1,-1,-1,-1,-1,-1,-1,-1],"split_conditions":[1.918494E2,9.462505E1,2.416325E2,7.673708E1,6.591992E2,5.734228E1,2.212702E1,1.143036E1,1.470985E1,1.164894E2,1.50972E1,2.6664E0,3.8215485E-1,5.311638E1,3.3636427E-1,2.0428866E-3,-2.9946974E-2,2.2744972E-3,4.1534074E-2,1.0054294E-1,1.7790812E-1,9.884529E-2,6.001404E-2,5.7419945E-2,9.342042E-3,6.796378E-1,3.5874596E-1],"split_indices":[26,26,26,26,38,32,51,28,39,26,17,1,0,69,0,0,0,0,0,0,0,0,0,0,0,0,0],"split_type":[0,0,0,0,0,0,0,0,0,0,0,0,0,0,0,0,0,0,0,0,0,0,0,0,0,0,0],"sum_hessian":[1.926E3,1.857E3,6.9E1,8.42E2,1.015E3,3E1,3.9E1,5.42E2,3E2,4E2,6.15E2,3E0,2.7E1,3.5E1,4E0,1.13E2,4.29E2,1.03E2,1.97E2,1.78E2,2.22E2,2.31E2,3.84E2,2E0,1E0,3.1E1,4E0],"tree_param":{"num_deleted":"0","num_feature":"81","num_nodes":"27","size_leaf_vector":"0"}},{"base_weights":[6.3468176E-1,4.8233098E-1,4.6694403E0,-4.4650327E-2,9.1910547E-1,3.1764655E0,5.709759E0,-2.0962557E-1,2.5311115E-1,1.3559785E0,7.041206E-1,4.4631428E-1,3.453042E0,6.3426405E-1,4.364023E-1,-2.702539E-2,3.7074243E-3,-8.71346E-3,3.3995334E-2,1.0945439E-1,1.8784039E-1,4.708485E-2,8.49975E-2,5.3591944E-2,8.874941E-3,3.506842E-1,1.000221E-1],"categories":[],"categories_nodes":[],"categories_segments":[],"categories_sizes":[],"default_left":[false,false,false,false,false,false,false,false,false,false,false,false,false,false,false,false,false,false,false,false,false,false,false,false,false,false,false],"id":2,"left_children":[1,3,5,7,9,11,13,15,17,19,21,23,25,-1,-1,-1,-1,-1,-1,-1,-1,-1,-1,-1,-1,-1,-1],"loss_changes":[1.182272E3,4.2770065E2,9.058508E1,4.1463974E1,9.4469055E1,2.1866821E1,6.3883057E0,8.131668E0,8.923475E0,4.3561707E1,2.2838043E1,8.059609E-2,1.873169E-1,0E0,0E0,0E0,0E0,0E0,0E0,0E0,0E0,0E0,0E0,0E0,0E0,0E0,0E0],"parents":[2147483647,0,0,1,1,2,2,3,3,4,4,5,5,6,6,7,7,8,8,9,9,10,10,11,11,12,12],"right_children":[2,4,6,8,10,12,14,16,18,20,22,24,26,-1,-1,-1,-1,-1,-1,-1,-1,-1,-1,-1,-1,-1,-1],"split_conditions":[1.918494E2,9.462505E1,2.416325E2,7.673708E1,6.372737E2,5.734228E1,2.89E-1,4.253097E1,7.060446E1,1.273141E2,1.151403E2,2.6664E0,8.699E1,6.3426405E-1,4.364023E-1,-2.702539E-2,3.7074243E-3,-8.71346E-3,3.3995334E-2,1.0945439E-1,1.8784039E-1,4.708485E-2,8.49975E-2,5.3591944E-2,8.874941E-3,3.506842E-1,1.000221E-1],"split_indices":[26,26,26,26,38,32,21,39,35,26,26,1,9,0,0,0,0,0,0,0,0,0,0,0,0,0,0],"split_type":[0,0,0,0,0,0,0,0,0,0,0,0,0,0,0,0,0,0,0,0,0,0,0,0,0,0,0],"sum_hessian":[1.926E3,1.857E3,6.9E1,8.42E2,1.015E3,3E1,3.9E1,5.42E2,3E2,3.33E2,6.82E2,3E0,2.7E1,2.4E1,1.5E1,4.35E2,1.07E2,6.1E1,2.39E2,2.24E2,1.09E2,2.64E2,4.18E2,2E0,1E0,2.6E1,1E0],"tree_param":{"num_deleted":"0","num_feature":"81","num_nodes":"27","size_leaf_vector":"0"}},{"base_weights":[5.7225937E-1,4.2608985E-1,4.0317636E0,-7.6772995E-2,7.8869027E-1,2.7655268E0,5.16555E0,-1.937781E-1,2.1981163E-1,5.180507E-1,1.0499547E0,4.7020262E-1,3.0144153E0,5.369183E0,2.6662847E-1,-2.8241906E-2,-7.021638E-3,6.772231E-3,3.285968E-2,4.1543793E-2,1.10735215E-1,6.65003E-2,1.228225E-1,5.4559734E-2,8.431193E-3,2.371073E-1,3.556126E-1,4.0782055E-1,6.005341E-1],"categories":[],"categories_nodes":[],"categories_segments":[],"categories_sizes":[],"default_left":[false,false,false,false,false,false,false,false,false,false,false,false,false,false,false,false,false,false,false,false,false,false,false,false,false,false,false,false,false],"id":3,"left_children":[1,3,5,7,9,11,13,15,17,19,21,23,25,27,-1,-1,-1,-1,-1,-1,-1,-1,-1,-1,-1,-1,-1,-1,-1],"loss_changes":[9.7271606E2,3.3738635E2,9.769458E1,2.6971281E1,7.546765E1,2.0862488E1,6.041626E0,6.080784E0,3.6176596E0,3.1588974E1,3.665277E1,9.947014E-2,3.7658691E0,5.074463E0,0E0,0E0,0E0,0E0,0E0,0E0,0E0,0E0,0E0,0E0,0E0,0E0,0E0,0E0,0E0],"parents":[2147483647,0,0,1,1,2,2,3,3,4,4,5,5,6,6,7,7,8,8,9,9,10,10,11,11,12,12,13,13],"right_children":[2,4,6,8,10,12,14,16,18,20,22,24,26,28,-1,-1,-1,-1,-1,-1,-1,-1,-1,-1,-1,-1,-1,-1,-1],"split_conditions":[1.825982E2,8.967443E1,2.416325E2,9.597039E1,1.070922E2,5.734228E1,2.212702E1,6.031285E1,7.80147E1,1.409361E2,1.096005E2,2.6664E0,2.885007E1,2.863547E2,2.6662847E-1,-2.8241906E-2,-7.021638E-3,6.772231E-3,3.285968E-2,4.1543793E-2,1.10735215E-1,6.65003E-2,1.228225E-1,5.4559734E-2,8.431193E-3,2.371073E-1,3.556126E-1,4.0782055E-1,6.005341E-1],"split_indices":[26,26,26,35,35,32,51,26,26,26,26,1,73,26,0,0,0,0,0,0,0,0,0,0,0,0,0,0,0],"split_type":[0,0,0,0,0,0,0,0,0,0,0,0,0,0,0,0,0,0,0,0,0,0,0,0,0,0,0,0,0],"sum_hessian":[1.926E3,1.849E3,7.7E1,7.75E2,1.074E3,3.8E1,3.9E1,5.56E2,2.19E2,5.29E2,5.45E2,4E0,3.4E1,3.5E1,4E0,3.23E2,2.33E2,9.2E1,1.27E2,4.52E2,7.7E1,1.74E2,3.71E2,3E0,1E0,1.8E1,1.6E1,1.4E1,2.1E1],"tree_param":{"num_deleted":"0","num_feature":"81","num_nodes":"29","size_leaf_vector":"0"}},{"base_weights":[5.1621485E-1,3.771172E-1,3.5261068E0,-7.026352E-2,7.0110494E-1,2.0657437E0,4.3688593E0,-1.6911013E-1,2.1096528E-1,5.4110783E-1,1.048536E0,1.1756915E-1,2.3035328E0,3.7047784E0,5.4543066E-1,-2.7956823E-2,-8.1180325E-3,8.673791E-3,2.9340891E-2,5.0239004E-2,1.6190487E-1,7.1628176E-2,1.2708874E-1,6.07345E-2,2.3489013E-1,1.2149993E-1,3.8155007E-1],"categories":[],"categories_nodes":[],"categories_segments":[],"categories_sizes":[],"default_left":[false,false,false,false,false,false,false,false,false,false,false,false,false,false,false,false,false,false,false,false,false,false,false,false,false,false,false],"id":4,"left_children":[1,3,5,7,9,11,13,15,17,19,21,-1,23,25,-1,-1,-1,-1,-1,-1,-1,-1,-1,-1,-1,-1,-1],"loss_changes":[8.0544556E2,2.671845E2,9.558667E1,2.1579525E1,5.88562E1,4.2760315E0,1.7996765E1,5.552313E0,2.0433855E0,2.9820465E1,2.3912445E1,0E0,4.9723816E-1,5.288452E0,0E0,0E0,0E0,0E0,0E0,0E0,0E0,0E0,0E0,0E0,0E0,0E0,0E0],"parents":[2147483647,0,0,1,1,2,2,3,3,4,4,5,5,6,6,7,7,8,8,9,9,10,10,12,12,13,13],"right_children":[2,4,6,8,10,12,14,16,18,20,22,-1,24,26,-1,-1,-1,-1,-1,-1,-1,-1,-1,-1,-1,-1,-1],"split_conditions":[1.992349E1,8.967443E1,2.141064E2,9.904135E1,2.211486E1,1.941E-2,2.328135E1,5.541225E1,7.80147E1,1.582679E2,1.147521E2,1.1756915E-1,1.50588E2,3.774313E0,5.4543066E-1,-2.7956823E-2,-8.1180325E-3,8.673791E-3,2.9340891E-2,5.0239004E-2,1.6190487E-1,7.1628176E-2,1.2708874E-1,6.07345E-2,2.3489013E-1,1.2149993E-1,3.8155007E-1],"split_indices":[36,26,26,35,39,22,36,26,26,26,26,0,26,57,0,0,0,0,0,0,0,0,0,0,0,0,0],"split_type":[0,0,0,0,0,0,0,0,0,0,0,0,0,0,0,0,0,0,0,0,0,0,0,0,0,0,0],"sum_hessian":[1.926E3,1.842E3,8.4E1,7.74E2,1.068E3,3.2E1,5.2E1,5.73E2,2.01E2,7.33E2,3.35E2,8E0,2.4E1,3.5E1,1.7E1,2.53E2,3.2E2,8.1E1,1.2E2,7.09E2,2.4E1,1.36E2,1.99E2,1E0,2.3E1,2E0,3.3E1],"tree_param":{"num_deleted":"0","num_feature":"81","num_nodes":"27","size_leaf_vector":"0"}},{"base_weights":[4.6556613E-1,3.3962944E-1,3.1906924E0,4.7844704E-3,6.9895154E-1,2.2039225E0,4.2457104E0,-1.5183803E-1,2.2435877E-1,9.651334E-1,4.889794E-1,1.563724E0,2.5965168E0,4.779845E0,3.1457677E-1,-2.2749715E-2,-2.2447458E-3,-4.2972583E-3,3.0149618E-2,6.717773E-2,1.171911E-1,4.16116E-2,7.791739E-2,5.8891464E-2,1.7011072E-1,1.5106693E-1,2.974207E-1,3.8968378E-1,6.1691314E-1],"categories":[],"categories_nodes":[],"categories_segments":[],"categories_sizes":[],"default_left":[false,false,false,false,false,false,false,false,false,false,false,false,false,false,false,false,false,false,false,false,false,false,false,false,false,false,false,false,false],"id":5,"left_children":[1,3,5,7,9,11,13,15,17,19,21,23,25,27,-1,-1,-1,-1,-1,-1,-1,-1,-1,-1,-1,-1,-1,-1,-1],"loss_changes":[6.602499E2,2.2174123E2,7.913287E1,3.2876778E1,4.9214966E1,7.501343E0,8.4644165E0,5.4574766E0,8.220215E0,2.2930603E1,1.0226913E1,1.6766434E0,6.5800323E0,6.628662E0,0E0,0E0,0E0,0E0,0E0,0E0,0E0,0E0,0E0,0E0,0E0,0E0,0E0,0E0,0E0],"parents":[2147483647,0,0,1,1,2,2,3,3,4,4,5,5,6,6,7,7,8,8,9,9,10,10,11,11,12,12,13,13],"right_children":[2,4,6,8,10,12,14,16,18,20,22,24,26,28,-1,-1,-1,-1,-1,-1,-1,-1,-1,-1,-1,-1,-1,-1,-1],"split_conditions":[1.992349E1,1.01498E2,2.416325E2,7.80147E1,6.816642E2,2.751279E1,2.89E-1,8.03236E1,9.848415E0,1.164894E2,1.21728E1,1.516824E2,3.46E-1,3.217959E2,3.1457677E-1,-2.2749715E-2,-2.2447458E-3,-4.2972583E-3,3.0149618E-2,6.717773E-2,1.171911E-1,4.16116E-2,7.791739E-2,5.8891464E-2,1.7011072E-1,1.5106693E-1,2.974207E-1,3.8968378E-1,6.1691314E-1],"split_indices":[36,26,26,26,38,73,21,35,36,26,3,24,7,26,0,0,0,0,0,0,0,0,0,0,0,0,0,0,0],"split_type":[0,0,0,0,0,0,0,0,0,0,0,0,0,0,0,0,0,0,0,0,0,0,0,0,0,0,0,0,0],"sum_hessian":[1.926E3,1.842E3,8.4E1,9.54E2,8.88E2,4.5E1,3.9E1,5.57E2,3.97E2,3.9E2,4.98E2,1.9E1,2.6E1,2.4E1,1.5E1,3.51E2,2.06E2,8.9E1,3.08E2,1.63E2,2.27E2,4E2,9.8E1,3E0,1.6E1,8E0,1.8E1,1.7E1,7E0],"tree_param":{"num_deleted":"0","num_feature":"81","num_nodes":"29","size_leaf_vector":"0"}},{"base_weights":[4.2020485E-1,3.0563182E-1,2.8994737E0,4.99685E-3,6.289442E-1,2.0062723E0,3.8541687E0,-1.7056961E-1,1.6748291E-1,9.119528E-1,4.4573548E-1,2.2525437E0,7.4354064E-1,4.3172393E0,2.794568E0,-2.1587187E-2,-5.1380363E-3,-4.251788E-3,2.5243385E-2,9.722667E-2,5.720347E-3,3.6237657E-2,7.513749E-2,2.2885762E-1,4.596734E-2,2.403567E-2,1.0980165E-1,3.378512E-1,5.290185E-1,2.8779975E-1,8.132797E-2],"categories":[],"categories_nodes":[],"categories_segments":[],"categories_sizes":[],"default_left":[false,false,false,false,false,false,false,false,false,false,false,false,false,false,false,false,false,false,false,false,false,false,false,false,false,false,false,false,false,false,false],"id":6,"left_children":[1,3,5,7,9,11,13,15,17,19,21,23,25,27,29,-1,-1,-1,-1,-1,-1,-1,-1,-1,-1,-1,-1,-1,-1,-1,-1],"loss_changes":[5.4649225E2,1.7913464E2,6.475E1,2.7300478E1,4.5635986E1,1.2629974E1,7.5619507E0,2.4726982E0,8.877095E0,1.7884918E1,1.35112E1,1.4028473E0,1.3413835E0,5.8736267E0,1.3883972E-1,0E0,0E0,0E0,0E0,0E0,0E0,0E0,0E0,0E0,0E0,0E0,0E0,0E0,0E0,0E0,0E0],"parents":[2147483647,0,0,1,1,2,2,3,3,4,4,5,5,6,6,7,7,8,8,9,9,10,10,11,11,12,12,13,13,14,14],"right_children":[2,4,6,8,10,12,14,16,18,20,22,24,26,28,30,-1,-1,-1,-1,-1,-1,-1,-1,-1,-1,-1,-1,-1,-1,-1,-1],"split_conditions":[1.73543E2,1.01498E2,2.416325E2,6.889673E1,1.031319E1,7.82649E-1,3.9816E0,1.83504E1,9.997748E0,5.1742995E-1,1.347506E2,2.3772E0,1.2E-1,6.600533E0,5.7114E0,-2.1587187E-2,-5.1380363E-3,-4.251788E-3,2.5243385E-2,9.722667E-2,5.720347E-3,3.6237657E-2,7.513749E-2,2.2885762E-1,4.596734E-2,2.403567E-2,1.0980165E-1,3.378512E-1,5.290185E-1,2.8779975E-1,8.132797E-2],"split_indices":[26,26,26,26,27,46,18,73,36,40,26,15,4,37,1,0,0,0,0,0,0,0,0,0,0,0,0,0,0,0,0],"split_type":[0,0,0,0,0,0,0,0,0,0,0,0,0,0,0,0,0,0,0,0,0,0,0,0,0,0,0,0,0,0,0],"sum_hessian":[1.926E3,1.842E3,8.4E1,9.55E2,8.87E2,4.5E1,3.9E1,4.59E2,4.96E2,3.47E2,5.4E2,3.7E1,8E0,2.5E1,1.4E1,3.32E2,1.27E2,1.43E2,3.53E2,3.24E2,2.3E1,4.26E2,1.14E2,3.6E1,1E0,4E0,4E0,1.5E1,1E1,1.3E1,1E0],"tree_param":{"num_deleted":"0","num_feature":"81","num_nodes":"31","size_leaf_vector":"0"}},{"base_weights":[3.791461E-1,2.7474982E-1,2.6382425E0,-6.0820125E-2,5.0976676E-1,1.5481982E0,3.2671711E0,-1.632693E-1,9.005745E-2,3.257894E-1,6.9656354E-1,8.7300825E-1,1.7293386E0,4.120863E0,2.7103908E0,-1.8668247E-2,4.2952625E-3,4.53156E-3,3.4390636E-2,2.3721492E-2,8.05469E-2,4.368927E-2,8.24097E-2,9.196168E-2,2.500698E-2,5.1055808E-2,1.8131214E-1,3.181132E-1,5.277383E-1,2.7594206E-1,5.216914E-2],"categories":[],"categories_nodes":[],"categories_segments":[],"categories_sizes":[],"default_left":[false,false,false,false,false,false,false,false,false,false,false,false,false,false,false,false,false,false,false,false,false,false,false,false,false,false,false,false,false,false,false],"id":7,"left_children":[1,3,5,7,9,11,13,15,17,19,21,23,25,27,29,-1,-1,-1,-1,-1,-1,-1,-1,-1,-1,-1,-1,-1,-1,-1,-1],"loss_changes":[4.537412E2,1.4537854E2,5.3214355E1,1.1762238E1,3.7026215E1,2.5263138E0,1.4022766E1,2.195243E0,3.4825778E0,2.3092003E1,1.7423645E1,3.1339645E-2,1.6271133E0,3.8614502E0,2.3163147E0,0E0,0E0,0E0,0E0,0E0,0E0,0E0,0E0,0E0,0E0,0E0,0E0,0E0,0E0,0E0,0E0],"parents":[2147483647,0,0,1,1,2,2,3,3,4,4,5,5,6,6,7,7,8,8,9,9,10,10,11,11,12,12,13,13,14,14],"right_children":[2,4,6,8,10,12,14,16,18,20,22,24,26,28,30,-1,-1,-1,-1,-1,-1,-1,-1,-1,-1,-1,-1,-1,-1,-1,-1],"split_conditions":[1.992349E1,8.856103E1,2.141064E2,8.567213E1,1.070922E2,1.941E-2,1.250684E-1,5.6990546E-1,5.648161E1,1.409361E2,1.096005E2,1.5676E0,6.75752E1,3.217959E2,9.749E1,-1.8668247E-2,4.2952625E-3,4.53156E-3,3.4390636E-2,2.3721492E-2,8.05469E-2,4.368927E-2,8.24097E-2,9.196168E-2,2.500698E-2,5.1055808E-2,1.8131214E-1,3.181132E-1,5.277383E-1,2.7594206E-1,5.216914E-2],"split_indices":[36,26,26,35,35,22,63,40,39,26,26,1,32,26,9,0,0,0,0,0,0,0,0,0,0,0,0,0,0,0,0],"split_type":[0,0,0,0,0,0,0,0,0,0,0,0,0,0,0,0,0,0,0,0,0,0,0,0,0,0,0,0,0,0,0],"sum_hessian":[1.926E3,1.842E3,8.4E1,7.59E2,1.083E3,3.2E1,5.2E1,4.52E2,3.07E2,5.47E2,5.36E2,8E0,2.4E1,1.8E1,3.4E1,4.06E2,4.6E1,2.62E2,4.5E1,4.63E2,8.4E1,1.78E2,3.58E2,7E0,1E0,2E0,2.2E1,1.2E1,6E0,3.3E1,1E0],"tree_param":{"num_deleted":"0","num_feature":"81","num_nodes":"31","size_leaf_vector":"0"}},{"base_weights":[3.4215426E-1,2.4730465E-1,2.3946917E0,2.767068E-3,5.102896E-1,1.878671E0,3.5579941E0,-8.979721E-2,2.1777657E-1,7.788333E-1,3.6916608E-1,1.375943E0,2.4220312E0,4.26822E-1,2.432898E0,-1.3959344E-2,7.0804483E-3,1.2175465E-2,3.1841576E-2,8.217885E-2,-2.4922062E-2,2.1784095E-2,5.16675E-2,1.5332869E-1,1.5669066E-2,2.4750245E-1,4.9560677E-2,2.5386807E-1,6.346446E-2],"categories":[],"categories_nodes":[],"categories_segments":[],"categories_sizes":[],"default_left":[false,false,false,false,false,false,false,false,false,false,false,false,false,false,false,false,false,false,false,false,false,false,false,false,false,false,false,false,false],"id":8,"left_children":[1,3,5,7,9,11,13,15,17,19,21,23,25,-1,27,-1,-1,-1,-1,-1,-1,-1,-1,-1,-1,-1,-1,-1,-1],"loss_changes":[3.7456067E2,1.1852137E2,4.434015E1,1.9046057E1,3.3365753E1,1.3330338E1,9.592682E0,5.360117E0,2.74434E0,1.3673691E1,1.2923386E1,6.2823715E0,1.6318054E0,0E0,6.715317E-1,0E0,0E0,0E0,0E0,0E0,0E0,0E0,0E0,0E0,0E0,0E0,0E0,0E0,0E0],"parents":[2147483647,0,0,1,1,2,2,3,3,4,4,5,5,6,6,7,7,8,8,9,9,10,10,11,11,12,12,14,14],"right_children":[2,4,6,8,10,12,14,16,18,20,22,24,26,-1,28,-1,-1,-1,-1,-1,-1,-1,-1,-1,-1,-1,-1,-1,-1],"split_conditions":[1.73543E2,1.01498E2,2.863547E2,1.013934E2,1.557992E1,2.885007E1,2.38E0,8.078496E1,8.479858E1,5.48145E-1,4.226847E1,1.274117E3,9.749E1,4.26822E-1,5.7114E0,-1.3959344E-2,7.0804483E-3,1.2175465E-2,3.1841576E-2,8.217885E-2,-2.4922062E-2,2.1784095E-2,5.16675E-2,1.5332869E-1,1.5669066E-2,2.4750245E-1,4.9560677E-2,2.5386807E-1,6.346446E-2],"split_indices":[26,26,26,35,28,73,18,26,26,40,69,71,9,0,1,0,0,0,0,0,0,0,0,0,0,0,0,0,0],"split_type":[0,0,0,0,0,0,0,0,0,0,0,0,0,0,0,0,0,0,0,0,0,0,0,0,0,0,0,0,0],"sum_hessian":[1.926E3,1.842E3,8.4E1,9.55E2,8.87E2,6E1,2.4E1,6.68E2,2.87E2,3.04E2,5.83E2,3.3E1,2.7E1,1.3E1,1.1E1,5.1E2,1.58E2,1.48E2,1.39E2,2.92E2,1.2E1,2.89E2,2.94E2,2.9E1,4E0,2.6E1,1E0,1E1,1E0],"tree_param":{"num_deleted":"0","num_feature":"81","num_nodes":"29","size_leaf_vector":"0"}},{"base_weights":[3.0865398E-1,2.2231022E-1,2.1771588E0,4.782913E-2,5.213502E-1,1.501413E0,2.8998377E0,-7.578439E-2,2.5929826E-1,6.8812627E-1,2.4824566E-1,1.0304509E0,1.7946658E0,3.705575E0,2.42218E0,-1.654152E-2,-2.524348E-4,1.11992275E-2,3.4025792E-2,6.0899682E-2,1.1451361E-1,1.1958203E-2,4.9690362E-2,3.885395E-2,1.1208742E-1,1.0302074E-1,2.0623218E-1,3.9138874E-1,6.029124E-2,4.735216E-2,2.4768145E-1],"categories":[],"categories_nodes":[],"categories_segments":[],"categories_sizes":[],"default_left":[false,false,false,false,false,false,false,false,false,false,false,false,false,false,false,false,false,false,false,false,false,false,false,false,false,false,false,false,false,false,false],"id":9,"left_children":[1,3,5,7,9,11,13,15,17,19,21,23,25,27,29,-1,-1,-1,-1,-1,-1,-1,-1,-1,-1,-1,-1,-1,-1,-1,-1],"loss_changes":[3.1040616E2,9.613694E1,3.715567E1,3.0473269E1,3.0755783E1,4.503792E0,6.419098E0,4.832421E0,5.090008E0,1.4527222E1,8.226825E0,7.253704E-1,3.3999023E0,6.042465E0,1.8081665E0,0E0,0E0,0E0,0E0,0E0,0E0,0E0,0E0,0E0,0E0,0E0,0E0,0E0,0E0,0E0,0E0],"parents":[2147483647,0,0,1,1,2,2,3,3,4,4,5,5,6,6,7,7,8,8,9,9,10,10,11,11,12,12,13,13,14,14],"right_children":[2,4,6,8,10,12,14,16,18,20,22,24,26,28,30,-1,-1,-1,-1,-1,-1,-1,-1,-1,-1,-1,-1,-1,-1,-1,-1],"split_conditions":[1.992349E1,1.122712E2,2.416325E2,1.013934E2,7.823172E2,2.751279E1,6.682342E-1,6.031285E1,8.52183E1,1.393227E2,1.364427E2,1.516824E2,3.46E-1,2.4644E0,5.150208E1,-1.654152E-2,-2.524348E-4,1.11992275E-2,3.4025792E-2,6.0899682E-2,1.1451361E-1,1.1958203E-2,4.9690362E-2,3.885395E-2,1.1208742E-1,1.0302074E-1,2.0623218E-1,3.9138874E-1,6.029124E-2,4.735216E-2,2.4768145E-1],"split_indices":[36,26,26,35,38,73,41,26,26,26,26,24,7,1,74,0,0,0,0,0,0,0,0,0,0,0,0,0,0,0,0],"split_type":[0,0,0,0,0,0,0,0,0,0,0,0,0,0,0,0,0,0,0,0,0,0,0,0,0,0,0,0,0,0,0],"sum_hessian":[1.926E3,1.842E3,8.4E1,1.164E3,6.78E2,4.5E1,3.9E1,7.35E2,4.29E2,4.2E2,2.58E2,1.9E1,2.6E1,1.2E1,2.7E1,3.3E2,4.05E2,1.53E2,2.76E2,3.6E2,6E1,1.71E2,8.7E1,3E0,1.6E1,8E0,1.8E1,1.1E1,1E0,1E0,2.6E1],"tree_param":{"num_deleted":"0","num_feature":"81","num_nodes":"31","size_leaf_vector":"0"}},{"base_weights":[2.7855265E-1,2.0022322E-1,1.9736419E0,5.353862E-2,4.908949E-1,1.5364501E0,2.9614441E0,-7.2432935E-2,2.3908633E-1,6.51085E-1,2.2704862E-1,1.1520934E0,1.9208405E0,3.8839686E-1,2.1997762E0,-8.296718E-3,4.35933E-2,1.9743666E-2,5.0282177E-2,5.7794858E-2,1.02160096E-1,9.603184E-3,4.4882394E-2,7.584111E-2,1.3700664E-1,2.0602632E-1,8.395586E-2,2.344244E-1,7.923341E-2],"categories":[],"categories_nodes":[],"categories_segments":[],"categories_sizes":[],"default_left":[false,false,false,false,false,false,false,false,false,false,false,false,false,false,false,false,false,false,false,false,false,false,false,false,false,false,false,false,false],"id":10,"left_children":[1,3,5,7,9,11,13,15,17,19,21,23,25,-1,27,-1,-1,-1,-1,-1,-1,-1,-1,-1,-1,-1,-1,-1,-1],"loss_changes":[2.5546295E2,7.855383E1,3.2157898E1,2.8673515E1,2.5972275E1,6.7993317E0,9.022568E0,3.9508576E0,5.3490353E0,9.815292E0,6.7851267E0,1.7927284E0,2.642189E0,0E0,1.3958511E0,0E0,0E0,0E0,0E0,0E0,0E0,0E0,0E0,0E0,0E0,0E0,0E0,0E0,0E0],"parents":[2147483647,0,0,1,1,2,2,3,3,4,4,5,5,6,6,7,7,8,8,9,9,10,10,11,11,12,12,14,14],"right_children":[2,4,6,8,10,12,14,16,18,20,22,24,26,-1,28,-1,-1,-1,-1,-1,-1,-1,-1,-1,-1,-1,-1,-1,-1],"split_conditions":[1.992349E1,1.147521E2,2.863547E2,9.953912E1,7.942498E2,2.141064E2,1E0,6.84299E2,9.039181E0,1.393227E2,1.364427E2,6.786703E-1,5.061832E1,3.8839686E-1,2.6664E0,-8.296718E-3,4.35933E-2,1.9743666E-2,5.0282177E-2,5.7794858E-2,1.02160096E-1,9.603184E-3,4.4882394E-2,7.584111E-2,1.3700664E-1,2.0602632E-1,8.395586E-2,2.344244E-1,7.923341E-2],"split_indices":[36,26,26,35,38,26,80,20,37,26,26,41,69,0,1,0,0,0,0,0,0,0,0,0,0,0,0,0,0],"split_type":[0,0,0,0,0,0,0,0,0,0,0,0,0,0,0,0,0,0,0,0,0,0,0,0,0,0,0,0,0],"sum_hessian":[1.926E3,1.842E3,8.4E1,1.225E3,6.17E2,6E1,2.4E1,7.3E2,4.95E2,3.83E2,2.34E2,3.2E1,2.8E1,9E0,1.5E1,7.16E2,1.4E1,4.29E2,6.6E1,3.22E2,6.1E1,1.48E2,8.6E1,1.3E1,1.9E1,2.4E1,4E0,1.3E1,2E0],"tree_param":{"num_deleted":"0","num_feature":"81","num_nodes":"29","size_leaf_vector":"0"}},{"base_weights":[2.514886E-1,1.8330818E-1,1.8653638E0,-4.4553857E-2,3.4222534E-1,1.3545609E0,2.5208662E0,-1.2975363E-1,5.0709654E-2,3.0383933E-1,8.97224E-1,1.0625196E0,1.887278E-1,2.08051E0,3.8592595E-1,-1.6116975E-2,3.2624837E-3,1.6727801E-3,2.7665842E-2,4.42201E-2,1.8454744E-2,5.2598573E-2,1.23322725E-1,1.1329974E-1,2.8592575E-2,6.430424E-2,2.1697858E-1],"categories":[],"categories_nodes":[],"categories_segments":[],"categories_sizes":[],"default_left":[false,false,false,false,false,false,false,false,false,false,false,false,false,false,false,false,false,false,false,false,false,false,false,false,false,false,false],"id":11,"left_children":[1,3,5,7,9,11,13,15,17,19,21,23,-1,25,-1,-1,-1,-1,-1,-1,-1,-1,-1,-1,-1,-1,-1],"loss_changes":[2.1169492E2,6.700595E1,2.270227E1,6.1831827E0,2.294896E1,5.1511917E0,1.1419983E1,2.0559797E0,2.7595088E0,1.6770432E1,8.082947E0,1.427494E0,0E0,2.0696716E0,0E0,0E0,0E0,0E0,0E0,0E0,0E0,0E0,0E0,0E0,0E0,0E0,0E0],"parents":[2147483647,0,0,1,1,2,2,3,3,4,4,5,5,6,6,7,7,8,8,9,9,10,10,11,11,13,13],"right_children":[2,4,6,8,10,12,14,16,18,20,22,24,-1,26,-1,-1,-1,-1,-1,-1,-1,-1,-1,-1,-1,-1,-1],"split_conditions":[1.641532E2,8.856103E1,2.273099E1,8.03236E1,1.512121E2,4.0508235E-1,8.022466E0,4.6531343E-1,5.648161E1,1.25342E1,1.325107E1,1.685224E1,1.887278E-1,4.75004E1,3.8592595E-1,-1.6116975E-2,3.2624837E-3,1.6727801E-3,2.7665842E-2,4.42201E-2,1.8454744E-2,5.2598573E-2,1.23322725E-1,1.1329974E-1,2.8592575E-2,6.430424E-2,2.1697858E-1],"split_indices":[35,26,36,35,26,40,37,40,39,17,36,57,0,9,0,0,0,0,0,0,0,0,0,0,0,0,0],"split_type":[0,0,0,0,0,0,0,0,0,0,0,0,0,0,0,0,0,0,0,0,0,0,0,0,0,0,0],"sum_hessian":[1.926E3,1.849E3,7.7E1,7.6E2,1.089E3,4.5E1,3.2E1,4.01E2,3.59E2,1.02E3,6.9E1,3.1E1,1.4E1,2.6E1,6E0,3.36E2,6.5E1,3.13E2,4.6E1,4.71E2,5.49E2,3.4E1,3.5E1,2.8E1,3E0,2E0,2.4E1],"tree_param":{"num_deleted":"0","num_feature":"81","num_nodes":"27","size_leaf_vector":"0"}},{"base_weights":[2.2698992E-1,1.6511525E-1,1.6916201E0,4.0621642E-2,4.0964815E-1,1.3115388E0,2.444931E0,-6.0519256E-2,2.036518E-1,5.4995507E-1,1.7505516E-1,1.3948922E0,4.12229E-1,3.0837038E0,1.6180867E0,-7.1261786E-3,3.1988587E-2,1.6623197E-2,4.2624827E-2,5.1218927E-2,1.1891649E-1,1.2209563E-2,6.8225004E-2,1.5955146E-1,1.051419E-1,1.2483305E-2,4.447416E-2,3.34092E-1,1.1126776E-1,1.7858966E-1,7.940405E-2],"categories":[],"categories_nodes":[],"categories_segments":[],"categories_sizes":[],"default_left":[false,false,false,false,false,false,false,false,false,false,false,false,false,false,false,false,false,false,false,false,false,false,false,false,false,false,false,false,false,false,false],"id":12,"left_children":[1,3,5,7,9,11,13,15,17,19,21,23,25,27,29,-1,-1,-1,-1,-1,-1,-1,-1,-1,-1,-1,-1,-1,-1,-1,-1],"loss_changes":[1.743522E2,5.6302513E1,1.9126297E1,2.0244349E1,2.0442703E1,3.4728622E0,8.214447E0,3.120373E0,3.844019E0,8.805634E0,6.2289896E0,1.6989441E0,5.455017E-4,2.8733673E0,3.7960434E-1,0E0,0E0,0E0,0E0,0E0,0E0,0E0,0E0,0E0,0E0,0E0,0E0,0E0,0E0,0E0,0E0],"parents":[2147483647,0,0,1,1,2,2,3,3,4,4,5,5,6,6,7,7,8,8,9,9,10,10,11,11,12,12,13,13,14,14],"right_children":[2,4,6,8,10,12,14,16,18,20,22,24,26,28,30,-1,-1,-1,-1,-1,-1,-1,-1,-1,-1,-1,-1,-1,-1,-1,-1],"split_conditions":[1.641532E2,1.147521E2,1.952645E2,1.013934E2,7.942498E2,1.87E0,5.142E-1,1.813971E2,9.039181E0,3.010351E2,2.02074E1,4.28E-2,5.5214E0,8.93398E1,2.212702E1,-7.1261786E-3,3.1988587E-2,1.6623197E-2,4.2624827E-2,5.1218927E-2,1.1891649E-1,1.2209563E-2,6.8225004E-2,1.5955146E-1,1.051419E-1,1.2483305E-2,4.447416E-2,3.34092E-1,1.1126776E-1,1.7858966E-1,7.940405E-2],"split_indices":[35,26,35,35,38,4,4,0,37,33,3,14,0,9,51,0,0,0,0,0,0,0,0,0,0,0,0,0,0,0,0],"split_type":[0,0,0,0,0,0,0,0,0,0,0,0,0,0,0,0,0,0,0,0,0,0,0,0,0,0,0,0,0,0,0],"sum_hessian":[1.926E3,1.849E3,7.7E1,1.226E3,6.23E2,5.3E1,2.4E1,7.57E2,4.69E2,3.89E2,2.34E2,4.8E1,5E0,1.2E1,1.2E1,7.37E2,2E1,4.03E2,6.6E1,3.69E2,2E1,2.13E2,2.1E1,2.8E1,2E1,1E0,4E0,1E1,2E0,9E0,3E0],"tree_param":{"num_deleted":"0","num_feature":"81","num_nodes":"31","size_leaf_vector":"0"}},{"base_weights":[2.0499653E-1,1.2810442E-1,1.2008798E0,-7.1622565E-2,2.332222E-1,8.6890495E-1,1.9924955E0,-8.85848E-2,2.2233425E-1,1.5569007E-1,3.9651102E-1,4.4582504E-1,1.0833495E0,1.6770157E0,2.7712336E0,-1.5275927E-2,-5.0048577E-3,2.9341105E-2,-7.7025464E-4,2.0353133E-2,-5.5475505E-3,4.314989E-2,-2.8544484E-2,1.3292451E-1,3.214655E-2,7.426024E-2,1.264699E-1,6.896819E-2,1.7977436E-1,3.3040115E-1,1.14606336E-1],"categories":[],"categories_nodes":[],"categories_segments":[],"categories_sizes":[],"default_left":[false,false,false,false,false,false,false,false,false,false,false,false,false,false,false,false,false,false,false,false,false,false,false,false,false,false,false,false,false,false,false],"id":13,"left_children":[1,3,5,7,9,11,13,15,17,19,21,23,25,27,29,-1,-1,-1,-1,-1,-1,-1,-1,-1,-1,-1,-1,-1,-1,-1,-1],"loss_changes":[1.4740729E2,3.75975E1,3.4534622E1,3.1011455E0,1.4788597E1,8.499001E0,5.1796417E0,1.439084E0,5.581697E-1,8.062925E0,9.118462E0,3.4178543E0,3.0774612E0,2.4552917E0,4.8719482E0,0E0,0E0,0E0,0E0,0E0,0E0,0E0,0E0,0E0,0E0,0E0,0E0,0E0,0E0,0E0,0E0],"parents":[2147483647,0,0,1,1,2,2,3,3,4,4,5,5,6,6,7,7,8,8,9,9,10,10,11,11,12,12,13,13,14,14],"right_children":[2,4,6,8,10,12,14,16,18,20,22,24,26,28,30,-1,-1,-1,-1,-1,-1,-1,-1,-1,-1,-1,-1,-1,-1,-1,-1],"split_conditions":[1.512121E2,8.119914E1,2.416325E2,5.756611E1,2.211486E1,1.325107E1,2.039427E2,5.337126E1,3.358247E1,9.243623E2,5.48145E-1,5.5447227E-1,1.3034E0,4.331077E0,2.2E-1,-1.5275927E-2,-5.0048577E-3,2.9341105E-2,-7.7025464E-4,2.0353133E-2,-5.5475505E-3,4.314989E-2,-2.8544484E-2,1.3292451E-1,3.214655E-2,7.426024E-2,1.264699E-1,6.896819E-2,1.7977436E-1,3.3040115E-1,1.14606336E-1],"split_indices":[26,26,26,39,39,36,35,26,47,38,40,41,12,57,4,0,0,0,0,0,0,0,0,0,0,0,0,0,0,0,0],"split_type":[0,0,0,0,0,0,0,0,0,0,0,0,0,0,0,0,0,0,0,0,0,0,0,0,0,0,0,0,0,0,0],"sum_hessian":[1.926E3,1.789E3,1.37E2,6.17E2,1.172E3,9.8E1,3.9E1,5.84E2,3.3E1,7.96E2,3.76E2,3.4E1,6.4E1,3E1,9E0,2.18E2,3.66E2,2.5E1,8E0,6.49E2,1.47E2,3.58E2,1.8E1,3E0,3.1E1,2.4E1,4E1,4E0,2.6E1,6E0,3E0],"tree_param":{"num_deleted":"0","num_feature":"81","num_nodes":"31","size_leaf_vector":"0"}},{"base_weights":[1.850663E-1,1.15315035E-1,1.0884697E0,-1.1908744E-2,2.5229368E-1,7.834548E-1,1.81617E0,-1.9958718E-2,1.051239E0,1.1313041E-1,3.4674755E-1,9.231389E-1,2.525995E-1,1.5090816E0,2.586527E0,-5.425985E-3,1.3794744E-2,2.6073265E-1,3.5733666E-2,1.6719239E-2,2.683295E-3,2.2437837E-2,4.7660023E-2,1.1121316E-1,5.6545712E-2,-6.87959E-3,4.8039604E-2,1.587597E-1,5.8220267E-2,3.0914295E-1,1.0563161E-1],"categories":[],"categories_nodes":[],"categories_segments":[],"categories_sizes":[],"default_left":[false,false,false,false,false,false,false,false,false,false,false,false,false,false,false,false,false,false,false,false,false,false,false,false,false,false,false,false,false,false,false],"id":14,"left_children":[1,3,5,7,9,11,13,15,17,19,21,23,25,27,29,-1,-1,-1,-1,-1,-1,-1,-1,-1,-1,-1,-1,-1,-1,-1,-1],"loss_changes":[1.2130154E2,3.1197226E1,2.920752E1,7.971652E0,1.129134E1,7.1078644E0,5.559433E0,5.0067854E0,6.6267166E0,1.6284075E0,8.0446205E0,4.643875E0,1.6437298E0,1.3317032E0,4.4605484E0,0E0,0E0,0E0,0E0,0E0,0E0,0E0,0E0,0E0,0E0,0E0,0E0,0E0,0E0,0E0,0E0],"parents":[2147483647,0,0,1,1,2,2,3,3,4,4,5,5,6,6,7,7,8,8,9,9,10,10,11,11,12,12,13,13,14,14],"right_children":[2,4,6,8,10,12,14,16,18,20,22,24,26,28,30,-1,-1,-1,-1,-1,-1,-1,-1,-1,-1,-1,-1,-1,-1,-1,-1],"split_conditions":[1.512121E2,1.013934E2,2.234419E1,1.2752048E3,1.053018E2,9.4781804E-1,8.022466E0,1.151403E2,2.682E-1,3.55E-3,1.917293E1,1.044058E1,5.097481E0,6.9E1,5.142E-1,-5.425985E-3,1.3794744E-2,2.6073265E-1,3.5733666E-2,1.6719239E-2,2.683295E-3,2.2437837E-2,4.7660023E-2,1.1121316E-1,5.6545712E-2,-6.87959E-3,4.8039604E-2,1.587597E-1,5.8220267E-2,3.0914295E-1,1.0563161E-1],"split_indices":[26,35,36,47,26,41,37,26,0,23,39,43,37,54,4,0,0,0,0,0,0,0,0,0,0,0,0,0,0,0,0],"split_type":[0,0,0,0,0,0,0,0,0,0,0,0,0,0,0,0,0,0,0,0,0,0,0,0,0,0,0,0,0,0,0],"sum_hessian":[1.926E3,1.789E3,1.37E2,9.28E2,8.61E2,9.8E1,3.9E1,9.22E2,6E0,3.49E2,5.12E2,7.7E1,2.1E1,3E1,9E0,7.58E2,1.64E2,1E0,5E0,2.14E2,1.35E2,2.65E2,2.47E2,4.9E1,2.8E1,9E0,1.2E1,2.7E1,3E0,6E0,3E0],"tree_param":{"num_deleted":"0","num_feature":"81","num_nodes":"31","size_leaf_vector":"0"}},{"base_weights":[1.6720057E-1,1.0400384E-1,9.857146E-1,-4.313398E-2,2.035138E-1,7.75822E-1,1.9033964E0,3.296354E-2,-1.03302486E-1,4.25089E-1,1.5384483E-1,4.6180603E-1,1.0410849E0,2.5923948E0,1.35381E0,7.984303E-4,2.3613779E-2,-4.0410992E-4,-1.3380666E-2,4.507309E-2,-6.3944735E-2,1.4692209E-2,1.3276362E-1,6.1460095E-3,6.602718E-2,1.454317E-1,8.342827E-2,2.9914382E-1,1.24597065E-1,5.4815333E-2,1.4975652E-1],"categories":[],"categories_nodes":[],"categories_segments":[],"categories_sizes":[],"default_left":[false,false,false,false,false,false,false,false,false,false,false,false,false,false,false,false,false,false,false,false,false,false,false,false,false,false,false,false,false,false,false],"id":15,"left_children":[1,3,5,7,9,11,13,15,17,19,21,23,25,27,29,-1,-1,-1,-1,-1,-1,-1,-1,-1,-1,-1,-1,-1,-1,-1,-1],"loss_changes":[9.9576195E1,2.6217382E1,2.5104126E1,3.3137867E0,1.1688385E1,9.015053E0,5.9569855E0,1.6221588E0,1.2227254E0,5.6110687E0,6.9069576E0,4.2499876E0,3.9995804E0,1.6455765E0,1.0321827E0,0E0,0E0,0E0,0E0,0E0,0E0,0E0,0E0,0E0,0E0,0E0,0E0,0E0,0E0,0E0,0E0],"parents":[2147483647,0,0,1,1,2,2,3,3,4,4,5,5,6,6,7,7,8,8,9,9,10,10,11,11,12,12,13,13,14,14],"right_children":[2,4,6,8,10,12,14,16,18,20,22,24,26,28,30,-1,-1,-1,-1,-1,-1,-1,-1,-1,-1,-1,-1,-1,-1,-1,-1],"split_conditions":[1.512121E2,8.668062E1,2.863547E2,5.849812E0,1.294566E1,2.491558E1,1E0,5.648161E1,1.05096E1,8.93398E1,1.2752048E3,1.002053E2,5.99194E1,6.4627385E-1,2.8E-3,7.984303E-4,2.3613779E-2,-4.0410992E-4,-1.3380666E-2,4.507309E-2,-6.3944735E-2,1.4692209E-2,1.3276362E-1,6.1460095E-3,6.602718E-2,1.454317E-1,8.342827E-2,2.9914382E-1,1.24597065E-1,5.4815333E-2,1.4975652E-1],"split_indices":[26,26,26,66,28,73,80,39,43,9,47,35,9,41,0,0,0,0,0,0,0,0,0,0,0,0,0,0,0,0,0],"split_type":[0,0,0,0,0,0,0,0,0,0,0,0,0,0,0,0,0,0,0,0,0,0,0,0,0,0,0,0,0,0,0],"sum_hessian":[1.926E3,1.789E3,1.37E2,7.22E2,1.067E3,1.13E2,2.4E1,3.19E2,4.03E2,1.94E2,8.73E2,5.3E1,6E1,9E0,1.5E1,2.85E2,3.4E1,9.5E1,3.08E2,1.9E2,4E0,8.69E2,4E0,1.8E1,3.5E1,1.8E1,4.2E1,6E0,3E0,3E0,1.2E1],"tree_param":{"num_deleted":"0","num_feature":"81","num_nodes":"31","size_leaf_vector":"0"}},{"base_weights":[1.5103504E-1,1.0831563E-1,1.1623154E0,1.9348377E-2,2.830825E-1,9.360812E-1,1.9190334E0,-5.0904088E-2,1.2263853E-1,3.9569885E-1,1.185682E-1,6.792345E-1,1.2438737E0,1.3924229E0,2.6524155E0,-7.5293193E-3,1.0023354E-2,3.7347842E-2,1.0341167E-2,3.8370576E-2,2.4105786E-1,6.2769926E-3,5.349629E-2,7.461424E-2,-4.2564035E-3,3.0410767E-3,1.2893759E-1,3.219842E-2,1.5743123E-1,6.7524694E-2,2.9128E-1],"categories":[],"categories_nodes":[],"categories_segments":[],"categories_sizes":[],"default_left":[false,false,false,false,false,false,false,false,false,false,false,false,false,false,false,false,false,false,false,false,false,false,false,false,false,false,false,false,false,false,false],"id":16,"left_children":[1,3,5,7,9,11,13,15,17,19,21,23,25,27,29,-1,-1,-1,-1,-1,-1,-1,-1,-1,-1,-1,-1,-1,-1,-1,-1],"loss_changes":[8.3123E1,2.8759296E1,1.1556877E1,8.909831E0,1.1513931E1,4.0565605E0,2.8722305E0,2.7020936E0,2.3583407E0,8.01598E0,5.891117E0,1.7703419E0,1.4515953E0,1.8295135E0,1.1220856E0,0E0,0E0,0E0,0E0,0E0,0E0,0E0,0E0,0E0,0E0,0E0,0E0,0E0,0E0,0E0,0E0],"parents":[2147483647,0,0,1,1,2,2,3,3,4,4,5,5,6,6,7,7,8,8,9,9,10,10,11,11,12,12,13,13,14,14],"right_children":[2,4,6,8,10,12,14,16,18,20,22,24,26,28,30,-1,-1,-1,-1,-1,-1,-1,-1,-1,-1,-1,-1,-1,-1,-1,-1],"split_conditions":[1.641532E2,1.147521E2,3.789761E1,9.953912E1,7.718256E2,2.234419E1,2.383114E1,2.2377803E0,7.56E-2,1.2752048E3,3.03216E1,1.941149E0,1.735497E0,1.0169E1,4E-2,-7.5293193E-3,1.0023354E-2,3.7347842E-2,1.0341167E-2,3.8370576E-2,2.4105786E-1,6.2769926E-3,5.349629E-2,7.461424E-2,-4.2564035E-3,3.0410767E-3,1.2893759E-1,3.219842E-2,1.5743123E-1,6.7524694E-2,2.9128E-1],"split_indices":[35,26,73,35,38,36,36,25,19,47,18,31,30,11,4,0,0,0,0,0,0,0,0,0,0,0,0,0,0,0,0],"split_type":[0,0,0,0,0,0,0,0,0,0,0,0,0,0,0,0,0,0,0,0,0,0,0,0,0,0,0,0,0,0,0],"sum_hessian":[1.926E3,1.849E3,7.7E1,1.226E3,6.23E2,6.1E1,1.6E1,7.3E2,4.96E2,3.69E2,2.54E2,3.5E1,2.6E1,1.1E1,5E0,6.29E2,1.01E2,3.4E1,4.62E2,3.68E2,1E0,2.25E2,2.9E1,3.2E1,3E0,1E0,2.5E1,2E0,9E0,1E0,4E0],"tree_param":{"num_deleted":"0","num_feature":"81","num_nodes":"31","size_leaf_vector":"0"}},{"base_weights":[1.3652322E-1,8.342209E-2,8.243094E-1,2.0265041E-3,2.1256995E-1,6.4687246E-1,1.6004494E0,-1.9965248E-2,2.6461008E-1,1.8477376E-1,5.442112E-1,3.668698E-1,8.598922E-1,2.0294678E0,9.6655726E-1,8.008996E-2,-2.5640263E-3,2.132352E-2,2.2900496E-1,8.446825E-3,2.408367E-2,3.995942E-2,7.819682E-2,4.5027822E-2,-4.905432E-2,1.5713839E-1,7.449479E-2,2.210959E-1,6.270139E-2,4.4810433E-2,1.0895856E-1],"categories":[],"categories_nodes":[],"categories_segments":[],"categories_sizes":[],"default_left":[false,false,false,false,false,false,false,false,false,false,false,false,false,false,false,false,false,false,false,false,false,false,false,false,false,false,false,false,false,false,false],"id":17,"left_children":[1,3,5,7,9,11,13,15,17,19,21,23,25,27,29,-1,-1,-1,-1,-1,-1,-1,-1,-1,-1,-1,-1,-1,-1,-1,-1],"loss_changes":[7.0309555E1,1.8816166E1,1.7969505E1,6.3516483E0,6.278549E0,6.4841843E0,4.8371887E0,4.7488303E0,8.3565E0,3.5786476E0,1.5098658E0,3.8681688E0,4.063446E0,2.1771584E0,2.771654E-1,0E0,0E0,0E0,0E0,0E0,0E0,0E0,0E0,0E0,0E0,0E0,0E0,0E0,0E0,0E0,0E0],"parents":[2147483647,0,0,1,1,2,2,3,3,4,4,5,5,6,6,7,7,8,8,9,9,10,10,11,11,12,12,13,13,14,14],"right_children":[2,4,6,8,10,12,14,16,18,20,22,24,26,28,30,-1,-1,-1,-1,-1,-1,-1,-1,-1,-1,-1,-1,-1,-1,-1,-1],"split_conditions":[1.512121E2,6.600533E0,2.863547E2,1.342523E2,1.016154E1,1.3702E0,2.38E0,1.0780755E0,1.2752048E3,4.34926E1,1.251548E2,2.766261E0,1.058697E2,8.93398E1,2.8E-3,8.008996E-2,-2.5640263E-3,2.132352E-2,2.2900496E-1,8.446825E-3,2.408367E-2,3.995942E-2,7.819682E-2,4.5027822E-2,-4.905432E-2,1.5713839E-1,7.449479E-2,2.210959E-1,6.270139E-2,4.4810433E-2,1.0895856E-1],"split_indices":[26,37,26,26,37,12,18,65,47,69,26,48,24,9,0,0,0,0,0,0,0,0,0,0,0,0,0,0,0,0,0],"split_type":[0,0,0,0,0,0,0,0,0,0,0,0,0,0,0,0,0,0,0,0,0,0,0,0,0,0,0,0,0,0,0],"sum_hessian":[1.926E3,1.789E3,1.37E2,1.098E3,6.91E2,1.13E2,2.4E1,1.014E3,8.4E1,6.39E2,5.2E1,5E1,6.3E1,1.3E1,1.1E1,6E0,1.008E3,8.3E1,1E0,2.3E2,4.09E2,3.4E1,1.8E1,4.6E1,4E0,7E0,5.6E1,1.1E1,2E0,3E0,8E0],"tree_param":{"num_deleted":"0","num_feature":"81","num_nodes":"31","size_leaf_vector":"0"}},{"base_weights":[1.2346442E-1,9.362062E-2,1.1375366E0,1.3214175E-2,2.4596234E-1,8.7206465E-1,1.6796468E0,-7.740512E-2,6.5980546E-2,3.031955E-1,-2.1439817E-2,9.849871E-1,3.862135E-1,1.76833E0,1.3035822E-2,1.6092446E-2,-8.708908E-3,2.7975996E-3,1.5720211E-2,5.2621823E-2,2.5047382E-2,7.8364715E-2,-7.2945952E-3,2.4415227E-2,1.0856978E-1,-5.7673575E-3,5.212775E-2,1.8514498E-1,2.6076699E-2],"categories":[],"categories_nodes":[],"categories_segments":[],"categories_sizes":[],"default_left":[false,false,false,false,false,false,false,false,false,false,false,false,false,false,false,false,false,false,false,false,false,false,false,false,false,false,false,false,false],"id":18,"left_children":[1,3,5,7,9,11,13,15,17,19,21,23,25,27,-1,-1,-1,-1,-1,-1,-1,-1,-1,-1,-1,-1,-1,-1,-1],"loss_changes":[5.8211792E1,2.2939608E1,6.450569E0,5.872193E0,9.908363E0,1.7592602E0,2.1052094E0,1.0572202E0,2.685866E0,6.1352844E0,4.825859E0,2.0478325E0,5.696423E-1,1.5221329E0,0E0,0E0,0E0,0E0,0E0,0E0,0E0,0E0,0E0,0E0,0E0,0E0,0E0,0E0,0E0],"parents":[2147483647,0,0,1,1,2,2,3,3,4,4,5,5,6,6,7,7,8,8,9,9,10,10,11,11,12,12,13,13],"right_children":[2,4,6,8,10,12,14,16,18,20,22,24,26,28,-1,-1,-1,-1,-1,-1,-1,-1,-1,-1,-1,-1,-1,-1,-1],"split_conditions":[2.141064E2,1.147521E2,3.614381E1,6.822454E1,2.300225E1,3.085584E2,9.1201305E-1,6.258927E1,1.162169E2,1.044058E1,7.58016E1,3.774313E0,2.720805E2,2.4644E0,1.3035822E-2,1.6092446E-2,-8.708908E-3,2.7975996E-3,1.5720211E-2,5.2621823E-2,2.5047382E-2,7.8364715E-2,-7.2945952E-3,2.4415227E-2,1.0856978E-1,-5.7673575E-3,5.212775E-2,1.8514498E-1,2.6076699E-2],"split_indices":[26,26,73,26,28,74,47,34,35,43,24,57,33,1,0,0,0,0,0,0,0,0,0,0,0,0,0,0,0],"split_type":[0,0,0,0,0,0,0,0,0,0,0,0,0,0,0,0,0,0,0,0,0,0,0,0,0,0,0,0,0],"sum_hessian":[1.926E3,1.872E3,5.4E1,1.226E3,6.46E2,3.8E1,1.6E1,4.51E2,7.75E2,5.32E2,1.14E2,3E1,8E0,1.5E1,1E0,1.7E1,4.34E2,5.48E2,2.27E2,1E2,4.32E2,6E0,1.08E2,4E0,2.6E1,2E0,6E0,1.4E1,1E0],"tree_param":{"num_deleted":"0","num_feature":"81","num_nodes":"29","size_leaf_vector":"0"}},{"base_weights":[1.11418046E-1,6.733224E-2,6.824484E-1,-4.8010803E-5,1.742449E-1,5.3194064E-1,1.3414658E0,-6.2063066E-3,8.405654E-1,1.4957352E-1,4.688756E-1,2.9053253E-1,7.3692584E-1,1.9934199E0,9.7718257E-1,-1.8831693E-3,3.6466144E-2,2.1630235E-1,3.4263942E-2,6.1174966E-3,1.9901376E-2,5.7606906E-2,2.2843998E-2,-1.5376427E-3,4.4391412E-2,1.14367686E-1,5.914324E-2,2.2074147E-1,2.4772858E-2,1.1723738E-1,5.8664687E-2],"categories":[],"categories_nodes":[],"categories_segments":[],"categories_sizes":[],"default_left":[false,false,false,false,false,false,false,false,false,false,false,false,false,false,false,false,false,false,false,false,false,false,false,false,false,false,false,false,false,false,false],"id":19,"left_children":[1,3,5,7,9,11,13,15,17,19,21,23,25,27,29,-1,-1,-1,-1,-1,-1,-1,-1,-1,-1,-1,-1,-1,-1,-1,-1],"loss_changes":[4.8464993E1,1.2894811E1,1.2974258E1,5.6944604E0,4.959976E0,5.4272003E0,3.9894638E0,5.1199913E0,4.5267525E0,2.7849102E0,1.2343788E0,2.5405493E0,2.933548E0,2.4417076E0,6.843548E-1,0E0,0E0,0E0,0E0,0E0,0E0,0E0,0E0,0E0,0E0,0E0,0E0,0E0,0E0,0E0,0E0],"parents":[2147483647,0,0,1,1,2,2,3,3,4,4,5,5,6,6,7,7,8,8,9,9,10,10,11,11,12,12,13,13,14,14],"right_children":[2,4,6,8,10,12,14,16,18,20,22,24,26,28,30,-1,-1,-1,-1,-1,-1,-1,-1,-1,-1,-1,-1,-1,-1,-1,-1],"split_conditions":[1.512121E2,6.600533E0,2.863547E2,1.2752048E3,1.016154E1,2.491558E1,6.4627385E-1,2.37502E2,4E-2,4.34926E1,2.549715E-1,1.002053E2,1.008817E1,2.4644E0,2.771518E2,-1.8831693E-3,3.6466144E-2,2.1630235E-1,3.4263942E-2,6.1174966E-3,1.9901376E-2,5.7606906E-2,2.2843998E-2,-1.5376427E-3,4.4391412E-2,1.14367686E-1,5.914324E-2,2.2074147E-1,2.4772858E-2,1.1723738E-1,5.8664687E-2],"split_indices":[26,37,26,47,37,73,41,0,8,69,59,35,68,1,74,0,0,0,0,0,0,0,0,0,0,0,0,0,0,0,0],"split_type":[0,0,0,0,0,0,0,0,0,0,0,0,0,0,0,0,0,0,0,0,0,0,0,0,0,0,0,0,0,0,0],"sum_hessian":[1.926E3,1.789E3,1.37E2,1.098E3,6.91E2,1.13E2,2.4E1,1.091E3,7E0,6.39E2,5.2E1,5.3E1,6E1,7E0,1.7E1,1.056E3,3.5E1,1E0,6E0,2.3E2,4.09E2,3.5E1,1.7E1,1.8E1,3.5E1,1.4E1,4.6E1,6E0,1E0,1E1,7E0],"tree_param":{"num_deleted":"0","num_feature":"81","num_nodes":"31","size_leaf_vector":"0"}},{"base_weights":[1.0081044E-1,7.108512E-2,8.0454165E-1,9.310328E-3,1.9913432E-1,6.2450796E-1,1.369959E0,-6.462409E-2,5.7933886E-2,2.505523E-1,-2.0788338E-2,4.2592046E-1,8.588063E-1,9.961731E-1,1.9515021E0,-1.002118E-2,6.5692067E-3,5.045386E-3,4.8041444E-2,2.3469072E-2,9.852675E-2,6.927811E-2,-6.642318E-3,2.7895639E-2,7.212096E-2,4.445518E-2,1.0098318E-1,2.1974063E-2,1.1173662E-1,4.0903162E-2,2.1781898E-1],"categories":[],"categories_nodes":[],"categories_segments":[],"categories_sizes":[],"default_left":[false,false,false,false,false,false,false,false,false,false,false,false,false,false,false,false,false,false,false,false,false,false,false,false,false,false,false,false,false,false,false],"id":20,"left_children":[1,3,5,7,9,11,13,15,17,19,21,23,25,27,29,-1,-1,-1,-1,-1,-1,-1,-1,-1,-1,-1,-1,-1,-1,-1,-1],"loss_changes":[4.025302E1,1.4632039E1,7.0843964E0,4.4938426E0,6.8126125E0,2.4724712E0,1.9686737E0,2.306859E0,2.3585267E0,5.455799E0,3.7908337E0,1.3177052E0,1.2402763E0,9.77746E-1,1.2070065E0,0E0,0E0,0E0,0E0,0E0,0E0,0E0,0E0,0E0,0E0,0E0,0E0,0E0,0E0,0E0,0E0],"parents":[2147483647,0,0,1,1,2,2,3,3,4,4,5,5,6,6,7,7,8,8,9,9,10,10,11,11,12,12,13,13,14,14],"right_children":[2,4,6,8,10,12,14,16,18,20,22,24,26,28,30,-1,-1,-1,-1,-1,-1,-1,-1,-1,-1,-1,-1,-1,-1,-1,-1],"split_conditions":[1.641532E2,1.15347E2,3.692465E1,8.03236E1,2.300225E1,2.234419E1,2.383114E1,1.9978836E0,3.974863E1,3.4336E1,7.58016E1,6.985E-2,3.204211E1,1.0169E1,4E-2,-1.002118E-2,6.5692067E-3,5.045386E-3,4.8041444E-2,2.3469072E-2,9.852675E-2,6.927811E-2,-6.642318E-3,2.7895639E-2,7.212096E-2,4.445518E-2,1.0098318E-1,2.1974063E-2,1.1173662E-1,4.0903162E-2,2.1781898E-1],"split_indices":[35,26,73,35,28,36,36,25,73,11,24,22,56,11,4,0,0,0,0,0,0,0,0,0,0,0,0,0,0,0,0],"split_type":[0,0,0,0,0,0,0,0,0,0,0,0,0,0,0,0,0,0,0,0,0,0,0,0,0,0,0,0,0,0,0],"sum_hessian":[1.926E3,1.849E3,7.7E1,1.248E3,6.01E2,6E1,1.7E1,4.95E2,7.53E2,4.87E2,1.14E2,3.4E1,2.6E1,1.2E1,5E0,3.89E2,1.06E2,7.41E2,1.2E1,4.78E2,9E0,6E0,1.08E2,2.4E1,1E1,8E0,1.8E1,2E0,1E1,1E0,4E0],"tree_param":{"num_deleted":"0","num_feature":"81","num_nodes":"31","size_leaf_vector":"0"}},{"base_weights":[9.1181986E-2,5.4267764E-2,5.693362E-1,-4.6431866E-2,1.0727552E-1,4.4111887E-1,1.1312336E0,-5.773584E-2,1.4942867E-1,1.8480478E-1,4.352319E-2,2.1515007E-1,6.142953E-1,1.6975543E0,8.166891E-1,-6.5633147E-3,1.3808668E-2,2.0832762E-3,2.6257876E-2,2.1413853E-2,-8.26857E-3,-3.7150376E-3,1.2208999E-2,-1.4260392E-2,3.6817547E-2,1.2701274E-1,5.114716E-2,2.0142274E-1,4.9835674E-2,9.950747E-2,4.693227E-2],"categories":[],"categories_nodes":[],"categories_segments":[],"categories_sizes":[],"default_left":[false,false,false,false,false,false,false,false,false,false,false,false,false,false,false,false,false,false,false,false,false,false,false,false,false,false,false,false,false,false,false],"id":21,"left_children":[1,3,5,7,9,11,13,15,17,19,21,23,25,27,29,-1,-1,-1,-1,-1,-1,-1,-1,-1,-1,-1,-1,-1,-1,-1,-1],"loss_changes":[3.3981987E1,9.559753E0,9.443195E0,1.376881E0,5.78971E0,4.3289337E0,3.0669556E0,9.13748E-1,4.8925143E-1,4.168501E0,4.092716E0,2.8445206E0,3.666214E0,2.0342255E0,6.483631E-1,0E0,0E0,0E0,0E0,0E0,0E0,0E0,0E0,0E0,0E0,0E0,0E0,0E0,0E0,0E0,0E0],"parents":[2147483647,0,0,1,1,2,2,3,3,4,4,5,5,6,6,7,7,8,8,9,9,10,10,11,11,12,12,13,13,14,14],"right_children":[2,4,6,8,10,12,14,16,18,20,22,24,26,28,30,-1,-1,-1,-1,-1,-1,-1,-1,-1,-1,-1,-1,-1,-1,-1,-1],"split_conditions":[1.512121E2,8.119914E1,2.863547E2,5.756611E1,1.19752E1,1.3702E0,6.4627385E-1,6.456683E-1,4.0494487E-1,1.480009E0,4.727336E1,1.8093979E0,1.058697E2,2.2E-1,2.771518E2,-6.5633147E-3,1.3808668E-2,2.0832762E-3,2.6257876E-2,2.1413853E-2,-8.26857E-3,-3.7150376E-3,1.2208999E-2,-1.4260392E-2,3.6817547E-2,1.2701274E-1,5.114716E-2,2.0142274E-1,4.9835674E-2,9.950747E-2,4.693227E-2],"split_indices":[26,26,26,39,17,12,41,40,72,31,69,25,24,4,74,0,0,0,0,0,0,0,0,0,0,0,0,0,0,0,0],"split_type":[0,0,0,0,0,0,0,0,0,0,0,0,0,0,0,0,0,0,0,0,0,0,0,0,0,0,0,0,0,0,0],"sum_hessian":[1.926E3,1.789E3,1.37E2,6.17E2,1.172E3,1.13E2,2.4E1,5.84E2,3.3E1,5.28E2,6.44E2,5E1,6.3E1,7E0,1.7E1,5.62E2,2.2E1,1.6E1,1.7E1,4.76E2,5.2E1,3.18E2,3.26E2,1.5E1,3.5E1,7E0,5.6E1,5E0,2E0,1E1,7E0],"tree_param":{"num_deleted":"0","num_feature":"81","num_nodes":"31","size_leaf_vector":"0"}},{"base_weights":[8.240403E-2,5.7344243E-2,6.757144E-1,5.6432458E-3,1.6451567E-1,5.182762E-1,1.1717153E0,-2.9792579E-2,7.9834E-2,3.940856E-1,1.254903E-1,4.0343073E-1,8.1606466E-1,8.574358E-1,1.6573683E0,-3.8446528E-3,3.295378E-2,2.918199E-2,6.2662237E-3,4.993919E-2,-2.4376504E-2,-4.0744804E-2,1.4116475E-2,8.2147144E-2,2.938045E-2,1.00369215E-1,2.0254565E-2,1.7143035E-2,9.6657954E-2,3.65114E-2,1.8427964E-1],"categories":[],"categories_nodes":[],"categories_segments":[],"categories_sizes":[],"default_left":[false,false,false,false,false,false,false,false,false,false,false,false,false,false,false,false,false,false,false,false,false,false,false,false,false,false,false,false,false,false,false],"id":22,"left_children":[1,3,5,7,9,11,13,15,17,19,21,23,25,27,29,-1,-1,-1,-1,-1,-1,-1,-1,-1,-1,-1,-1,-1,-1,-1,-1],"loss_changes":[2.8612335E1,1.0249681E1,5.4837112E0,3.2860126E0,5.343895E0,1.7569542E0,1.3262653E0,2.6434133E0,1.4523432E0,5.965497E0,4.367937E0,1.8667464E0,1.6385155E0,8.0765057E-1,7.648926E-1,0E0,0E0,0E0,0E0,0E0,0E0,0E0,0E0,0E0,0E0,0E0,0E0,0E0,0E0,0E0,0E0],"parents":[2147483647,0,0,1,1,2,2,3,3,4,4,5,5,6,6,7,7,8,8,9,9,10,10,11,11,12,12,13,13,14,14],"right_children":[2,4,6,8,10,12,14,16,18,20,22,24,26,28,30,-1,-1,-1,-1,-1,-1,-1,-1,-1,-1,-1,-1,-1,-1,-1,-1],"split_conditions":[1.641532E2,1.15347E2,3.692465E1,1.05645E2,1.83E-1,2.297513E1,2.383114E1,9.19796E2,7E-2,2.4726966E-1,2.9118875E-1,2.4329E2,6.2184E0,1.0169E1,4E-2,-3.8446528E-3,3.295378E-2,2.918199E-2,6.2662237E-3,4.993919E-2,-2.4376504E-2,-4.0744804E-2,1.4116475E-2,8.2147144E-2,2.938045E-2,1.00369215E-1,2.0254565E-2,1.7143035E-2,9.6657954E-2,3.65114E-2,1.8427964E-1],"split_indices":[35,26,73,35,19,36,36,20,19,48,41,74,10,11,4,0,0,0,0,0,0,0,0,0,0,0,0,0,0,0,0],"split_type":[0,0,0,0,0,0,0,0,0,0,0,0,0,0,0,0,0,0,0,0,0,0,0,0,0,0,0,0,0,0,0],"sum_hessian":[1.926E3,1.849E3,7.7E1,1.248E3,6.01E2,6E1,1.7E1,8.45E2,4.03E2,8.6E1,5.15E2,4.5E1,1.5E1,1.2E1,5E0,8.26E2,1.9E1,2.9E1,3.74E2,7.4E1,1.2E1,1.4E1,5.01E2,8E0,3.7E1,1.1E1,4E0,2E0,1E1,1E0,4E0],"tree_param":{"num_deleted":"0","num_feature":"81","num_nodes":"31","size_leaf_vector":"0"}},{"base_weights":[7.4490674E-2,5.5341575E-2,7.2525E-1,7.652633E-3,1.6164184E-1,5.400634E-1,1.1074282E0,-7.9841865E-3,1.6803345E-1,2.0965146E-1,-3.862489E-2,6.294293E-1,1.7224044E-1,1.4846591E0,6.9490063E-1,-1.9449927E-3,1.9908272E-2,2.3287835E-2,4.978215E-3,1.8872654E-2,6.689334E-2,5.5768866E-2,-7.7275075E-3,8.249483E-3,7.0740126E-2,-1.45504E-2,2.8381085E-2,3.9073136E-2,1.5851156E-1,8.0862515E-2,1.600016E-2],"categories":[],"categories_nodes":[],"categories_segments":[],"categories_sizes":[],"default_left":[false,false,false,false,false,false,false,false,false,false,false,false,false,false,false,false,false,false,false,false,false,false,false,false,false,false,false,false,false,false,false],"id":23,"left_children":[1,3,5,7,9,11,13,15,17,19,21,23,25,27,29,-1,-1,-1,-1,-1,-1,-1,-1,-1,-1,-1,-1,-1,-1,-1,-1],"loss_changes":[2.397308E1,9.4936495E0,3.2945042E0,3.2464945E0,5.5846415E0,1.1735497E0,1.6138191E0,2.8053992E0,8.7022614E-1,4.371439E0,2.6474774E0,1.2636547E0,3.603535E-1,2.597828E-1,4.7893E-1,0E0,0E0,0E0,0E0,0E0,0E0,0E0,0E0,0E0,0E0,0E0,0E0,0E0,0E0,0E0,0E0],"parents":[2147483647,0,0,1,1,2,2,3,3,4,4,5,5,6,6,7,7,8,8,9,9,10,10,11,11,12,12,13,13,14,14],"right_children":[2,4,6,8,10,12,14,16,18,20,22,24,26,28,30,-1,-1,-1,-1,-1,-1,-1,-1,-1,-1,-1,-1,-1,-1,-1,-1],"split_conditions":[2.141064E2,1.170049E2,3.614381E1,8.794827E0,2.300225E1,3.085584E2,5.271254E0,6.061209E1,2.252996E0,2.71354E1,7.58016E1,3.774313E0,2.720805E2,9.8E-3,2.815478E2,-1.9449927E-3,1.9908272E-2,2.3287835E-2,4.978215E-3,1.8872654E-2,6.689334E-2,5.5768866E-2,-7.7275075E-3,8.249483E-3,7.0740126E-2,-1.45504E-2,2.8381085E-2,3.9073136E-2,1.5851156E-1,8.0862515E-2,1.600016E-2],"split_indices":[26,26,73,37,28,74,53,39,30,11,24,57,33,1,33,0,0,0,0,0,0,0,0,0,0,0,0,0,0,0,0],"split_type":[0,0,0,0,0,0,0,0,0,0,0,0,0,0,0,0,0,0,0,0,0,0,0,0,0,0,0,0,0,0,0],"sum_hessian":[1.926E3,1.872E3,5.4E1,1.293E3,5.79E2,3.8E1,1.6E1,1.179E3,1.14E2,4.67E2,1.12E2,3E1,8E0,7E0,9E0,1.118E3,6.1E1,7.3E1,4.1E1,4.48E2,1.9E1,6E0,1.06E2,4E0,2.6E1,2E0,6E0,1E0,6E0,7E0,2E0],"tree_param":{"num_deleted":"0","num_feature":"81","num_nodes":"31","size_leaf_vector":"0"}},{"base_weights":[6.7336E-2,2.6581215E-2,3.308754E-1,-1.6149914E-2,1.0586228E-1,2.528806E-1,7.4962497E-1,6.7064536E-1,-2.0586412E-2,1.4784129E-1,-2.4924839E-2,2.3593038E-1,1.9740146E-1,8.91582E-1,3.4409332E-1,2.363893E-2,1.6380909E-1,-2.7428514E-3,3.8462143E-2,1.1910318E-2,3.3286378E-2,6.962087E-2,-4.009133E-3,2.7588889E-2,-5.4109693E-2,1.002895E-1,3.984706E-2,1.0436326E-2,6.588428E-2],"categories":[],"categories_nodes":[],"categories_segments":[],"categories_sizes":[],"default_left":[false,false,false,false,false,false,false,false,false,false,false,false,false,false,false,false,false,false,false,false,false,false,false,false,false,false,false,false,false],"id":24,"left_children":[1,3,5,7,9,11,13,15,17,19,21,23,-1,25,27,-1,-1,-1,-1,-1,-1,-1,-1,-1,-1,-1,-1,-1,-1],"loss_changes":[2.0688133E1,5.659285E0,8.236788E0,3.3228102E0,3.2155175E0,5.9232883E0,1.9959354E0,2.5536067E0,3.0048206E0,2.3158722E0,1.5919124E0,6.9179325E0,0E0,1.1921787E0,8.3669996E-1,0E0,0E0,0E0,0E0,0E0,0E0,0E0,0E0,0E0,0E0,0E0,0E0,0E0,0E0],"parents":[2147483647,0,0,1,1,2,2,3,3,4,4,5,5,6,6,7,7,8,8,9,9,10,10,11,11,13,13,14,14],"right_children":[2,4,6,8,10,12,14,16,18,20,22,24,-1,26,28,-1,-1,-1,-1,-1,-1,-1,-1,-1,-1,-1,-1,-1,-1],"split_conditions":[1.347506E2,6.986447E0,2.234419E1,1.0780755E0,5.323654E0,1.2752048E3,9.1201305E-1,7.63678E1,9.61634E2,3.197466E1,3.977463E-2,7.2175055E2,1.9740146E-1,9.59951E0,2.863547E2,2.363893E-2,1.6380909E-1,-2.7428514E-3,3.8462143E-2,1.1910318E-2,3.3286378E-2,6.962087E-2,-4.009133E-3,2.7588889E-2,-5.4109693E-2,1.002895E-1,3.984706E-2,1.0436326E-2,6.588428E-2],"split_indices":[26,37,36,65,66,47,47,9,20,39,29,47,0,27,26,0,0,0,0,0,0,0,0,0,0,0,0,0,0],"split_type":[0,0,0,0,0,0,0,0,0,0,0,0,0,0,0,0,0,0,0,0,0,0,0,0,0,0,0,0,0],"sum_hessian":[1.926E3,1.669E3,2.57E2,1.085E3,5.84E2,2.18E2,3.9E1,6E0,1.079E3,4.42E2,1.42E2,2.17E2,1E0,2.8E1,1.1E1,5E0,1E0,1.062E3,1.7E1,3.84E2,5.8E1,2E0,1.4E2,2.07E2,1E1,2.2E1,6E0,7E0,4E0],"tree_param":{"num_deleted":"0","num_feature":"81","num_nodes":"29","size_leaf_vector":"0"}},{"base_weights":[6.0976736E-2,3.4820847E-2,3.9980325E-1,-4.5515954E-2,7.096048E-2,3.0672997E-1,8.082254E-1,-4.994271E-2,5.778618E-1,4.6547946E-2,1.8527111E-1,1.1799356E-1,4.5233664E-1,1.2672637E0,5.593069E-1,-5.5046687E-3,3.560312E-2,-6.314747E-3,1.2504448E-1,4.343234E-2,3.795315E-3,1.2501376E-2,3.693691E-2,1.8875713E-2,-4.4419266E-2,1.05284415E-1,3.6011916E-2,1.5245901E-1,3.301894E-2,7.183447E-2,2.7071673E-2],"categories":[],"categories_nodes":[],"categories_segments":[],"categories_sizes":[],"default_left":[false,false,false,false,false,false,false,false,false,false,false,false,false,false,false,false,false,false,false,false,false,false,false,false,false,false,false,false,false,false,false],"id":25,"left_children":[1,3,5,7,9,11,13,15,17,19,21,23,25,27,29,-1,-1,-1,-1,-1,-1,-1,-1,-1,-1,-1,-1,-1,-1,-1,-1],"loss_changes":[1.7063747E1,5.2002125E0,4.9979115E0,1.5631644E0,3.4377818E0,3.0794935E0,2.147787E0,1.165459E0,1.8034902E0,3.3796918E0,2.361061E0,2.1127417E0,3.164997E0,1.4256687E0,6.3167334E-1,0E0,0E0,0E0,0E0,0E0,0E0,0E0,0E0,0E0,0E0,0E0,0E0,0E0,0E0,0E0,0E0],"parents":[2147483647,0,0,1,1,2,2,3,3,4,4,5,5,6,6,7,7,8,8,9,9,10,10,11,11,12,12,13,13,14,14],"right_children":[2,4,6,8,10,12,14,16,18,20,22,24,26,28,30,-1,-1,-1,-1,-1,-1,-1,-1,-1,-1,-1,-1,-1,-1,-1,-1],"split_conditions":[1.512121E2,9.989164E0,2.863547E2,1.300316E0,2.986238E0,1.3702E0,6.4627385E-1,1.9213E1,2.682E-1,2.134502E-1,3.275054E1,2.7447488E0,1.058697E2,2.2E-1,2.771518E2,-5.5046687E-3,3.560312E-2,-6.314747E-3,1.2504448E-1,4.343234E-2,3.795315E-3,1.2501376E-2,3.693691E-2,1.8875713E-2,-4.4419266E-2,1.05284415E-1,3.6011916E-2,1.5245901E-1,3.301894E-2,7.183447E-2,2.7071673E-2],"split_indices":[26,36,26,49,60,12,41,5,0,37,39,48,24,4,74,0,0,0,0,0,0,0,0,0,0,0,0,0,0,0,0],"split_type":[0,0,0,0,0,0,0,0,0,0,0,0,0,0,0,0,0,0,0,0,0,0,0,0,0,0,0,0,0,0,0],"sum_hessian":[1.926E3,1.789E3,1.37E2,5.55E2,1.234E3,1.13E2,2.4E1,5.52E2,3E0,1.018E3,2.16E2,5E1,6.3E1,7E0,1.7E1,5.46E2,6E0,2E0,1E0,2.1E1,9.97E2,1.64E2,5.2E1,4.5E1,5E0,7E0,5.6E1,5E0,2E0,1E1,7E0],"tree_param":{"num_deleted":"0","num_feature":"81","num_nodes":"31","size_leaf_vector":"0"}},{"base_weights":[5.521412E-2,2.022479E-2,2.736241E-1,-1.5707841E-2,8.6754836E-2,5.464615E-1,1.8085541E-1,6.2710595E-1,-1.9882878E-2,1.236547E-1,-2.8713446E-2,6.4512223E-1,1.2688036E-1,1.6293593E-1,1.8734162E-1,-3.8592622E-3,1.1360281E-1,-2.6672618E-3,2.9153839E-2,4.2144055E-3,1.7444393E-2,8.15731E-2,-4.048774E-3,9.873664E-2,4.8817277E-2,-2.3589557E-2,2.472643E-2,2.188647E-2,-5.917558E-2],"categories":[],"categories_nodes":[],"categories_segments":[],"categories_sizes":[],"default_left":[false,false,false,false,false,false,false,false,false,false,false,false,false,false,false,false,false,false,false,false,false,false,false,false,false,false,false,false,false],"id":26,"left_children":[1,3,5,7,9,11,13,15,17,19,21,23,25,27,-1,-1,-1,-1,-1,-1,-1,-1,-1,-1,-1,-1,-1,-1,-1],"loss_changes":[1.4720635E1,3.9745395E0,6.633835E0,2.9109411E0,2.487576E0,2.6916885E0,5.760716E0,2.4153636E0,2.2787158E0,1.8224664E0,1.4448957E0,2.4186058E0,6.697421E-1,8.5291E0,0E0,0E0,0E0,0E0,0E0,0E0,0E0,0E0,0E0,0E0,0E0,0E0,0E0,0E0,0E0],"parents":[2147483647,0,0,1,1,2,2,3,3,4,4,5,5,6,6,7,7,8,8,9,9,10,10,11,11,12,12,13,13],"right_children":[2,4,6,8,10,12,14,16,18,20,22,24,26,28,-1,-1,-1,-1,-1,-1,-1,-1,-1,-1,-1,-1,-1,-1,-1],"split_conditions":[1.342523E2,6.986447E0,1.009725E1,1.0780755E0,5.323654E0,2.16E-2,1.2752048E3,1.7649975E0,9.19796E2,1.048961E2,2.35282E-2,6.4627385E-1,6E-2,1.274117E3,1.8734162E-1,-3.8592622E-3,1.1360281E-1,-2.6672618E-3,2.9153839E-2,4.2144055E-3,1.7444393E-2,8.15731E-2,-4.048774E-3,9.873664E-2,4.8817277E-2,-2.3589557E-2,2.472643E-2,2.188647E-2,-5.917558E-2],"split_indices":[26,37,43,65,66,14,47,25,20,26,29,41,4,71,0,0,0,0,0,0,0,0,0,0,0,0,0,0,0],"split_type":[0,0,0,0,0,0,0,0,0,0,0,0,0,0,0,0,0,0,0,0,0,0,0,0,0,0,0,0,0],"sum_hessian":[1.926E3,1.661E3,2.65E2,1.079E3,5.82E2,6.6E1,1.99E2,6E0,1.073E3,4.41E2,1.41E2,5.3E1,1.3E1,1.98E2,1E0,3E0,3E0,1.051E3,2.2E1,1.7E2,2.71E2,1E0,1.4E2,1.5E1,3.8E1,3E0,1E1,1.85E2,1.3E1],"tree_param":{"num_deleted":"0","num_feature":"81","num_nodes":"29","size_leaf_vector":"0"}},{"base_weights":[4.9969908E-2,2.1170149E-2,2.733336E-1,9.451908E-2,-1.5845787E-2,2.185856E-1,6.9162476E-1,7.422547E-2,3.100216E-1,-8.251957E-2,1.4318152E-2,1.17678285E-1,3.0855358E-1,9.383545E-1,3.4613803E-1,4.497663E-3,2.1896144E-2,1.4068842E-2,1.3059226E-1,-7.457584E-3,-6.2207647E-2,3.465911E-2,7.377156E-4,4.6743364E-3,2.306639E-2,8.537507E-4,3.556512E-2,1.0506164E-1,1.7652195E-2,5.373707E-2,1.8335039E-2],"categories":[],"categories_nodes":[],"categories_segments":[],"categories_sizes":[],"default_left":[false,false,false,false,false,false,false,false,false,false,false,false,false,false,false,false,false,false,false,false,false,false,false,false,false,false,false,false,false,false,false],"id":27,"left_children":[1,3,5,7,9,11,13,15,17,19,21,23,25,27,29,-1,-1,-1,-1,-1,-1,-1,-1,-1,-1,-1,-1,-1,-1,-1,-1],"loss_changes":[1.2390261E1,4.6388526E0,4.8869553E0,2.4829035E0,2.2858412E0,1.743062E0,1.8062458E0,2.212665E0,8.079588E0,1.4708848E0,1.8032801E0,7.425928E-1,1.4523582E0,1.0118904E0,2.7503657E-1,0E0,0E0,0E0,0E0,0E0,0E0,0E0,0E0,0E0,0E0,0E0,0E0,0E0,0E0,0E0,0E0],"parents":[2147483647,0,0,1,1,2,2,3,3,4,4,5,5,6,6,7,7,8,8,9,9,10,10,11,11,12,12,13,13,14,14],"right_children":[2,4,6,8,10,12,14,16,18,20,22,24,26,28,30,-1,-1,-1,-1,-1,-1,-1,-1,-1,-1,-1,-1,-1,-1,-1,-1],"split_conditions":[1.386829E2,3.849498E2,2.863547E2,1.393227E2,7.735511E1,1.262475E2,2.38E0,2.0876E0,2.24924E1,7.22668E1,1.302722E0,2.195657E0,2.6E-1,8.93398E1,3.469388E-1,4.497663E-3,2.1896144E-2,1.4068842E-2,1.3059226E-1,-7.457584E-3,-6.2207647E-2,3.465911E-2,7.377156E-4,4.6743364E-3,2.306639E-2,8.537507E-4,3.556512E-2,1.0506164E-1,1.7652195E-2,5.373707E-2,1.8335039E-2],"split_indices":[35,24,26,26,35,26,18,6,11,9,37,60,3,9,72,0,0,0,0,0,0,0,0,0,0,0,0,0,0,0,0],"split_type":[0,0,0,0,0,0,0,0,0,0,0,0,0,0,0,0,0,0,0,0,0,0,0,0,0,0,0,0,0,0,0],"sum_hessian":[1.926E3,1.707E3,2.19E2,5.72E2,1.135E3,1.95E2,2.4E1,5.24E2,4.8E1,3.53E2,7.82E2,9.3E1,1.02E2,1.3E1,1.1E1,4.37E2,8.7E1,4.2E1,6E0,3.49E2,4E0,1.5E1,7.67E2,5.8E1,3.5E1,1.4E1,8.8E1,1.1E1,2E0,4E0,7E0],"tree_param":{"num_deleted":"0","num_feature":"81","num_nodes":"31","size_leaf_vector":"0"}},{"base_weights":[4.517829E-2,3.2700684E-2,4.692761E-1,-1.1965183E-2,7.908066E-2,7.8971046E-1,3.4059823E-1,-2.7945193E-2,2.0024668E-1,-3.2445514E-1,8.659011E-2,8.566691E-1,-7.385516E-3,4.9972045E-1,1.8045993E-1,1.410608E-2,-4.100626E-3,7.8089586E-3,1.09139405E-1,-4.7306556E-2,1.2682298E-2,1.5193488E-3,1.3070595E-2,5.5092584E-2,1.0837086E-1,2.997179E-3,6.152844E-2,2.822732E-2,-3.29974E-3],"categories":[],"categories_nodes":[],"categories_segments":[],"categories_sizes":[],"default_left":[false,false,false,false,false,false,false,false,false,false,false,false,false,false,false,false,false,false,false,false,false,false,false,false,false,false,false,false,false],"id":28,"left_children":[1,3,5,7,9,11,13,15,17,19,21,23,-1,25,27,-1,-1,-1,-1,-1,-1,-1,-1,-1,-1,-1,-1,-1,-1],"loss_changes":[1.0181808E1,3.881057E0,1.9988308E0,3.244142E0,2.8129673E0,9.306164E-1,9.545646E-1,1.9681613E0,7.208391E0,1.2000942E0,2.8422132E0,3.7477875E-1,0E0,1.0672789E0,4.8743558E-1,0E0,0E0,0E0,0E0,0E0,0E0,0E0,0E0,0E0,0E0,0E0,0E0,0E0,0E0],"parents":[2147483647,0,0,1,1,2,2,3,3,4,4,5,5,6,6,7,7,8,8,9,9,10,10,11,11,13,13,14,14],"right_children":[2,4,6,8,10,12,14,16,18,20,22,24,-1,26,28,-1,-1,-1,-1,-1,-1,-1,-1,-1,-1,-1,-1,-1,-1],"split_conditions":[2.141064E2,1.013934E2,2.507324E2,2.500053E0,2.8118956E-1,7.72E-2,7.906209E0,2.134502E-1,1.3859511E2,1.560095E0,1.053018E2,1.026266E0,-7.385516E-3,1.002881E-1,6.195855E1,1.410608E-2,-4.100626E-3,7.8089586E-3,1.09139405E-1,-4.7306556E-2,1.2682298E-2,1.5193488E-3,1.3070595E-2,5.5092584E-2,1.0837086E-1,2.997179E-3,6.152844E-2,2.822732E-2,-3.29974E-3],"split_indices":[26,35,74,25,41,14,27,37,47,25,26,65,0,52,54,0,0,0,0,0,0,0,0,0,0,0,0,0,0],"split_type":[0,0,0,0,0,0,0,0,0,0,0,0,0,0,0,0,0,0,0,0,0,0,0,0,0,0,0,0,0],"sum_hessian":[1.926E3,1.872E3,5.4E1,9.54E2,9.18E2,1.4E1,4E1,8.88E2,6.6E1,1.6E1,9.02E2,1.3E1,1E0,1.9E1,2.1E1,6.3E1,8.25E2,5.9E1,7E0,1.2E1,4E0,3.45E2,5.57E2,7E0,6E0,4E0,1.5E1,1.4E1,7E0],"tree_param":{"num_deleted":"0","num_feature":"81","num_nodes":"29","size_leaf_vector":"0"}},{"base_weights":[4.0843375E-2,1.3854901E-2,2.0931706E-1,-2.1701658E-3,1.1165818E-1,1.1875904E-1,3.911417E-1,-1.2151918E-2,1.6409594E-1,1.6240266E-1,-1.4606351E-2,1.007759E-1,1.6598795E-1,7.8255825E-2,4.6495584E-1,-2.2521652E-3,1.7207965E-2,2.1581283E-2,-1.6023025E-3,3.58736E-2,1.2027267E-2,4.033351E-3,-1.3948764E-2,1.3766858E-2,-6.072833E-2,9.05126E-4,3.18209E-2,7.5510375E-2,3.1927507E-2],"categories":[],"categories_nodes":[],"categories_segments":[],"categories_sizes":[],"default_left":[false,false,false,false,false,false,false,false,false,false,false,false,false,false,false,false,false,false,false,false,false,false,false,false,false,false,false,false,false],"id":29,"left_children":[1,3,5,7,9,11,13,15,17,19,21,23,-1,25,27,-1,-1,-1,-1,-1,-1,-1,-1,-1,-1,-1,-1,-1,-1],"loss_changes":[8.758875E0,2.6051016E0,4.333419E0,2.3736012E0,1.5016634E0,4.793565E0,1.9960098E0,2.5810492E0,7.5798845E-1,1.3381977E0,4.7217134E-1,4.7333574E0,0E0,2.9602522E-1,2.7600107E0,0E0,0E0,0E0,0E0,0E0,0E0,0E0,0E0,0E0,0E0,0E0,0E0,0E0,0E0],"parents":[2147483647,0,0,1,1,2,2,3,3,4,4,5,5,6,6,7,7,8,8,9,9,10,10,11,11,13,13,14,14],"right_children":[2,4,6,8,10,12,14,16,18,20,22,24,-1,26,28,-1,-1,-1,-1,-1,-1,-1,-1,-1,-1,-1,-1,-1,-1],"split_conditions":[1.342523E2,2.967499E0,2.513197E1,2.0876E0,2.258917E1,1.2752048E3,9.48E-2,6.061209E1,8E1,3.2E-3,1.79082E1,7.2175055E2,1.6598795E-1,7.28199E1,9.214824E-1,-2.2521652E-3,1.7207965E-2,2.1581283E-2,-1.6023025E-3,3.58736E-2,1.2027267E-2,4.033351E-3,-1.3948764E-2,1.3766858E-2,-6.072833E-2,9.05126E-4,3.18209E-2,7.5510375E-2,3.1927507E-2],"split_indices":[26,60,73,6,68,47,7,39,50,7,13,47,0,32,31,0,0,0,0,0,0,0,0,0,0,0,0,0,0],"split_type":[0,0,0,0,0,0,0,0,0,0,0,0,0,0,0,0,0,0,0,0,0,0,0,0,0,0,0,0,0],"sum_hessian":[1.926E3,1.661E3,2.65E2,1.428E3,2.33E2,1.78E2,8.7E1,1.348E3,8E1,1.66E2,6.7E1,1.77E2,1E0,1.7E1,7E1,1.277E3,7.1E1,6.2E1,1.8E1,2.8E1,1.38E2,4.7E1,2E1,1.69E2,8E0,1.4E1,3E0,2.2E1,4.8E1],"tree_param":{"num_deleted":"0","num_feature":"81","num_nodes":"29","size_leaf_vector":"0"}},{"base_weights":[3.6931396E-2,1.4495984E-2,2.1094391E-1,1.5863001E-3,1.5469848E-1,1.6684376E-1,5.482514E-1,-1.3479282E-3,5.7282895E-1,-2.4121566E-1,1.9251806E-1,2.835813E-1,1.19296625E-1,1.1557088E-1,4.128841E-1,3.320435E-4,-3.6051106E-2,1.5768854E-1,2.0412298E-2,-5.0864E-2,6.066806E-3,2.1215037E-2,-3.485727E-2,5.5666175E-2,1.700967E-2,-1.9464673E-3,1.763834E-2,5.018114E-2,9.210936E-3],"categories":[],"categories_nodes":[],"categories_segments":[],"categories_sizes":[],"default_left":[false,false,false,false,false,false,false,false,false,false,false,false,false,false,false,false,false,false,false,false,false,false,false,false,false,false,false,false,false],"id":30,"left_children":[1,3,5,7,9,11,13,15,17,19,21,23,25,-1,27,-1,-1,-1,-1,-1,-1,-1,-1,-1,-1,-1,-1,-1,-1],"loss_changes":[7.520032E0,3.091183E0,3.181097E0,2.6239567E0,2.2025945E0,1.0540743E0,1.5785732E0,2.613502E0,2.6397345E0,1.080362E0,1.4761672E0,1.6407771E0,1.1203556E0,0E0,5.8134246E-1,0E0,0E0,0E0,0E0,0E0,0E0,0E0,0E0,0E0,0E0,0E0,0E0,0E0,0E0],"parents":[2147483647,0,0,1,1,2,2,3,3,4,4,5,5,6,6,7,7,8,8,9,9,10,10,11,11,12,12,14,14],"right_children":[2,4,6,8,10,12,14,16,18,20,22,24,26,-1,28,-1,-1,-1,-1,-1,-1,-1,-1,-1,-1,-1,-1,-1,-1],"split_conditions":[1.386829E2,1.30256E1,2.863547E2,1.2752048E3,8.870203E-2,1.008817E1,5.13E-3,7.2175055E2,4E-2,1.4554439E0,3.909E0,8.56E-2,1.568723E1,1.1557088E-1,4.0868E0,3.320435E-4,-3.6051106E-2,1.5768854E-1,2.0412298E-2,-5.0864E-2,6.066806E-3,2.1215037E-2,-3.485727E-2,5.5666175E-2,1.700967E-2,-1.9464673E-3,1.763834E-2,5.018114E-2,9.210936E-3],"split_indices":[35,3,26,47,63,68,22,47,8,25,1,16,68,0,18,0,0,0,0,0,0,0,0,0,0,0,0,0,0],"split_type":[0,0,0,0,0,0,0,0,0,0,0,0,0,0,0,0,0,0,0,0,0,0,0,0,0,0,0,0,0],"sum_hessian":[1.926E3,1.707E3,2.19E2,1.564E3,1.43E2,1.95E2,2.4E1,1.557E3,7E0,1.2E1,1.31E2,5.5E1,1.4E2,3E0,2.1E1,1.538E3,1.9E1,1E0,6E0,6E0,6E0,1.27E2,4E0,1.5E1,4E1,4.1E1,9.9E1,1.6E1,5E0],"tree_param":{"num_deleted":"0","num_feature":"81","num_nodes":"29","size_leaf_vector":"0"}},{"base_weights":[3.3418473E-2,1.0175563E-2,1.7851733E-1,5.666708E-1,7.817084E-3,1.67885E-1,1.4980412E-1,1.6393492E-1,1.491543E-1,4.8646692E-2,-2.3797074E-2,1.9607322E-1,-3.5149476E-1,-2.0172905E-2,3.9719917E-2,6.6968934E-3,-1.2323032E-2,-3.5415222E-3,1.3207345E-2,3.4592506E-2,9.521069E-3,-9.211753E-2,6.734726E-3],"categories":[],"categories_nodes":[],"categories_segments":[],"categories_sizes":[],"default_left":[false,false,false,false,false,false,false,false,false,false,false,false,false,false,false,false,false,false,false,false,false,false,false],"id":31,"left_children":[1,3,5,7,9,11,-1,13,-1,15,17,19,21,-1,-1,-1,-1,-1,-1,-1,-1,-1,-1],"loss_changes":[6.4970284E0,2.1769166E0,3.4803743E0,2.3628385E0,2.138712E0,3.9486222E0,0E0,5.919045E-1,0E0,2.2851038E0,1.6960826E0,3.7759027E0,3.402525E0,0E0,0E0,0E0,0E0,0E0,0E0,0E0,0E0,0E0,0E0],"parents":[2147483647,0,0,1,1,2,2,3,3,4,4,5,5,7,7,9,9,10,10,11,11,12,12],"right_children":[2,4,6,8,10,12,-1,14,-1,16,18,20,22,-1,-1,-1,-1,-1,-1,-1,-1,-1,-1],"split_conditions":[1.342523E2,1.0780755E0,1.2752048E3,7.63678E1,5.185301E0,5.095789E2,1.4980412E-1,4E-2,1.491543E-1,9.393298E2,6.061209E1,1.044058E1,9.866822E-2,-2.0172905E-2,3.9719917E-2,6.6968934E-3,-1.2323032E-2,-3.5415222E-3,1.3207345E-2,3.4592506E-2,9.521069E-3,-9.211753E-2,6.734726E-3],"split_indices":[26,65,47,9,66,47,0,8,0,38,39,43,63,0,0,0,0,0,0,0,0,0,0],"split_type":[0,0,0,0,0,0,0,0,0,0,0,0,0,0,0,0,0,0,0,0,0,0,0],"sum_hessian":[1.926E3,1.661E3,2.65E2,6E0,1.655E3,2.64E2,1E0,5E0,1E0,7.22E2,9.33E2,2.51E2,1.3E1,2E0,3E0,6.53E2,6.9E1,8.69E2,6.4E1,1E2,1.51E2,5E0,8E0],"tree_param":{"num_deleted":"0","num_feature":"81","num_nodes":"23","size_leaf_vector":"0"}},{"base_weights":[3.0222574E-2,1.996468E-2,3.0206466E-1,-4.1995134E-2,3.9855137E-2,2.0514208E-1,5.706664E-1,-4.6628095E-2,1.9123031E-1,3.1029508E-1,3.2932155E-2,1.4189558E-1,5.4316677E-2,8.517301E-1,2.6064235E-1,-6.7115757E-3,6.784547E-4,-2.516697E-3,3.0362343E-2,1.3248429E-2,6.0101457E-2,3.9456068E-3,-3.0657405E-2,5.581975E-3,4.4618662E-2,3.4290712E-2,9.481215E-2,5.4405928E-3,4.5599755E-2],"categories":[],"categories_nodes":[],"categories_segments":[],"categories_sizes":[],"default_left":[false,false,false,false,false,false,false,false,false,false,false,false,false,false,false,false,false,false,false,false,false,false,false,false,false,false,false,false,false],"id":32,"left_children":[1,3,5,7,9,11,13,15,17,19,21,23,-1,25,27,-1,-1,-1,-1,-1,-1,-1,-1,-1,-1,-1,-1,-1,-1],"loss_changes":[5.367461E0,2.2914896E0,1.7052822E0,4.9731356E-1,2.6240377E0,1.0560074E0,1.3464603E0,4.863246E-1,2.2653538E-1,1.7296321E0,3.0531642E0,1.1799307E0,0E0,1.1629772E-1,3.7808466E-1,0E0,0E0,0E0,0E0,0E0,0E0,0E0,0E0,0E0,0E0,0E0,0E0,0E0,0E0],"parents":[2147483647,0,0,1,1,2,2,3,3,4,4,5,5,6,6,7,7,8,8,9,9,10,10,11,11,13,13,14,14],"right_children":[2,4,6,8,10,12,14,16,18,20,22,24,-1,26,28,-1,-1,-1,-1,-1,-1,-1,-1,-1,-1,-1,-1,-1,-1],"split_conditions":[1.656152E2,6.822454E1,3.692465E1,1.71662E1,3.111802E-1,5.022831E-1,6.597604E0,3.521175E1,1.4742E0,7.284476E1,5.48145E-1,2.9472E0,5.4316677E-2,2.460651E2,4.124216E1,-6.7115757E-3,6.784547E-4,-2.516697E-3,3.0362343E-2,1.3248429E-2,6.0101457E-2,3.9456068E-3,-3.0657405E-2,5.581975E-3,4.4618662E-2,3.4290712E-2,9.481215E-2,5.4405928E-3,4.5599755E-2],"split_indices":[35,26,73,10,37,72,53,39,9,35,40,7,0,74,54,0,0,0,0,0,0,0,0,0,0,0,0,0,0],"split_type":[0,0,0,0,0,0,0,0,0,0,0,0,0,0,0,0,0,0,0,0,0,0,0,0,0,0,0,0,0],"sum_hessian":[1.926E3,1.857E3,6.9E1,4.51E2,1.406E3,5.2E1,1.7E1,4.43E2,8E0,3.4E1,1.372E3,4.5E1,7E0,8E0,9E0,3.2E2,1.23E2,3E0,5E0,2.2E1,1.2E1,1.347E3,2.5E1,3.6E1,9E0,2E0,6E0,5E0,4E0],"tree_param":{"num_deleted":"0","num_feature":"81","num_nodes":"29","size_leaf_vector":"0"}},{"base_weights":[2.7383571E-2,7.5249434E-3,1.5135972E-1,5.3072196E-1,5.3088176E-3,1.412051E-1,1.4211662E-1,1.4751126E-1,1.4149933E-1,-8.1682205E-3,8.724265E-2,2.9673082E-1,6.611391E-2,-1.9091086E-2,3.6445003E-2,-1.3166363E-3,2.5074197E-2,2.2101102E-2,4.8755226E-3,8.113278E-3,4.2299014E-2,4.8871143E-3,8.125781E-2],"categories":[],"categories_nodes":[],"categories_segments":[],"categories_sizes":[],"default_left":[false,false,false,false,false,false,false,false,false,false,false,false,false,false,false,false,false,false,false,false,false,false,false],"id":33,"left_children":[1,3,5,7,9,11,-1,13,-1,15,17,19,21,-1,-1,-1,-1,-1,-1,-1,-1,-1,-1],"loss_changes":[4.743128E0,1.9242224E0,3.2292333E0,2.163308E0,1.8293097E0,3.0752134E0,0E0,5.100787E-1,0E0,1.8447633E0,1.1939503E0,2.3067107E0,2.2770886E0,0E0,0E0,0E0,0E0,0E0,0E0,0E0,0E0,0E0,0E0],"parents":[2147483647,0,0,1,1,2,2,3,3,4,4,5,5,7,7,9,9,10,10,11,11,12,12],"right_children":[2,4,6,8,10,12,-1,14,-1,16,18,20,22,-1,-1,-1,-1,-1,-1,-1,-1,-1,-1],"split_conditions":[1.342523E2,1.0780755E0,1.2752048E3,7.63678E1,2.967499E0,4.6238482E-1,1.4211662E-1,4E-2,1.4149933E-1,1.022146E3,5.560778E2,6.28E-2,3.225656E0,-1.9091086E-2,3.6445003E-2,-1.3166363E-3,2.5074197E-2,2.2101102E-2,4.8755226E-3,8.113278E-3,4.2299014E-2,4.8871143E-3,8.125781E-2],"split_indices":[26,65,47,9,60,47,0,8,0,20,38,7,52,0,0,0,0,0,0,0,0,0,0],"split_type":[0,0,0,0,0,0,0,0,0,0,0,0,0,0,0,0,0,0,0,0,0,0,0],"sum_hessian":[1.926E3,1.661E3,2.65E2,6E0,1.655E3,2.64E2,1E0,5E0,1E0,1.422E3,2.33E2,8.5E1,1.79E2,2E0,3E0,1.396E3,2.6E1,5.1E1,1.82E2,3.2E1,5.3E1,1.76E2,3E0],"tree_param":{"num_deleted":"0","num_feature":"81","num_nodes":"23","size_leaf_vector":"0"}},{"base_weights":[2.4898596E-2,8.406517E-3,1.5282393E-1,-1.3606978E-2,7.187633E-2,1.2378036E-1,4.7188056E-1,-2.4173737E-2,1.4374365E-1,8.863859E-1,6.2370773E-2,-9.7906105E-2,1.3946368E-1,9.629691E-2,3.0946493E-1,-2.2652564E-3,-9.164246E-2,-2.6354989E-2,1.926589E-2,4.3586064E-2,1.3442436E-1,2.7831484E-2,4.0456085E-3,1.888678E-2,-1.9328697E-2,1.5379171E-3,1.7141014E-2,6.009524E-2,1.8651372E-2],"categories":[],"categories_nodes":[],"categories_segments":[],"categories_sizes":[],"default_left":[false,false,false,false,false,false,false,false,false,false,false,false,false,false,false,false,false,false,false,false,false,false,false,false,false,false,false,false,false],"id":34,"left_children":[1,3,5,7,9,11,13,15,17,19,21,23,25,-1,27,-1,-1,-1,-1,-1,-1,-1,-1,-1,-1,-1,-1,-1,-1],"loss_changes":[4.064213E0,2.3873827E0,1.9802299E0,2.1134236E0,3.3513582E0,7.194402E-1,1.1376829E0,1.5943902E0,1.6446047E0,4.454794E-1,2.052044E0,4.1944408E-1,7.505357E-1,0E0,4.2549515E-1,0E0,0E0,0E0,0E0,0E0,0E0,0E0,0E0,0E0,0E0,0E0,0E0,0E0,0E0],"parents":[2147483647,0,0,1,1,2,2,3,3,4,4,5,5,6,6,7,7,8,8,9,9,10,10,11,11,12,12,14,14],"right_children":[2,4,6,8,10,12,14,16,18,20,22,24,26,-1,28,-1,-1,-1,-1,-1,-1,-1,-1,-1,-1,-1,-1,-1,-1],"split_conditions":[1.386829E2,1.9171215E0,2.987201E2,1.35788E1,1.0780755E0,3E0,5.13E-3,9.07674E1,8.870203E-2,6.524E-1,9.615252E0,4.2689326E-1,1.759684E1,9.629691E-2,3E0,-2.2652564E-3,-9.164246E-2,-2.6354989E-2,1.926589E-2,4.3586064E-2,1.3442436E-1,2.7831484E-2,4.0456085E-3,1.888678E-2,-1.9328697E-2,1.5379171E-3,1.7141014E-2,6.009524E-2,1.8651372E-2],"split_indices":[35,25,26,3,65,42,22,9,63,3,68,41,56,0,42,0,0,0,0,0,0,0,0,0,0,0,0,0,0],"split_type":[0,0,0,0,0,0,0,0,0,0,0,0,0,0,0,0,0,0,0,0,0,0,0,0,0,0,0,0,0],"sum_hessian":[1.926E3,1.707E3,2.19E2,1.268E3,4.39E2,2.02E2,1.7E1,1.189E3,7.9E1,4E0,4.35E2,1.3E1,1.89E2,3E0,1.4E1,1.188E3,1E0,8E0,7.1E1,3E0,1E0,3.9E1,3.96E2,3E0,1E1,3.9E1,1.5E2,3E0,1.1E1],"tree_param":{"num_deleted":"0","num_feature":"81","num_nodes":"29","size_leaf_vector":"0"}},{"base_weights":[2.2565538E-2,5.414553E-3,1.2964211E-1,2.027162E-2,-5.8682743E-2,1.2004686E-1,1.3361922E-1,4.8507587E-3,8.911517E-2,1.584479E-1,-7.644983E-2,1.4407898E-1,-3.2110608E-1,2.4208154E-3,-5.903999E-3,-7.113632E-2,1.0187254E-2,2.9106822E-3,1.0541333E-1,-4.5793913E-3,-1.7397393E-2,1.274846E-2,8.03201E-2,-8.451682E-2,6.394714E-3],"categories":[],"categories_nodes":[],"categories_segments":[],"categories_sizes":[],"default_left":[false,false,false,false,false,false,false,false,false,false,false,false,false,false,false,false,false,false,false,false,false,false,false,false,false],"id":35,"left_children":[1,3,5,7,9,11,-1,13,15,17,19,21,23,-1,-1,-1,-1,-1,-1,-1,-1,-1,-1,-1,-1],"loss_changes":[3.5381737E0,1.5839084E0,2.919117E0,1.432764E0,1.2195977E0,2.8557525E0,0E0,1.3668104E0,2.594832E0,2.7496915E0,8.59043E-1,2.6539087E0,2.8791313E0,0E0,0E0,0E0,0E0,0E0,0E0,0E0,0E0,0E0,0E0,0E0,0E0],"parents":[2147483647,0,0,1,1,2,2,3,3,4,4,5,5,7,7,8,8,9,9,10,10,11,11,12,12],"right_children":[2,4,6,8,10,12,-1,14,16,18,20,22,24,-1,-1,-1,-1,-1,-1,-1,-1,-1,-1,-1,-1],"split_conditions":[1.342523E2,8.053033E2,1.2752048E3,1.170049E2,6.155593E-1,5.095789E2,1.3361922E-1,5.567258E1,5.6E-3,1.861084E1,2.453705E0,3.328955E2,9.866822E-2,2.4208154E-3,-5.903999E-3,-7.113632E-2,1.0187254E-2,2.9106822E-3,1.0541333E-1,-4.5793913E-3,-1.7397393E-2,1.274846E-2,8.03201E-2,-8.451682E-2,6.394714E-3],"split_indices":[26,38,47,26,64,47,0,54,0,27,52,33,63,0,0,0,0,0,0,0,0,0,0,0,0],"split_type":[0,0,0,0,0,0,0,0,0,0,0,0,0,0,0,0,0,0,0,0,0,0,0,0,0],"sum_hessian":[1.926E3,1.661E3,2.65E2,1.349E3,3.12E2,2.64E2,1E0,1.103E3,2.46E2,2.3E1,2.89E2,2.51E2,1.3E1,8.47E2,2.56E2,3E0,2.43E2,2.1E1,2E0,2.21E2,6.8E1,2.46E2,5E0,5E0,8E0],"tree_param":{"num_deleted":"0","num_feature":"81","num_nodes":"25","size_leaf_vector":"0"}},{"base_weights":[2.0397462E-2,1.4952753E-2,3.3243766E-1,1.3489947E-1,6.9838753E-3,2.2679059E-1,6.924425E-1,1.7693242E-1,-3.3674982E-1,1.2762594E-3,2.002344E-1,-2.4121897E-2,2.9962853E-1,7.860562E-2,6.5380097E-3,6.0486443E-2,1.3236991E-2,-1.3795321E-2,-5.079558E-2,3.3655157E-4,-4.483346E-2,1.5080233E-2,7.433606E-2,-1.7632127E-2,1.3410795E-2,3.7731332E-4,3.9184753E-2],"categories":[],"categories_nodes":[],"categories_segments":[],"categories_sizes":[],"default_left":[false,false,false,false,false,false,false,false,false,false,false,false,false,false,false,false,false,false,false,false,false,false,false,false,false,false,false],"id":36,"left_children":[1,3,5,7,9,11,13,15,17,19,21,23,25,-1,-1,-1,-1,-1,-1,-1,-1,-1,-1,-1,-1,-1,-1],"loss_changes":[3.2689412E0,1.8103759E0,1.0980647E0,2.3989105E0,1.9608778E0,5.006782E-1,3.5951924E-1,1.9985349E0,2.7027762E-1,1.6247096E0,1.2571399E0,1.9222346E-1,5.714748E-1,0E0,0E0,0E0,0E0,0E0,0E0,0E0,0E0,0E0,0E0,0E0,0E0,0E0,0E0],"parents":[2147483647,0,0,1,1,2,2,3,3,4,4,5,5,6,6,7,7,8,8,9,9,10,10,11,11,12,12],"right_children":[2,4,6,8,10,12,14,16,18,20,22,24,26,-1,-1,-1,-1,-1,-1,-1,-1,-1,-1,-1,-1,-1,-1],"split_conditions":[2.273099E1,6.666127E0,8.022466E0,7.739706E1,1.17694E1,8.7816E0,5.142E-1,2.02E-2,2.18048E1,9.07674E1,6.3384E0,1.2E-1,1.849498E0,7.860562E-2,6.5380097E-3,6.0486443E-2,1.3236991E-2,-1.3795321E-2,-5.079558E-2,3.3655157E-4,-4.483346E-2,1.5080233E-2,7.433606E-2,-1.7632127E-2,1.3410795E-2,3.7731332E-4,3.9184753E-2],"split_indices":[36,68,37,51,5,11,4,16,4,9,13,3,64,0,0,0,0,0,0,0,0,0,0,0,0,0,0],"split_type":[0,0,0,0,0,0,0,0,0,0,0,0,0,0,0,0,0,0,0,0,0,0,0,0,0,0,0],"sum_hessian":[1.926E3,1.894E3,3.2E1,1.17E2,1.777E3,2.6E1,6E0,1.08E2,9E0,1.727E3,5E1,6E0,2E1,5E0,1E0,9E0,9.9E1,5E0,4E0,1.72E3,7E0,4.7E1,3E0,3E0,3E0,5E0,1.5E1],"tree_param":{"num_deleted":"0","num_feature":"81","num_nodes":"27","size_leaf_vector":"0"}},{"base_weights":[1.8448295E-2,2.0778097E-1,1.0562252E-2,1.2717694E-1,1.7704731E-1,3.6682997E-2,-2.175442E-2,-4.983646E-1,2.1163088E-1,2.251518E-1,2.0689147E-2,1.1806856E-1,-3.939271E-2,-8.5456096E-2,-9.477881E-3,1.5809162E-2,6.26876E-2,8.479778E-2,1.6319325E-2,-2.4506642E-2,2.6406664E-3,6.2386584E-2,6.9644763E-3,-3.1829027E-3,-3.3933144E-2],"categories":[],"categories_nodes":[],"categories_segments":[],"categories_sizes":[],"default_left":[false,false,false,false,false,false,false,false,false,false,false,false,false,false,false,false,false,false,false,false,false,false,false,false,false],"id":37,"left_children":[1,3,5,-1,7,9,11,13,15,17,19,21,23,-1,-1,-1,-1,-1,-1,-1,-1,-1,-1,-1,-1],"loss_changes":[2.8749812E0,2.2927563E0,1.5632927E0,0E0,1.8806889E0,3.0820277E0,2.0466964E0,4.9402887E-1,1.5238264E0,2.9487677E0,1.4423633E0,2.234365E0,1.6589199E0,0E0,0E0,0E0,0E0,0E0,0E0,0E0,0E0,0E0,0E0,0E0,0E0],"parents":[2147483647,0,0,1,1,2,2,4,4,5,5,6,6,7,7,8,8,9,9,10,10,11,11,12,12],"right_children":[2,4,6,-1,8,10,12,14,16,18,20,22,24,-1,-1,-1,-1,-1,-1,-1,-1,-1,-1,-1,-1],"split_conditions":[1.1107156E0,1.82011E0,5.575E0,1.2717694E-1,2.437365E2,1.728E-1,8.75923E-1,1.108E-1,4.594981E1,-1.11495365E-5,2.8118956E-1,1.685224E1,5.3864753E-1,-8.5456096E-2,-9.477881E-3,1.5809162E-2,6.26876E-2,8.479778E-2,1.6319325E-2,-2.4506642E-2,2.6406664E-3,6.2386584E-2,6.9644763E-3,-3.1829027E-3,-3.3933144E-2],"split_indices":[65,51,66,0,33,19,37,0,73,44,41,57,40,0,0,0,0,0,0,0,0,0,0,0,0],"split_type":[0,0,0,0,0,0,0,0,0,0,0,0,0,0,0,0,0,0,0,0,0,0,0,0,0],"sum_hessian":[1.926E3,7.6E1,1.85E3,1E0,7.5E1,1.023E3,8.27E2,3E0,7.2E1,7.9E1,9.44E2,9.2E1,7.35E2,1E0,2E0,6.5E1,7E0,6E0,7.3E1,1.9E1,9.25E2,7E0,8.5E1,7.18E2,1.7E1],"tree_param":{"num_deleted":"0","num_feature":"81","num_nodes":"25","size_leaf_vector":"0"}},{"base_weights":[1.6718771E-2,1.1931221E-2,2.9113352E-1,-5.6061116E-3,5.9568107E-2,6.1554396E-1,1.4383195E-1,-5.9001815E-2,1.4915796E-2,2.3795441E-1,3.5703927E-2,7.759007E-2,3.0000705E-1,2.0539963E-1,-1.3120517E-1,-4.0774373E-3,-2.1966647E-2,-2.4549915E-2,2.1557368E-3,1.601628E-2,8.040675E-2,2.7806738E-3,4.6953496E-2,8.987593E-3,3.3007085E-2,3.0602122E-2,4.8415344E-3,-2.1233624E-2,-6.3390733E-4],"categories":[],"categories_nodes":[],"categories_segments":[],"categories_sizes":[],"default_left":[false,false,false,false,false,false,false,false,false,false,false,false,false,false,false,false,false,false,false,false,false,false,false,false,false,false,false,false,false],"id":38,"left_children":[1,3,5,7,9,11,13,15,17,19,21,-1,23,25,27,-1,-1,-1,-1,-1,-1,-1,-1,-1,-1,-1,-1,-1,-1],"loss_changes":[2.5281692E0,1.5834625E0,1.4884081E0,1.5196334E0,2.1625962E0,2.732091E-1,4.3335104E-1,1.1185181E0,1.738316E0,2.5135489E0,1.5320905E0,0E0,1.9212663E-3,3.0110395E-1,4.930657E-2,0E0,0E0,0E0,0E0,0E0,0E0,0E0,0E0,0E0,0E0,0E0,0E0,0E0,0E0],"parents":[2147483647,0,0,1,1,2,2,3,3,4,4,5,5,6,6,7,7,8,8,9,9,10,10,12,12,13,13,14,14],"right_children":[2,4,6,8,10,12,14,16,18,20,22,-1,24,26,28,-1,-1,-1,-1,-1,-1,-1,-1,-1,-1,-1,-1,-1,-1],"split_conditions":[2.622441E2,1.9171215E0,2.507324E2,6.234322E1,9.930496E0,2.2E-1,6.148037E1,9.768835E1,3.0076253E-1,8.7119204E-1,1.138038E1,7.759007E-2,2.24E-2,5.77914E0,1.76E0,-4.0774373E-3,-2.1966647E-2,-2.4549915E-2,2.1557368E-3,1.601628E-2,8.040675E-2,2.7806738E-3,4.6953496E-2,8.987593E-3,3.3007085E-2,3.0602122E-2,4.8415344E-3,-2.1233624E-2,-6.3390733E-4],"split_indices":[26,25,74,32,68,4,54,26,41,41,60,0,0,53,3,0,0,0,0,0,0,0,0,0,0,0,0,0,0],"split_type":[0,0,0,0,0,0,0,0,0,0,0,0,0,0,0,0,0,0,0,0,0,0,0,0,0,0,0,0,0],"sum_hessian":[1.926E3,1.894E3,3.2E1,1.385E3,5.09E2,9E0,2.3E1,3.84E2,1.001E3,5.9E1,4.5E2,5E0,4E0,1.9E1,4E0,3.46E2,3.8E1,2.4E1,9.77E2,5.3E1,6E0,4.43E2,7E0,1E0,3E0,1.1E1,8E0,2E0,2E0],"tree_param":{"num_deleted":"0","num_feature":"81","num_nodes":"29","size_leaf_vector":"0"}},{"base_weights":[1.5166695E-2,1.585743E-3,9.99651E-2,4.37599E-1,-2.5826573E-4,9.1386765E-2,1.1866119E-1,1.0826864E-1,1.2067906E-1,-7.273773E-3,1.0669637E-1,7.660499E-2,7.1669906E-1,-1.8464793E-2,3.008889E-2,5.860529E-3,-2.1286018E-3,5.4684974E-2,8.783465E-3,9.703847E-3,-2.893716E-2,8.480456E-2,2.9983402E-3],"categories":[],"categories_nodes":[],"categories_segments":[],"categories_sizes":[],"default_left":[false,false,false,false,false,false,false,false,false,false,false,false,false,false,false,false,false,false,false,false,false,false,false],"id":39,"left_children":[1,3,5,7,9,11,-1,13,-1,15,17,19,21,-1,-1,-1,-1,-1,-1,-1,-1,-1,-1],"loss_changes":[2.2190578E0,1.3363814E0,2.3711102E0,1.6425692E0,1.2433407E0,2.3945515E0,0E0,3.9408848E-1,0E0,1.436689E0,7.9877675E-1,1.9724046E0,5.1575875E-1,0E0,0E0,0E0,0E0,0E0,0E0,0E0,0E0,0E0,0E0],"parents":[2147483647,0,0,1,1,2,2,3,3,4,4,5,5,7,7,9,9,10,10,11,11,12,12],"right_children":[2,4,6,8,10,12,-1,14,-1,16,18,20,22,-1,-1,-1,-1,-1,-1,-1,-1,-1,-1],"split_conditions":[1.342523E2,1.0780755E0,1.2752048E3,7.63678E1,2.0876E0,3.328955E2,1.1866119E-1,4E-2,1.2067906E-1,1.159452E1,2.554047E1,5.095789E2,7.01E-1,-1.8464793E-2,3.008889E-2,5.860529E-3,-2.1286018E-3,5.4684974E-2,8.783465E-3,9.703847E-3,-2.893716E-2,8.480456E-2,2.9983402E-3],"split_indices":[26,65,47,9,6,33,0,8,0,28,71,47,1,0,0,0,0,0,0,0,0,0,0],"split_type":[0,0,0,0,0,0,0,0,0,0,0,0,0,0,0,0,0,0,0,0,0,0,0],"sum_hessian":[1.926E3,1.661E3,2.65E2,6E0,1.655E3,2.64E2,1E0,5E0,1E0,1.554E3,1.01E2,2.59E2,5E0,2E0,3E0,2.72E2,1.282E3,3E0,9.8E1,2.46E2,1.3E1,4E0,1E0],"tree_param":{"num_deleted":"0","num_feature":"81","num_nodes":"23","size_leaf_vector":"0"}},{"base_weights":[1.385072E-2,8.246034E-3,2.0446388E-1,1.8840475E-2,-6.289709E-2,1.8880526E-2,3.8274497E-1,-4.2934486E-4,9.0670675E-2,-7.912365E-2,3.6778504E-1,-3.630722E-2,3.5908382E-2,2.1579573E-1,5.58779E-1,-3.8517723E-4,2.1657404E-2,1.0232271E-2,-4.8657347E-2,-6.631876E-3,-3.1155473E-2,-1.9130337E-3,8.562118E-2,6.411581E-3,-1.6994705E-2,3.4517765E-2,4.3266625E-3,6.191176E-2,-8.264184E-3],"categories":[],"categories_nodes":[],"categories_segments":[],"categories_sizes":[],"default_left":[false,false,false,false,false,false,false,false,false,false,false,false,false,false,false,false,false,false,false,false,false,false,false,false,false,false,false,false,false],"id":40,"left_children":[1,3,5,7,9,11,13,15,17,19,21,23,-1,25,27,-1,-1,-1,-1,-1,-1,-1,-1,-1,-1,-1,-1,-1,-1],"loss_changes":[2.0569794E0,1.4129057E0,1.8125036E0,2.2575955E0,1.7273035E0,5.387388E-1,7.0230293E-1,9.566612E-1,2.37028E0,6.7875814E-1,1.7171981E0,3.4640923E-1,0E0,3.422197E-1,5.542965E-1,0E0,0E0,0E0,0E0,0E0,0E0,0E0,0E0,0E0,0E0,0E0,0E0,0E0,0E0],"parents":[2147483647,0,0,1,1,2,2,3,3,4,4,5,5,6,6,7,7,8,8,9,9,10,10,11,11,13,13,14,14],"right_children":[2,4,6,8,10,12,14,16,18,20,22,24,-1,26,28,-1,-1,-1,-1,-1,-1,-1,-1,-1,-1,-1,-1,-1,-1],"split_conditions":[3.789761E1,2.300225E1,1.702E-1,1.229614E2,1.218158E0,6.736947E0,5.6E-1,1.022146E3,9.07674E1,1.544574E1,4.72E-2,9.416921E1,3.5908382E-2,6.056E-1,2.955142E2,-3.8517723E-4,2.1657404E-2,1.0232271E-2,-4.8657347E-2,-6.631876E-3,-3.1155473E-2,-1.9130337E-3,8.562118E-2,6.411581E-3,-1.6994705E-2,3.4517765E-2,4.3266625E-3,6.191176E-2,-8.264184E-3],"split_indices":[73,28,1,26,49,37,2,20,9,36,8,26,0,1,33,0,0,0,0,0,0,0,0,0,0,0,0,0,0],"split_type":[0,0,0,0,0,0,0,0,0,0,0,0,0,0,0,0,0,0,0,0,0,0,0,0,0,0,0,0,0],"sum_hessian":[1.926E3,1.872E3,5.4E1,1.63E3,2.42E2,2.7E1,2.7E1,1.286E3,3.44E2,2.34E2,8E0,2.4E1,3E0,1.5E1,1.2E1,1.267E3,1.9E1,3.38E2,6E0,2.23E2,1.1E1,5E0,3E0,1.4E1,1E1,8E0,7E0,1.1E1,1E0],"tree_param":{"num_deleted":"0","num_feature":"81","num_nodes":"29","size_leaf_vector":"0"}},{"base_weights":[1.254171E-2,9.000851E-3,2.815703E-1,1.8566102E-2,-5.641842E-2,5.6822354E-1,1.3852604E-1,2.7575654E-3,7.908089E-2,-7.13721E-2,3.4030744E-1,7.7134065E-2,3.7196103E-2,3.3848226E-1,-1.9489938E-2,-3.945027E-4,1.26025E-2,9.202215E-3,-4.759552E-2,-8.182697E-3,1.7204521E-2,8.002255E-2,-2.3022469E-3,4.2679302E-2,1.4347327E-2,3.3542395E-3,-1.2068212E-2],"categories":[],"categories_nodes":[],"categories_segments":[],"categories_sizes":[],"default_left":[false,false,false,false,false,false,false,false,false,false,false,false,false,false,false,false,false,false,false,false,false,false,false,false,false,false,false],"id":41,"left_children":[1,3,5,7,9,11,13,15,17,19,21,-1,-1,23,25,-1,-1,-1,-1,-1,-1,-1,-1,-1,-1,-1,-1],"loss_changes":[1.8331113E0,1.191853E0,9.463885E-1,1.588778E0,1.4658887E0,3.200555E-2,5.7533E-1,1.0894437E0,2.5147064E0,6.1212873E-1,1.5223409E0,0E0,0E0,7.653779E-2,6.3079E-2,0E0,0E0,0E0,0E0,0E0,0E0,0E0,0E0,0E0,0E0,0E0,0E0],"parents":[2147483647,0,0,1,1,2,2,3,3,4,4,5,5,6,6,7,7,8,8,9,9,10,10,13,13,14,14],"right_children":[2,4,6,8,10,12,14,16,18,20,22,-1,-1,24,26,-1,-1,-1,-1,-1,-1,-1,-1,-1,-1,-1,-1],"split_conditions":[2.863547E2,2.300225E1,2.507324E2,1.229614E2,1.218158E0,5.13E-3,4.66057E0,6.061209E1,8.802E1,2.460506E2,2.459373E0,7.7134065E-2,3.7196103E-2,8.718021E0,2.28E-2,-3.945027E-4,1.26025E-2,9.202215E-3,-4.759552E-2,-8.182697E-3,1.7204521E-2,8.002255E-2,-2.3022469E-3,4.2679302E-2,1.4347327E-2,3.3542395E-3,-1.2068212E-2],"split_indices":[26,28,74,26,49,22,51,39,9,0,49,0,0,27,13,0,0,0,0,0,0,0,0,0,0,0,0],"split_type":[0,0,0,0,0,0,0,0,0,0,0,0,0,0,0,0,0,0,0,0,0,0,0,0,0,0,0],"sum_hessian":[1.926E3,1.902E3,2.4E1,1.66E3,2.42E2,7E0,1.7E1,1.317E3,3.43E2,2.34E2,8E0,2E0,5E0,7E0,1E1,1.25E3,6.7E1,3.36E2,7E0,2.25E2,9E0,3E0,5E0,4E0,3E0,7E0,3E0],"tree_param":{"num_deleted":"0","num_feature":"81","num_nodes":"27","size_leaf_vector":"0"}},{"base_weights":[1.1403363E-2,7.629896E-3,2.2774632E-1,1.0166031E-1,1.3286867E-3,5.0840807E-1,1.0131451E-1,1.313918E-1,-3.9281362E-1,-9.9059045E-3,7.0959575E-2,6.799709E-2,2.807044E-1,1.5382381E-1,-1.289856E-1,5.7141807E-2,1.0137706E-2,-2.0523481E-2,-4.8218902E-2,1.3007146E-2,-1.6200993E-3,5.2685337E-3,3.3150114E-2,7.081318E-3,3.0852003E-2,-5.911078E-4,2.2270383E-2,-1.9158332E-2,-2.3392679E-3],"categories":[],"categories_nodes":[],"categories_segments":[],"categories_sizes":[],"default_left":[false,false,false,false,false,false,false,false,false,false,false,false,false,false,false,false,false,false,false,false,false,false,false,false,false,false,false,false,false],"id":42,"left_children":[1,3,5,7,9,11,13,15,17,19,21,-1,23,25,27,-1,-1,-1,-1,-1,-1,-1,-1,-1,-1,-1,-1,-1,-1],"loss_changes":[1.5713942E0,1.1226624E0,1.1194818E0,1.8010838E0,1.3908049E0,1.997838E-1,3.1007054E-1,1.4344925E0,1.8392563E-2,1.3511784E0,1.1585509E0,0E0,1.3182253E-2,2.2136724E-1,2.8567739E-2,0E0,0E0,0E0,0E0,0E0,0E0,0E0,0E0,0E0,0E0,0E0,0E0,0E0,0E0],"parents":[2147483647,0,0,1,1,2,2,3,3,4,4,5,5,6,6,7,7,8,8,9,9,10,10,12,12,13,13,14,14],"right_children":[2,4,6,8,10,12,14,16,18,20,22,-1,24,26,28,-1,-1,-1,-1,-1,-1,-1,-1,-1,-1,-1,-1,-1,-1],"split_conditions":[2.622441E2,6.666127E0,2.507324E2,7.48159E2,1.372E0,5.269136E1,6.148037E1,2E-4,1.684458E1,3.111802E-1,1.594687E0,6.799709E-2,2.24E-2,9.718135E0,1.76E0,5.7141807E-2,1.0137706E-2,-2.0523481E-2,-4.8218902E-2,1.3007146E-2,-1.6200993E-3,5.2685337E-3,3.3150114E-2,7.081318E-3,3.0852003E-2,-5.911078E-4,2.2270383E-2,-1.9158332E-2,-2.3392679E-3],"split_indices":[26,68,74,20,5,54,54,16,54,37,49,0,0,43,3,0,0,0,0,0,0,0,0,0,0,0,0,0,0],"split_type":[0,0,0,0,0,0,0,0,0,0,0,0,0,0,0,0,0,0,0,0,0,0,0,0,0,0,0,0,0],"sum_hessian":[1.926E3,1.894E3,3.2E1,1.18E2,1.776E3,9E0,2.3E1,1.12E2,6E0,1.53E3,2.46E2,4E0,5E0,1.9E1,4E0,6E0,1.06E2,3E0,3E0,6.5E1,1.465E3,2.31E2,1.5E1,1E0,4E0,6E0,1.3E1,2E0,2E0],"tree_param":{"num_deleted":"0","num_feature":"81","num_nodes":"29","size_leaf_vector":"0"}},{"base_weights":[1.0343167E-2,5.6372657E-3,1.7041244E-1,1.1128604E-1,3.042912E-4,8.195769E-3,3.2654294E-1,4.026952E-1,3.790725E-2,4.2052637E-3,-2.9855737E-1,-4.0624592E-2,3.1127408E-2,4.2301467E-1,1.105924E-1,1.3743865E-2,7.9989284E-2,-2.6347528E-3,1.9826896E-2,-3.6531922E-3,2.4901314E-3,2.6687894E-2,-3.6511697E-2,5.0695217E-3,-1.6145846E-2,5.7261925E-2,1.9316299E-2,2.3739655E-2,-6.369104E-3],"categories":[],"categories_nodes":[],"categories_segments":[],"categories_sizes":[],"default_left":[false,false,false,false,false,false,false,false,false,false,false,false,false,false,false,false,false,false,false,false,false,false,false,false,false,false,false,false,false],"id":43,"left_children":[1,3,5,7,9,11,13,15,17,19,21,23,-1,25,27,-1,-1,-1,-1,-1,-1,-1,-1,-1,-1,-1,-1,-1,-1],"loss_changes":[1.4505911E0,1.0552559E0,1.3903073E0,1.9092274E0,2.081134E0,4.2694438E-1,5.365453E-1,1.7865307E0,7.574164E-1,1.4864497E0,9.630518E-1,2.8404832E-1,0E0,5.427418E-1,2.3611864E-1,0E0,0E0,0E0,0E0,0E0,0E0,0E0,0E0,0E0,0E0,0E0,0E0,0E0,0E0],"parents":[2147483647,0,0,1,1,2,2,3,3,4,4,5,5,6,6,7,7,8,8,9,9,10,10,11,11,13,13,14,14],"right_children":[2,4,6,8,10,12,14,16,18,20,22,24,-1,26,28,-1,-1,-1,-1,-1,-1,-1,-1,-1,-1,-1,-1,-1,-1],"split_conditions":[3.789761E1,8.75923E-1,1.702E-1,2E-4,5.3864753E-1,6.736947E0,3.821101E1,1.030622E2,1.41E0,1.199291E1,5.192782E-1,9.416921E1,3.1127408E-2,2.630638E2,2.2313597E0,1.3743865E-2,7.9989284E-2,-2.6347528E-3,1.9826896E-2,-3.6531922E-3,2.4901314E-3,2.6687894E-2,-3.6511697E-2,5.0695217E-3,-1.6145846E-2,5.7261925E-2,1.9316299E-2,2.3739655E-2,-6.369104E-3],"split_indices":[73,37,1,16,40,37,69,26,8,39,41,26,0,74,25,0,0,0,0,0,0,0,0,0,0,0,0,0,0],"split_type":[0,0,0,0,0,0,0,0,0,0,0,0,0,0,0,0,0,0,0,0,0,0,0,0,0,0,0,0,0],"sum_hessian":[1.926E3,1.872E3,5.4E1,8.9E1,1.783E3,2.7E1,2.7E1,1.7E1,7.2E1,1.761E3,2.2E1,2.4E1,3E0,1.8E1,9E0,1.1E1,6E0,5.2E1,2E1,5.93E2,1.168E3,2E0,2E1,1.4E1,1E1,1E1,8E0,5E0,4E0],"tree_param":{"num_deleted":"0","num_feature":"81","num_nodes":"29","size_leaf_vector":"0"}},{"base_weights":[9.419875E-3,1.3837536E-1,4.0503503E-3,1.1362988E-1,1.1029348E-1,1.8517531E-2,-4.2944096E-2,-4.4735548E-1,1.3933872E-1,2.982154E-2,-5.4138135E-2,-2.3370549E-1,-3.027702E-2,6.0151652E-3,-6.3657515E-2,9.885015E-3,4.162741E-2,1.4767958E-3,1.4282993E-2,-7.149044E-3,3.517321E-2,-1.07193375E-2,-5.798554E-2,-3.8647205E-3,2.7684584E-2],"categories":[],"categories_nodes":[],"categories_segments":[],"categories_sizes":[],"default_left":[false,false,false,false,false,false,false,false,false,false,false,false,false,false,false,false,false,false,false,false,false,false,false,false,false],"id":44,"left_children":[1,3,5,-1,7,9,11,13,15,17,19,21,23,-1,-1,-1,-1,-1,-1,-1,-1,-1,-1,-1,-1],"loss_changes":[1.3337517E0,2.0324874E0,1.2592479E0,0E0,1.2933095E0,1.1645757E0,1.0464699E0,4.2241222E-1,7.7737963E-1,2.0835388E0,1.3703171E0,1.1202315E0,1.0646763E0,0E0,0E0,0E0,0E0,0E0,0E0,0E0,0E0,0E0,0E0,0E0,0E0],"parents":[2147483647,0,0,1,1,2,2,4,4,5,5,6,6,7,7,8,8,9,9,10,10,11,11,12,12],"right_children":[2,4,6,-1,8,10,12,14,16,18,20,22,24,-1,-1,-1,-1,-1,-1,-1,-1,-1,-1,-1,-1],"split_conditions":[1.1107156E0,1.82011E0,5.593568E1,1.1362988E-1,2.437365E2,9.14248E2,4.317346E1,1.872E-1,1.41E0,1.30374E2,1.218158E0,2.1250272E2,5.02943E-1,6.0151652E-3,-6.3657515E-2,9.885015E-3,4.162741E-2,1.4767958E-3,1.4282993E-2,-7.149044E-3,3.517321E-2,-1.07193375E-2,-5.798554E-2,-3.8647205E-3,2.7684584E-2],"split_indices":[65,51,54,0,33,38,67,1,2,26,49,47,40,0,0,0,0,0,0,0,0,0,0,0,0],"split_type":[0,0,0,0,0,0,0,0,0,0,0,0,0,0,0,0,0,0,0,0,0,0,0,0,0],"sum_hessian":[1.926E3,7.6E1,1.85E3,1E0,7.5E1,1.415E3,4.35E2,3E0,7.2E1,1.225E3,1.9E2,2.6E1,4.09E2,1E0,2E0,6.4E1,8E0,1.082E3,1.43E2,1.83E2,7E0,2E1,6E0,3.99E2,1E1],"tree_param":{"num_deleted":"0","num_feature":"81","num_nodes":"25","size_leaf_vector":"0"}},{"base_weights":[8.533118E-3,-1.4814612E-4,7.5892515E-2,-5.344882E-3,1.2922134E-1,7.019022E-2,6.623478E-2,8.533319E-2,-1.28033515E-2,6.4269975E-2,4.1614664E-1,-4.8527125E-2,9.227085E-2,3.0194217E-4,2.969109E-2,-1.4824176E-3,6.020669E-2,-2.4851277E-3,1.7220952E-2,-4.343498E-3,6.513668E-2,-2.68796E-2,2.669313E-3,7.38636E-3,2.698329E-2],"categories":[],"categories_nodes":[],"categories_segments":[],"categories_sizes":[],"default_left":[false,false,false,false,false,false,false,false,false,false,false,false,false,false,false,false,false,false,false,false,false,false,false,false,false],"id":45,"left_children":[1,3,5,7,9,11,-1,13,15,17,19,21,23,-1,-1,-1,-1,-1,-1,-1,-1,-1,-1,-1,-1],"loss_changes":[1.1268529E0,1.1489775E0,6.89221E-1,1.1122856E0,1.2032427E0,5.7855403E-1,0E0,2.1760736E0,1.89635E0,5.333636E-1,1.3255265E0,5.8707875E-1,5.847287E-1,0E0,0E0,0E0,0E0,0E0,0E0,0E0,0E0,0E0,0E0,0E0,0E0],"parents":[2147483647,0,0,1,1,2,2,3,3,4,4,5,5,7,7,8,8,9,9,10,10,11,11,12,12],"right_children":[2,4,6,8,10,12,-1,14,16,18,20,22,24,-1,-1,-1,-1,-1,-1,-1,-1,-1,-1,-1,-1],"split_conditions":[1.386829E2,1.10678E1,8.635577E1,3.434398E1,2.350523E2,1.407209E2,6.623478E-2,8.909817E1,1.2752048E3,1.31E0,3.605377E0,1.552095E2,5.948343E0,3.0194217E-4,2.969109E-2,-1.4824176E-3,6.020669E-2,-2.4851277E-3,1.7220952E-2,-4.343498E-3,6.513668E-2,-2.68796E-2,2.669313E-3,7.38636E-3,2.698329E-2],"split_indices":[35,5,32,67,74,74,0,26,47,13,66,24,66,0,0,0,0,0,0,0,0,0,0,0,0],"split_type":[0,0,0,0,0,0,0,0,0,0,0,0,0,0,0,0,0,0,0,0,0,0,0,0,0],"sum_hessian":[1.926E3,1.707E3,2.19E2,1.642E3,6.5E1,2.18E2,1E0,1.24E2,1.518E3,5.4E1,1.1E1,3.4E1,1.84E2,9E1,3.4E1,1.514E3,4E0,3E1,2.4E1,4E0,7E0,8E0,2.6E1,1.68E2,1.6E1],"tree_param":{"num_deleted":"0","num_feature":"81","num_nodes":"25","size_leaf_vector":"0"}},{"base_weights":[7.8046774E-3,4.595218E-2,-6.8519763E-3,8.361764E-3,1.1416445E-1,-8.725178E-3,5.148939E-1,4.091037E-2,-6.882485E-2,1.3221805E-1,-3.7669644E-1,-4.474724E-2,2.0460302E-2,1.0798841E-1,1.03675365E-1,1.2371165E-4,1.1378406E-2,-3.1852048E-2,-4.152931E-3,1.6765645E-2,-7.1212226E-3,-7.710432E-2,1.1182445E-2,-3.0569644E-3,-1.9637903E-2,9.3552406E-4,1.9061763E-2,1.9534715E-2,-8.567E-3],"categories":[],"categories_nodes":[],"categories_segments":[],"categories_sizes":[],"default_left":[false,false,false,false,false,false,false,false,false,false,false,false,false,false,false,false,false,false,false,false,false,false,false,false,false,false,false,false,false],"id":46,"left_children":[1,3,5,7,9,11,13,15,17,19,21,23,25,-1,27,-1,-1,-1,-1,-1,-1,-1,-1,-1,-1,-1,-1,-1,-1],"loss_changes":[1.0777289E0,1.3708538E0,1.3659208E0,8.7207717E-1,1.7335489E0,1.4612007E0,1.0497148E0,7.052964E-1,6.887765E-1,1.33844E0,1.4347479E0,1.3311566E0,1.4494354E0,0E0,8.6165905E-2,0E0,0E0,0E0,0E0,0E0,0E0,0E0,0E0,0E0,0E0,0E0,0E0,0E0,0E0],"parents":[2147483647,0,0,1,1,2,2,3,3,4,4,5,5,6,6,7,7,8,8,9,9,10,10,11,11,12,12,14,14],"right_children":[2,4,6,8,10,12,14,16,18,20,22,24,26,-1,28,-1,-1,-1,-1,-1,-1,-1,-1,-1,-1,-1,-1,-1,-1],"split_conditions":[1.303297E1,1.081945E2,1.2752048E3,4.9900555E1,9.07674E1,4.214086E1,2.682E-1,4.88903E1,2.996044E0,9.8187864E-1,6.076896E0,3.2482022E2,4.6531343E-1,1.0798841E-1,3.113E0,1.2371165E-4,1.1378406E-2,-3.1852048E-2,-4.152931E-3,1.6765645E-2,-7.1212226E-3,-7.710432E-2,1.1182445E-2,-3.0569644E-3,-1.9637903E-2,9.3552406E-4,1.9061763E-2,1.9534715E-2,-8.567E-3],"split_indices":[28,26,47,47,9,69,0,39,37,48,27,47,40,0,0,0,0,0,0,0,0,0,0,0,0,0,0,0,0],"split_type":[0,0,0,0,0,0,0,0,0,0,0,0,0,0,0,0,0,0,0,0,0,0,0,0,0,0,0,0,0],"sum_hessian":[1.926E3,5.34E2,1.392E3,3.45E2,1.89E2,1.388E3,4E0,2.43E2,1.02E2,1.83E2,6E0,6.21E2,7.67E2,1E0,3E0,1.58E2,8.5E1,9E0,9.3E1,1.56E2,2.7E1,3E0,3E0,5.69E2,5.2E1,7.21E2,4.6E1,2E0,1E0],"tree_param":{"num_deleted":"0","num_feature":"81","num_nodes":"29","size_leaf_vector":"0"}},{"base_weights":[7.042622E-3,4.547618E-3,1.9668067E-1,-1.6589407E-3,7.8156866E-2,3.061834E-1,-3.2011244E-2,3.575805E-2,-1.734372E-2,1.01772815E-1,-2.5792047E-1,1.5663034E-1,6.3378465E-1,-1.1085415E-1,9.4255924E-2,2.9836001E-3,4.646512E-2,4.117596E-2,-2.0469401E-3,1.4020312E-2,-8.821417E-3,-3.362338E-2,3.688852E-3,-3.6343099E-3,2.8178161E-2,7.2597735E-2,1.3250709E-2,-4.2773606E-3,-1.6467683E-2,2.8048754E-3,1.069754E-2],"categories":[],"categories_nodes":[],"categories_segments":[],"categories_sizes":[],"default_left":[false,false,false,false,false,false,false,false,false,false,false,false,false,false,false,false,false,false,false,false,false,false,false,false,false,false,false,false,false,false,false],"id":47,"left_children":[1,3,5,7,9,11,13,15,17,19,21,23,25,27,29,-1,-1,-1,-1,-1,-1,-1,-1,-1,-1,-1,-1,-1,-1,-1,-1],"loss_changes":[9.108613E-1,8.695345E-1,6.3586104E-1,1.0311767E0,1.2008934E0,7.3362434E-1,1.000461E-1,1.304358E0,1.6688831E0,1.0272427E0,2.4327785E-1,3.2420212E-1,1.3487339E-1,1.4941841E-2,3.6795437E-4,0E0,0E0,0E0,0E0,0E0,0E0,0E0,0E0,0E0,0E0,0E0,0E0,0E0,0E0,0E0,0E0],"parents":[2147483647,0,0,1,1,2,2,3,3,4,4,5,5,6,6,7,7,8,8,9,9,10,10,11,11,12,12,13,13,14,14],"right_children":[2,4,6,8,10,12,14,16,18,20,22,24,26,28,30,-1,-1,-1,-1,-1,-1,-1,-1,-1,-1,-1,-1,-1,-1,-1,-1],"split_conditions":[2.297513E1,1.30256E1,3.7514E0,1.303297E1,3.5062E0,3.185119E0,2.84006E1,1.869871E1,7.022208E-2,2.2172E0,5.78302E1,4.124216E1,3.368E-1,1.0033E0,2.8E-3,2.9836001E-3,4.646512E-2,4.117596E-2,-2.0469401E-3,1.4020312E-2,-8.821417E-3,-3.362338E-2,3.688852E-3,-3.6343099E-3,2.8178161E-2,7.2597735E-2,1.3250709E-2,-4.2773606E-3,-1.6467683E-2,2.8048754E-3,1.069754E-2],"split_indices":[36,3,10,28,1,30,56,60,63,10,67,54,0,0,0,0,0,0,0,0,0,0,0,0,0,0,0,0,0,0,0],"split_type":[0,0,0,0,0,0,0,0,0,0,0,0,0,0,0,0,0,0,0,0,0,0,0,0,0,0,0,0,0,0,0],"sum_hessian":[1.926E3,1.902E3,2.4E1,1.755E3,1.47E2,1.6E1,8E0,5.18E2,